{"biases":[[[0.8446134788599384],[-0.7442253230611844],[-0.6593443735794168],[0.8755504866766322],[0.22326155216951926],[0.37707764169737074],[0.7504969332904251],[0.5086400869188015],[0.07826523336713906],[-0.33711286342834135],[-0.003942545971481468],[0.5315386012151628],[0.2708035525270601],[0.9691676885189721],[0.7551853828169482],[0.11253258559147936],[0.8450924604860911],[0.79128793582073],[-0.03399308659968102],[0.28464415535765936],[0.985074834757697],[-0.7495743698140971],[-0.6793557217708431],[-0.4123776007331673],[-0.7561387506857045],[0.3050823521102467],[0.4685669182638599],[-0.6487648671011775],[0.6450925142510965],[-0.2898161290046726],[-0.6660786291900826],[-0.3350525571726509],[-0.5652427386611477],[0.9319758717229438],[-0.8361547841159892],[-0.5781063007239025],[0.7904190428026162],[-0.6033941414766715],[-0.9781151657726632],[0.4930170528850942],[0.4342822110504831],[-0.7682863297275533],[0.6876427213830196],[0.36288591745930115],[-0.5558315738765232],[0.25156517643499443],[0.07275925238416121],[0.7398555058640558],[0.7219667862951321],[0.023495220916989402]],[[-0.05361600110867594],[0.38293837349248916],[0.59923683615393],[-0.3202864952790219],[0.5846682351858732],[-0.45295677339172535],[-0.11338848017197753],[-0.04037617182375774],[-1.046933754412569],[0.899925231148293],[0.03447995166750647],[0.31030417677722727],[-0.6841688888109116],[-0.6918212992356866],[0.32920184272934094],[-1.265499103750589],[-0.4872276622530861],[-0.8398501346135653],[-0.9843605109754052],[0.5817432364765418],[0.6435962927449903],[0.8872031192824158],[0.0253796986035319],[-0.16934956359860784],[-0.2910112539465],[-0.5143637912559849],[-0.31165373869111923],[-0.5848885895105334],[-0.03098426803243575],[-0.3353274211696434]],[[0.06169923700187831],[-0.3884901467676971],[0.2423585319713428],[0.42684122063828794],[-0.03580716504925152],[-0.15501630609038583],[0.5590096794535345],[0.8285054537047666],[-0.711358611311261],[0.6986416913789352]]],"weights":[[[0.7167082236509874,-0.5321434274079853,-0.8966913654135533,0.11373784314970159,0.3617560366649666,0.2143640481657929,-0.6828330969795167,0.2614445979039772,0.7947285876398138,0.11657549547876611,0.1154458625217949,0.3676390985077276,0.867107279991701,0.6124581526902191,0.666869749572061,-0.1617461928888997,-0.8666856266902263,0.38245122798988485,0.16986934293158074,-0.09440374802658913,-0.21313899714816853,0.2825965816243714,-0.8698958434039232,-0.4221357052735861,-0.6590338402644615,-0.7712240198697811,-0.41717460494989944,-0.9354357973252003,0.42806775817317044,-0.4058677672947877,0.5443789599925379,0.8448660982314129,0.0847529697216074,0.6783690660737207,0.8696152384977944,-0.41615055382199895,-0.1653108236994818,-0.13861254754333374,-0.9474700207525915,0.8655118909815303,-0.0032465667889860494,0.17524812921990107,-0.9253210790945023,0.6897879152747699,-0.6679138694576277,-0.5265586791372157,0.4021543436716679,-0.13355149359918772,-0.976660433475935,0.9455151836497386,0.5761815948115836,0.909130162178196,0.9476853013715432,-0.789458063243138,0.43056546282068653,-0.7888476028888138,0.47639916615072475,0.49430108984085486,0.8883198466650288,-0.6079005152397048,0.5555299387866348,-0.18470662020591622,0.3064451640521577,-0.19982809672793622,0.24680697608660385,-0.6459195017198447,-0.1088810128054265,0.5440652215896098,0.08291362738817298,-0.2692946439730528,-0.953486911089848,-1.507154054073202,-1.7089011049605334,-1.1972197375388205,-0.04762498767265577,0.23642693162733752,-0.9642223371042171,0.8589065879236584,0.0920427634242964,0.680557080116841,-0.7128921300204352,-0.41060328813179114,0.6628608747657101,0.5756101551581845,-0.3780537658657337,0.5030032076066484,0.5493324048036723,-0.809849513793502,0.011582368108084662,-0.18147532128944488,0.6058384851895702,0.5216495334981539,0.24277458569962196,-0.046173337680092574,-0.19502080496547425,0.17560861590523547,0.2957505706940714,-0.8204024094475371,-0.5463011269894815,-1.1324390984386816,-0.542758248464841,0.1667641028872996,-0.511000497760679,0.7099277463387486,0.678911195909952,0.2266686160896158,-0.5301046332789298,-0.9235932967997088,0.5416851032480938,0.7469038515339275,0.16874727581428273,-0.6780380126111016,-0.33937102641811845,-0.9555820596599873,0.42770348368281197,0.2936303203464816,0.014749666527087646,-0.8918068289325752,-0.9046170365786407,-0.01714957581379724,0.3659459474489972,-0.8496431272006361,-0.29565979167889916,-0.6534030975995875,-0.8612820171701517,-0.5194910686124569,-1.2414635357714339,-0.9767228490863807,0.1489550657134642,0.7948656330791712,-0.9917050472005642,-0.6437053328735397,0.5387497136170504,0.2072646311891695,-0.3561875655160151,-0.16233586188887533,0.6208019800366227,0.3132534061928303,-0.6030076598859742,0.7614765362348521,-0.9821637782531691,-0.7404888799764928,-0.22450246374625538,-0.8048359479691525,0.4150075390959178,0.034946064055531204,-0.5364054004049512,0.18016436987816514,0.2756823626521458,0.8850142096622492,0.7128939203932437,-0.04352979934824495,-0.031174607355350548,-1.9814142005850044,-1.090000679454655,0.474164884747112,-0.9963205033800406,-0.5166103435272693,0.6701695137887229,-0.5606215264976647,-0.4176689044211917,0.3801755131291538,0.13033973282248712,0.8372020660777799,0.5408863309397656,-0.4536228199699832,0.2957708308032645,-0.9091983654694524,-0.9140748680487942,-0.8595214175125436,-0.3675039226408725,0.9755541081164831,-0.38183817685770327,-0.271668764668412,0.0765280684695635,0.29493408237569685,-0.13334227066089355,-0.5944165664826712,-0.1676494924109966,-0.8700879996480279,-0.42876741424154197,-2.435655238952256,-0.2601573653419975,-0.14819237125153148,0.1543513345213679,-0.2972349748902186,0.135219165259848,-0.6937994829151825,-0.743907595818689,0.31642814144592635,0.927251468646253,-0.7623103070035963,-0.6272989453081422,0.6887346199818192,-0.6549351499089189,0.23777219575801856,-0.3300558428974505,0.8095342783674309,0.24327220033654373,0.09937722224250514,0.684148031482414,-0.4140660505643814,-0.3725447987890131,0.7497098803380846,0.06702323470357842,-0.32126341730437236,0.04063537421665009,-0.8999198895383449,-0.7973065226711747,-0.9090677223705831,-0.7290001574744029,-0.6827040599065998,0.4716882722480692,0.10633113095514328,-0.6891350984652727,-0.7169374172696623,-0.35348008564858047,-0.9235691846255006,0.3989119579171529,0.31995407415954186,0.7488936466389633,0.6709965644663165,0.1836234738956637,-0.4279056343904053,0.3622575036695732,0.9481946663679053,0.6475141308601695,-0.580777458230808,-0.2706128054752684,-0.12896330334725395,-0.9650375709001549,-0.8826573195089209,-0.7673680225701284,0.7100010254593516,0.20386574110931954,-1.4943706220238218,-0.3886445794121993,0.24492527543755035,-0.8539000422137882,-0.32389556157895455,-0.33719160206020937,-1.058687071716839,-0.7465733629867728,-0.03126356392250373,-0.38465210473207845,0.11222759751599096,0.42998925157990964,-0.9199205236176948,-0.23226954274585615,-0.22816002716899017,-0.08506591727269397,-0.7278568018623912,-0.9867447555842461,0.35241513531436475,0.06720321028504417,0.0028699259883922783,-0.09274765770596176,0.35471457800072725,0.9137520010068784,-0.892576195809265,0.11583550753916301,-0.9146010986605926,0.08357467348744953,-1.3845072526310889,-1.320370861514282,0.1624928407934198,-0.15385142833522886,-0.1410688094545128,-0.8112951603081767,0.7264168673411444,0.8023925308716416,-1.0207804794153648,0.3479448168884707,0.06432769056914629,-0.7315610439606451,-0.9813426229716725,0.01778805102787118,0.9915698103573559,0.3359693597205764,0.8431964679695094,-0.6037809450877731,0.24908989787771474,0.1606831647197433,0.09263566601069986,-0.9917967624038987,-0.811945246177508,-0.22944392450367646,0.8236636670138562,0.7291246400426624,-0.8996625949283628,-0.18180273334105176,-0.8822132243206112,-0.8080687280478597,-0.24996464360615156,0.42361990873928695,0.7233060849037851,-0.4159711077453616,0.33854452773532456,0.5244183900492967,-0.8037847082089454,-0.4473506479053415,-0.9131858327733114,0.3950148448784592,0.8484387650008096,-0.9851114148275621,0.024897933224403035,-0.037790490390628984,-0.601347985782066,-0.08535250544681094,0.9549146253358078,-0.43295015456558317,-0.12708429630694162,-0.654824238599819,0.9117912724990994,0.8739914176411854,-0.03521809671164745,-0.9472297292284986,0.972618138730275,-0.9525933066652195,-1.0523566346514217,0.008890364452565525,-0.4942527682005491,-0.8112933192210497,-0.9030123087866344,0.06678874424840121,0.6152906997600319,0.09358988627210502,-0.4113367020636576,-0.5907348377397547,0.13421276388572193,-0.6442949213047008,-0.47803745269907205,0.6547993231902991,0.06300411683557705,-0.2486580324981511,0.09334262076080058,0.5707879725115899,0.7551916295817087,0.21158528921839914,-0.130685684606906,-0.7315646883819329,0.2535790793481274,0.5961115997504993,-0.22138725928207678,-0.46817025320188904,-0.2175456131124199,-0.11051436806398851,-0.4501003327461023,-0.153898021682639,0.6079363991510762,-0.551422968401374,0.0870031865625974,-0.3164928457911667,-0.9902091238787962,0.08657382419763239,-0.42882990248598163,0.8272911660457417,0.15286037746302245,-0.2254849104398957,0.17114483238417483,-0.24399819807456471,0.8644601436515118,0.7391797119662269,-0.11604860052678401,0.7037973247945666,0.668155355884386,-0.5824927888641593,0.49639415279400745,0.44728945998334035,-0.5185278815021132,-0.01636289033584172,-0.4579222048924006,0.5265438957233624,0.8745273020158139,-1.860390430045558,-0.5086053843610304,-0.6676932412615443,-0.09864758090789448,-0.644685776977372,-0.954074657637729,-0.08129120408683219,-0.26851549355528825,-0.12176934638202537,0.5963111575510511,-0.38277732181577584,-0.3465422503297501,0.08249741428834954,-0.47698831428706856,0.06847998258380542,-0.6305209937830281,0.5200717261785921,-0.03982142952721923,-0.816138246893952,0.3136222299033984,-0.2854731022996393,0.15821251445115592,-0.8938038283081411,-0.9057131321248196,-0.35457291134462515,-0.2312873970891443,0.033117144950025865,0.3296164171251545,-1.809902712686561,-0.6281877558432303,0.5537714192906783,-0.9735755597821308,-1.3578514202406247,-0.2509882261912749,-0.1766973731991466,-0.7890014070407524,-0.9383105301289955,-1.2590867707917406,-1.898487708620761,-0.6125028377942652,0.22388630012736108,0.36678377919422206,-0.7355701747440394,0.7283943000218651,0.4601994652725214,0.7942450542488615,0.28777146149083466,-0.149937173283613,-0.6931523640718336,0.49934014552737493,0.4257479963796571,-0.0012103217239756057,0.5605403552903417,0.21055306269805119,-0.23879504032001794,-0.2603217734742128,-0.8572466556638195,0.14276973597279785,0.06180609418898286,-1.0904564077770977,-0.407585989231438,0.03539363261150613,-0.4778454910455777,-1.0456151188471874,-0.5045253615531281,-0.3784308927178974,-1.2678685883233292,-2.1360576351709493,-0.33214864105498465,0.7279686600423056,0.042740247280272654,0.9947047238331572,0.5760209086522012,0.6327142070307243,-0.7784618783632771,-0.09104128732312522,0.395974936932298,-0.6112344763228863,-0.713424479609341,0.20238431556365863,0.9448884416329737,-0.176584437583757,-0.15630549968777147,0.6546039852638286,-1.066799829344355,-0.7169422516260073,0.058682586790044025,-0.5487025297032274,-0.2805546939437765,-1.3717240170824823,-2.066362080728349,-0.23728294348026036,-0.4632279630359419,-0.39084339935266094,-0.2018318077916328,-1.4834107506512024,-0.5018304821166247,-0.4785083618250914,-0.4732585762134318,-0.5239481107880339,0.14521460947270204,-0.26239196769327067,0.5185188725501306,0.8802225395329575,-0.9588688836134873,-0.11106281436069709,0.918953437875988,0.06968185771232824,-0.5840135340306704,0.6630589725193337,-0.3209665455267393,0.5976618798993864,-0.6749380828088118,-1.9487497612308537,-0.19451607611751817,-0.5138888149041551,-1.309453281609594,-1.1581169252547299,-0.707474419738119,0.6937637185547907,-0.6988520912979029,-0.4939478899122832,-0.8200831633189988,-0.8257861022793539,0.6016731282233798,0.37260948244704317,-0.046290477236748284,0.924659163521363,-0.5529754638475921,-0.029741097559725427,-0.9184304919778215,0.11010672440657365,-0.4910280073974975,0.46597628917891165,0.3134713745838058,-0.20594248107241087,-0.3597690477205343,-0.6231163193171652,0.09497570258034803,-0.01353662756134838,-1.7679375242855662,-1.1673963779105467,-1.1741396860523998,-2.2323247469535805,-0.8193724984931172,0.8016054601612534,-0.9552586790677716,-1.0973160755870726,-0.6978063632592902,-1.5042585249148612,-0.3107014216145133,-0.07155947713846393,-0.1351398481185642,-0.03468526050969367,0.34280485786459036,0.5203996181158721,0.23781321014260803,-0.6740934979178996,0.5692457153460941,-0.12913886138499153,0.9350549764143123,-0.375152676426016,-0.6409212802419206,-0.4461675543318015,-0.07036031077244208,0.6548598342325693,-0.8601288118749453,-0.007138289660133075,-1.1388253540644082,-2.166678676132817,-0.5179615454134537,-1.9416743306387072,-1.5286836652604423,-1.5914149622293614,-1.3866195895919757,-1.9643175543066862,-1.7031541950270064,-0.6950864253623689,0.4751054754735565,-0.4100274406724273,-0.5772138691895421,-0.09390706637141769,-0.6069616934829187,-0.825683589810829,-0.03951139545964244,0.932842631742383,-0.9469999418534791,-0.5502277856737281,0.9502003930980358,0.3654683482971042,0.20300481593762054,-0.2614677531528342,0.8239910946705836,-0.10634819328269883,-0.5379168883888857,0.36254813804372893,0.38627560525436416,-1.9063239722258036,-0.741632695746012,-1.9496576822681284,-2.0618296103420306,-0.9085045651614179,-2.376111034978657,-0.681106846447141,0.32523220194429253,-0.9688808555293491,-0.7766541142626033,0.5048762688510242,0.41721232722518686,0.8095178617338296,-0.6617180834861944,-0.4582362573004568,0.4687387625170494,-0.13549031883353302,-0.06289868633833406,-0.4703471576230014,0.09052562467326442,-0.03911893659617749,-0.4507552342487813,-0.08402969481908107,-0.04884727472877491,0.019338690038751397,0.5735141601391811,-0.11900052341712751,-0.7493641534940851,-1.1861301027751345,-1.726728772508379,-0.32559497706890406,-1.2530360062994612,-0.9988582903006984,0.5953666829374411,-0.32707496712659395,0.06008973003298936,0.8272542638832049,0.5049467960173029,0.03529649002908904,0.9007332839858275,0.2770511534026822,-0.06335997620864031,0.5854890906921477,-0.706388490739589,0.8775849012859274,0.18441831393550867,-0.8547080673783065,0.3463131223967897,0.6952866598932419,0.07592464244893704,0.7738874778430831,0.9317996688250982,0.632706853388564,0.04641955296156165,0.635625730392015,-0.6243623996248151,0.37920287153422166,-0.5363191270811717,-0.7190380298272301,0.5238288014856314,0.11636085301705099,-0.9805824687272647,-0.6177771445852289,-0.37156963541386323,0.2616045169879767,0.33382240989461104,-0.25533048261631025,-0.3080962164731996,-0.8966833835998876,-0.8941242969033358,0.6554000657677439,-0.7425537407111817,0.5072156610764331,0.831323657808305,0.41590736723141464,-0.21567558484050386,0.7621125116079464,-0.22742822415726427,-0.29177254577237377,-0.5822377969421298,-0.8038660777950287,-0.9221300188646543,-0.800273471502181,0.6872401966006748,-0.5720377885601607,-0.6687670782875594,0.3212589668248048,-0.7628005910177886,-0.8713031377883994,0.049053381957071256,-0.43624361213296703,0.08909039405932534,0.3607418301787924,-0.15185965388846562,-0.13116216783632068,0.1292395256733287,-0.5444720511765889,-0.7202539147789959,-0.31567226657922753,0.7534477984570624,-0.38460180819516854,-0.0826094164320823,0.22651971580351926,0.288680141519718,-0.33800315025558847,-0.10649407766371112,0.49786506291348154,-0.16274807620937068,0.3416444821736357,0.5737430336440242,0.3555421279294093,0.4529463551019655,0.8896559133351057,-0.15213309889969062,0.40506698658695156,0.9708692076274505,0.48379491831785854,0.9487402987446452,0.7797552303975173,-0.7935110127802453,-0.9265582740791092,0.7074831527475246,0.34080345227958375,0.4488609011073007,0.8483741070392381,-0.7910126791984059,0.10419952994586179,-0.4674991168469389,-0.6990426371757501,-0.4514377934527778,0.781324132495643,0.20158675533084502,0.2939292770147024,0.6939699250634682,-0.6460456010027791,-0.5974963521743353,-0.4988359653812262,0.5056462252702327,0.7035312230092894,0.10364421441386285,0.7578541117383149,0.6869980555796523,0.5370620778975056,0.16191932978133178,-0.27969301358773124,0.6453023322074091,-0.6931940487658987,0.3609563181608876,0.09179096982068756,-0.6519758307074418,-0.11523516893339353,0.3861556295645897,0.496735659176897,-0.14974995169914695,-0.6175478817898721,-0.27054008602823343,0.29968586991835733,-0.41562320837220934,-0.18238943425589782,-0.9683228682302187,-0.15617794942306862,0.07620794879216208,0.07905173426400736,-0.4285351636060708,-0.20775288820941773,-0.6638423777255327,0.9280937332087293,-0.7318837222322603,0.6973472267890922,0.39197370728929937,-0.2958706218284037,-0.043210490402215446,0.23223001798616605,0.4583053969109968,-0.716884516683289,0.7465286441287664,0.1614127973219559,-0.0860672647299272,-0.8690519598785673,0.6117687674790921,-0.022619524287440296,-0.19524250592981152,0.3005517243514588,-0.4393888304064264,0.21445263060600084,-0.25428091225712524,-0.9524733085871349,-0.4574564039708695,0.4606817326351704,-0.685406057857753,0.5165421651537776,-0.49705563992429136,0.8700763389695108,-0.7508492515708187,-0.5202960582723495,-0.589613473306333,-0.013539491015285954,0.7510216138458952,0.3809531624020668,0.8182091493058639,0.9254992365981607,-0.8825175982557154,0.19962558253750973,0.6903847473777418,0.050697021482591254,0.42214229259565017,0.01951288499738535,-0.5912850564493066,0.8300564877110073,0.8275446403206985,-0.25891987564620167,-0.5240559157212246,0.8087186189184787],[-0.15214958026534386,-0.12609215991455525,-0.6101535050465616,-0.6317019752104447,0.3781922823637218,-0.47105159347522707,-0.14946579834826124,0.9175528341854713,0.397651920393568,0.12165760667806036,0.9924338052291084,-0.18641206657245823,-0.41162678005489495,0.823928820101909,-0.5043911105404693,0.3468621842187747,0.801444213748854,-0.6611603059940987,0.6236491569991491,-0.5162867226059107,0.40124617397342566,0.7664153809383616,0.8622667469299936,-0.13819665420207028,-0.08566977740458404,0.8012456240833159,0.055211427678284464,0.18096958250727346,-0.037703672015534595,0.9510902897185238,0.8835272322281682,0.1658193747315182,-0.9816056724551683,0.3976072315178718,-0.3163277960284012,0.3572471790748648,-0.9471404921617754,-0.41708440619395537,-0.4922495571838956,-0.47446430207270973,-0.9641153018397715,-0.4653446186544148,0.14916868603191902,0.3559584127621982,-0.8670267565230281,0.7434031818460346,0.743132003655925,-0.8782271423306478,0.049368172826715684,0.8076955904087149,0.9847230212471922,0.5853874532217174,0.6195714814365747,0.9983113521121432,-0.4619037540840609,-0.7959350942508936,-0.9832739548440514,0.7534772105293579,0.635026487098832,0.4682473674487455,0.22176866994939326,0.5814960488817373,0.5214569906073279,-0.4732034467046585,-0.6482657608073934,-0.15362244380943582,-0.3053232823142374,-0.10864520484263375,-0.3403715084297682,0.13705851048798245,-0.34459658080717653,-0.6500505222523083,-0.6177021154540266,-0.3612890580412558,0.9695938764281186,0.8553938818242358,0.4107839601143748,-0.43434736379437133,0.5543842555518206,-0.8433950611757954,0.48234974227581073,-0.6655045568495896,0.12124799374812789,0.17308321459689502,0.04748120572889225,-0.2827998468128534,0.24389241428413921,-0.22159226720979985,0.24085390153739383,-0.3821763628924637,0.5494897896060867,0.22724093087596925,-0.0844206264593227,0.5820585466504095,0.6401400457487311,0.5002099336472376,-0.5509858760367043,0.6960873472261533,0.5823527829524345,0.5898605608074718,0.8873437678344637,0.2441495668452998,-0.5401121867470724,0.6498991260166194,-0.7639882697344432,-0.5226458384172813,0.2697072860419616,-0.9613182097998971,0.8994804908391065,-0.14755146305678735,-0.33785446941930686,-0.6609898556128702,-0.27176933455082697,-0.44056044693701324,-0.588248915658866,-0.5338855878348836,0.7477439537699941,-0.677420987859019,0.37132621306231484,-0.15091978945414944,0.3709311697472106,-0.5901492867347683,-0.6752560941003659,-1.0451917837993487,0.17454545867990126,1.5245350889935771,1.4346376318764662,0.9802165257993526,0.964542214902871,1.9932670179749434,3.7028740193975143,2.6701194313714813,2.3685431641078822,0.4539652783417,0.1355089005550138,0.8566139284691614,0.9942316673901692,-0.1881765501042767,-0.26109721789025464,-0.41176329711838844,-0.9613986804731995,0.7710568076852393,0.7173818971468717,0.875525039235463,-1.2376020289047243,-0.9337481377059076,-1.7520329726282602,-0.007733929528998696,-0.41144315730524966,-0.6613065277174514,-1.0665147970990014,-0.17938910740949168,1.7033379828898196,4.334447587581979,4.4162199623529474,6.439356482799582,5.475247871118528,6.021624122572412,4.458661800257774,5.423901301705554,3.2985563884976234,2.3599071338604913,1.470200491598243,0.2326188218924826,0.05163163778023523,0.8477521521625387,1.4015536974429539,-0.9914441689650701,-0.0015668155956529706,0.08523311093989627,-0.30609343947406153,-0.7891264308901487,-1.7559508730984348,-0.7821413741451451,-0.3137545490435067,0.31367747807269153,1.6140824235729487,-0.2252221098618325,-0.19025411537437348,1.3986918113336126,0.2873079112110385,4.339692574744599,5.187996434546909,4.68422891703649,4.886867465336238,4.78573317477178,4.760934300687894,5.838714327988124,4.138687594776676,3.104103362639003,1.1509774128937345,0.7760655547932661,0.5252837005871368,0.7569126591886296,-0.5328840183018746,-0.552345144563186,0.2675448376152936,0.011138414094079563,-0.24846420737624197,0.6810373641903464,0.008387993873920196,-2.222877541301779,-1.096623872732968,-0.8912725970152858,1.7790235424278869,0.9483826696035101,1.46688328902964,1.009560482327621,0.13107398466411313,1.6767349815725168,3.14295982121074,2.24383040889717,1.0125667685720452,-0.6681885642879088,1.5457086872785424,3.8224580203255747,4.943647459302571,4.330393204386704,1.0193681101786127,-1.1878546736705535,0.8057064017167553,-0.2832287512600007,-0.47567433904705636,-0.17797501118317327,-0.21338908667013756,-0.7061287650714565,0.46638452434478883,0.6954591599839581,-0.3961735763302346,-0.968550154274932,-1.2018848697138118,-2.294514500872801,1.5174427913326092,0.41010135311526713,0.10319106067511896,0.7141000397097943,0.7744717994650286,2.010964802239428,2.2082420079525034,1.5606458707762414,-0.009632195687541197,-1.0753495446831571,-1.259438928380549,2.6887036146474337,4.30169885095253,4.356675113185364,0.6408932993882256,0.27147872074505214,0.2992246581707616,0.8020342782256727,0.6725802362768805,0.03514272792310846,0.8129982636837221,0.1513658810769738,0.9839282182378796,0.383618032093007,0.3821626479372932,-1.0824117444522117,-2.140903586543158,-1.9508371504459672,0.2680882572388591,0.34690241743675343,-1.2340542393904024,0.5484301710103905,0.5474643364616576,1.7975844884278536,2.208682995729147,0.7420200053048202,0.8418215474842492,-0.19398415840514366,0.21127631710435577,2.3951767931306303,4.845430994953557,4.078312697637011,1.038528269551609,0.36178770177271447,1.1275846811235382,0.9213243327486639,0.03581349893064534,0.5795827330142629,-0.610993860573517,-0.5745564147037447,0.6979014577342671,0.5722500033601583,-0.5407987717731266,-1.4337125126775028,-0.8553261492457167,-1.347456115534056,-2.672677803932502,-1.5314723996620487,-0.9278577518420303,-0.22782231963239058,0.36842416958621893,0.41175585468925197,1.516380010505349,1.0812251533978523,0.9477965618063523,-0.6686225300933278,-0.16613495539994713,2.2855014650764947,4.546937759596206,1.7305773796873616,0.514481210054745,0.6225405186294866,-0.7618300930984914,0.039034530211640425,0.9432541113074469,-0.0035382948380300316,-0.8230682359689321,-0.6389622897447689,0.9977808423649343,-0.2403898751056923,-0.8374114156410567,0.6122182883502848,-1.5994449432592412,-0.3980022438903159,-3.1470420259814493,-0.09202596070904524,-0.5969445528954901,0.3496454028344797,0.7955962739230037,0.4027191674036161,1.2825133860544569,2.1314729371329677,-0.8326087307031814,-0.43491475504429894,-0.13613466801024876,2.859399390849977,2.907227768737124,2.0491161667386906,0.39433194631192503,0.7815241234126263,-0.28649446085136376,0.3170852376700595,-0.8403063744484118,-0.3237647542507134,0.34345072878276817,-0.4052399924672241,0.11055257448643513,-0.05473840452860358,-0.7806915723257508,-0.5132816426724343,-0.7882846112522559,-1.507163246304552,-2.608699258292885,-2.270804786996234,0.8226908676873802,0.299315492652295,2.62146355086909,2.8591769446224697,0.9595873107989943,0.8373296423252742,1.5916936387440284,-3.010067314906041,0.011453118312915475,0.9647786854056942,2.205361138045532,1.2861695280537546,-1.2145955411134863,0.30939991862774524,0.5578912690231093,0.7109262994407743,-0.011823833710017065,-0.8319088039877389,0.8397277276006199,-0.2975184411281693,-0.9165363425293551,0.9232704590135907,-0.942872653526219,0.33951018063453975,-1.0802690945997615,-1.8686673699822907,-3.3847661631191053,-1.0809399159169695,-0.7871573130848912,-0.85361887347474,1.3643887836909676,1.1462054066350253,2.9750940431563753,1.8185996207838975,1.5356937512820363,-1.448644575669076,-0.7972257236469611,0.660662629111723,0.6062280797396461,0.5208875975046215,-0.9475968529386173,-0.8763199325589788,-0.9701595020948316,0.6316805305233887,0.5406863199180661,0.7695767527452306,0.7635341659014789,-0.61477833965333,0.11529494555761421,0.1396748625608067,0.3381099546735794,-0.8728344347217313,-0.8146422932868584,-2.1630770349501423,-2.0194960247994094,-2.9045295421368036,-1.9041188944513288,-1.6110982405665208,1.633151699865836,2.4485025608399194,0.6001673597143863,0.6242450676653004,-0.5237885426316142,1.170407798585436,0.9328140546234683,0.2570570028832304,-0.39246747862522197,0.305358708199977,0.6602358876439807,0.27248284362872127,-0.7952055424909674,-0.38546848439404724,0.789725056222256,0.5667547728595455,0.6598528464782085,0.762783845253356,0.41485399990286664,-0.013368757886027654,0.9076903085359769,-0.03159916713569656,-0.9152235102041699,-1.3554618376279173,-2.1853629918911777,-1.6341833944393873,-1.5527374939336456,-0.6901023691492193,0.4973697328107397,-0.057735360109188866,-0.3638116857442474,1.5552595576500714,1.0431440589768621,0.8304233253338784,0.22439537579480162,-0.8054278171649647,-0.25991184790693733,-0.5483926707334562,-0.9211344370178397,-0.49762894967984755,-1.1089173613631003,-0.5431718006059343,0.23898612759545634,0.7970183804964552,0.3275497718685676,0.3679508660416879,-0.6701589798713237,0.1809165659056038,0.1755264242797979,0.984171582239053,0.8609070327768652,-0.9090312578131435,-1.6967011524673545,0.8240654769782131,-0.05424575221113624,-0.03408085876242171,0.3936919768071589,-0.1058937397045323,-0.3579289308881013,1.7917775886993996,1.5225338411474476,0.7240196290517456,1.959621628633785,0.9496414804738823,0.006831073364285981,0.4597179150222441,0.09060055601190375,-1.4806607524948816,-0.23300039393361785,-0.4128600726708228,0.32387840146016655,0.14321819005378167,-0.36851876393160143,-0.3308731922157899,0.3312697979077388,0.548108352961158,0.551271742733949,0.8072281837521026,1.4486409231739543,1.7855685150760663,1.3883333310594699,2.5529504942179333,1.970926941559762,0.05092697398430025,-2.212274124644265,-1.2792333834312126,1.882332823942914,3.2569955825164345,0.4773517020291956,-0.30577288249158324,2.4468236099984235,3.1302608600108406,1.7192487672874723,-0.6819818501573696,-1.2274495049002787,-0.9593774478498591,-0.3127326113849604,-0.08170265472492651,-0.6527540874339655,-0.8312585172599003,0.24358744065720717,-0.6140665496537725,0.8534309848455752,0.7937799951930561,-0.46344414486680213,1.3864573104811706,1.7111830671743085,4.424519831635194,4.203584376702066,3.4448292284930804,1.6961523719948746,0.08987516371552311,-0.8134055227003004,1.6412864749909966,2.767817941857997,0.9755475814018495,-0.7588410122774885,-1.7825256657288668,-0.5222594400490168,0.7208562067266051,1.6688366925448825,-0.39752446518389617,-1.5444691872215772,-0.620052923466814,-0.538415731554574,0.9680712159946597,-0.320973011780056,0.9794291428081099,0.2044485184639393,-0.882549085740661,0.07914577619861829,0.1778547676206701,-0.15665283456673149,1.4861801358316225,4.270804257706827,5.651710711210375,5.560267447049263,3.0913797487636723,2.04030682969072,0.30449866561372846,2.1441277721201786,3.1933963481765417,2.777507015292449,-1.0303178245185192,-1.6590922576085112,-1.1189880416389142,0.8626821143848848,1.3078187887349308,0.3433306736721522,0.10680389119527382,-0.385678090234737,0.21718834237912601,-0.7034926188457746,0.48181336336622493,0.2261768595785023,-0.32431247213969283,-0.4064293023471315,-0.15415824560563807,0.9142066479699492,0.2808863220595586,0.3973770239383895,1.980073235027298,3.7600676214407986,6.118914647546406,4.307769341904363,4.191533111132316,4.072056172144267,4.118907285597597,2.7979787288763993,2.1886439843376717,-1.0986823180024625,-0.715357046448919,-0.5886127143119328,3.057126435551706,1.5069850276825982,0.5275177576182337,-0.42681003114376953,-0.13966059646002538,-0.9347869534999872,-0.6812207948116229,-0.912675202348451,0.44456092731199004,-0.3797971074863591,0.5019955932278941,-0.05937811829351225,0.9851595069874834,-0.07819109782164772,0.784334959248245,-0.22626928109841443,3.023100323746542,4.846524596464781,5.065641243533529,5.865873955038877,6.905977846158043,6.240570477368001,6.22016080309262,5.425051130027888,2.232643370892911,1.7020583085967789,0.8427376177860941,2.6080520064005412,2.6343090992583846,0.8250114433164558,-0.7663691947878588,-0.711364006822274,-2.0993702574561177,-1.5530051230219926,0.5654586634034415,0.8762582451858254,0.1588154143667659,-0.2603657770280088,0.7734445222096622,-0.34628566419486284,0.32701578608665915,-0.015897319819152027,0.8906192843922884,0.1731520438952422,1.642377791569146,2.8552613933711437,2.900487224388085,4.86922144060499,4.595050534571862,5.331351335152068,3.1673389667549197,3.304091188276618,1.3283012321898209,0.025904759364460912,2.317304773057698,3.637039264795609,1.0152737031154777,1.3359399972770665,0.8018394718166212,-1.8992135362216005,-0.35030378727898415,-1.5162939889294846,-0.11066877847547363,0.03217185547373913,0.6046823517486837,0.9384028422787529,-0.16131408838795713,0.7148774411295549,0.044701057000338995,0.5961397298144515,0.487151823331492,0.7055502890534382,2.128979975333259,3.774800600298128,3.881555580715842,2.646391428769111,0.9795078204675816,1.31900443278207,2.0569825829352353,1.2790833245637663,0.5533351763536155,0.909401071461361,1.436054841251626,2.243570009755208,0.8804826692909226,-0.3579812485332875,0.6597022525656767,-0.5258436831446612,-0.5811067749131705,0.020876402307950997,-0.30426853659856185,-0.8226094611492312,0.6090666637013604,0.12842152137517404,0.9547280262479034,0.07061328419058044,-0.3486991025895727,-0.7690136152417504,-0.21039320965167052,0.3887946081443941,1.0020571254953416,0.935734721587033,-0.42205867718020823,0.33363603755438215,0.4664289077078255,0.0323374932868909,-1.2965312232186197,-0.3017514900214091,-1.6876745033337188,-0.283247857712083,1.1986498366317473,0.5123639948022578,-1.2141859537425024,-1.3176514468014782,-1.2205633036574082,-0.40375095569698066,-0.6940191633758258,-1.27917478288789,0.23252632534319762,0.3396511285792758,-0.45781426470771436,0.40632779020754795,-0.868270484445316,0.46270156443004007,0.09252995502390648,-0.8272286988962672,-0.22493182322580152,-0.7093249474693264,0.5152248349391225,-0.46929817490470443,0.024005242808791447,-0.10021734744819513,0.40006882852006476,0.7148767425558247,-1.0842343634870175,-0.570362992434494,-2.1227639199223036,-1.01971201566241,-0.9094058705271089,-0.9061486235441938,-0.9705948923725493,0.10072429928940649,0.5812836209248777,-0.6800281340386173,-0.5895517148391263,-0.696088523043213,-0.45123334397616444,-0.7847676198710445,0.8676928772143433,-0.44798619224893055,-0.42231178519026136,0.016093494835202504,-0.8175540288374799,0.8751393180247784,0.3584833679270742,0.30995387058854995,0.012143830483662816,0.13195656758112118,-0.4907684342262986,0.6557004087282692,-0.8000869309644535,0.36201957779567756,0.7045237280036507,-1.371578425257464,-0.1893973548165242,-0.6529871611081579,-0.3625431853113868,0.925711248760786,0.11776766525112552,0.13427270661370708,0.5418724564289668,0.6664201162878746,0.028815724988878945,0.6692156028403156,-0.29215662384927743,-0.7564339298989633,0.15797836329332382,-0.07680262464694021,0.3236924644800314,0.01979540951761094,0.26976640124220874,0.2636304813881609,0.3073270957285952,-0.9281855596600541,-0.5694781241330271,0.4245277490173678,-0.12041293488519743,0.2169067017578869,0.26571200136268874,0.4696076327642535,0.5186690093311703,-0.7566255361206112,0.5672500206664887,-0.9421932773048828,-0.19492994620125734,-0.8485237519290898,0.23633864705186822,0.2361913752337894,0.8810639560774405,0.4204091976850719,-0.9292976418880046,-0.4713178412820178,0.5221309108235956,-0.09318149536055764,0.7429505117625037,0.7515682785553928,-0.06644076007310185],[0.7999499929716427,-0.11771599207639127,0.09267002981717942,0.02259345923773548,0.06547982125332918,-0.8829150903224565,-0.9846311187195209,0.3455561432483252,0.9782945586001279,-0.43285706503371424,0.13377404470153964,-0.9987539372155836,0.6846056347761877,0.78943777667196,-0.10074226675018494,-0.02679283930179155,-0.4282186764402236,-0.29157304852031296,-0.26577881273729376,-0.5531086108447449,-0.8875466384110404,-0.44161793822268214,-0.39815594916452257,0.8170380927573899,-0.563925655515801,0.9994559835780596,0.6276476662151265,-0.582000612995561,-0.057397209251794035,0.6437307243998933,-0.8905479260504408,0.6727647130163934,-0.8438634583396591,-0.9780330698590232,0.8793829699602906,-0.9349753285661608,0.15626652376837957,0.043396566935554715,-0.6377436700548862,0.9699611607750334,-0.5854480221516052,0.7133296481943068,-0.5133293085962063,0.8720381653314846,-0.3971475295600304,-0.5582278715425968,-0.9077304159283346,-0.340756405843351,-0.654560318225992,0.426407553331273,-0.4961842378663941,-0.8679507687673989,0.1722785528701678,0.8600200642548639,-0.034086478999698855,0.15949970652870604,0.4426442483349069,-0.22482467313177312,-0.19658207862104105,-0.6886612807102968,0.7251583754391493,-0.643934869159279,0.6739350524573378,0.7156223174984848,-0.19250876522800908,-0.9200332187950342,0.0405148354510132,-0.5366318543660111,0.5742834751475757,-0.327457850103623,-0.39642181719720576,0.023097754222256933,0.11493388693650128,-0.3790244085027237,0.35635645336284594,0.14883273573169198,0.7971511883855672,-0.693133341988063,0.6666522146624347,-0.9006294296207427,0.3151552598373586,-0.3739347688833903,0.7722037771618491,-0.6842327051022639,0.07715403328159876,0.35583722119858097,-0.911140471056578,0.16664361291399854,-0.6713161297460244,0.6469805747967035,-0.40682669701975427,-0.9791154581778516,0.9340843292928402,-0.018514985132327633,-0.16359524490032085,-0.2333976046481292,0.6405474021510411,-0.013813832141173349,-0.184322673408996,0.5445362574826556,0.5755283425957746,0.5261172666296493,0.554573949811539,-0.861016938128838,0.35433751148963943,0.8322723692633123,-0.2558918310973577,-0.8664963302748683,0.1026107015752864,0.7300480441283936,0.44029236908364466,0.545782940029734,-0.8226751969717816,-0.18307631429297166,-0.5593029446691822,0.985795477259857,-0.5631991339932021,-0.6713239195553649,0.35148575613942246,-0.8517285807188393,0.6867682457035991,-0.18886509934649512,0.27976467798918153,0.9090809832927076,-0.911299066582833,0.24537150062422028,-0.9913367474992196,-0.6065983577134156,-1.386326232407181,-0.7615953829673008,-0.38975693436809644,-0.9280720650426791,-0.5749477325095818,0.0770837703904035,-0.7240943578330384,-0.7519685033987323,0.5378450010582376,0.6438522785739131,0.5400250832038915,-0.30190252844141896,0.8909215563514994,0.014220040498708286,-0.289453561414017,-0.19148414614808607,0.894420783665812,0.39124211323760805,0.2335283393554588,-0.7112509344749817,-0.5477220112271305,-0.10349621392664474,1.232133021285787,0.6072231504997586,-0.9821428497530491,-0.45197620209613204,-0.03048156459874568,-0.9182884833160986,-1.2652676170189034,0.29707623135885863,-1.1300166518333292,-1.203253267574957,-0.09925039170223447,-0.9446200078996249,-0.011546213656177468,-0.5036936945705501,0.6234290933121784,0.5184824085270181,-0.926613086793791,0.17793643433576634,0.2497105836650939,-0.6337944780383042,0.06575210215453242,-0.7981532174189203,0.38673386667942533,0.8999940146002612,0.11847117724225309,0.8523374135759094,-0.43889094470549117,0.3136766199490722,0.09832335350220517,1.0131010458612695,0.5192266623219368,-0.41869602697722724,-1.2214226345156631,-0.8222393931459171,-0.6012812998153793,0.175679832992353,-0.5202694590179595,-0.5938012595164133,-1.3472813529278254,-1.6144511112035533,-0.8612579828016071,0.0568281150790607,-0.9576506784352002,-0.7575891963143857,0.6265590447132479,0.7065901196599584,-0.832262803246443,0.7928819289115177,0.04236871100849848,-0.4533776830464915,-0.7712540186726033,0.33272400527459056,0.40151604959834847,0.10148977046583668,0.6223416645048839,0.19050049081033943,-0.36313911921200914,-0.12896215454164406,0.32359460993589023,-0.5765152067556377,0.31641399402380194,-0.6280288110685739,0.5277823739980796,-0.6610649574725493,-1.4454246106570814,0.304832084780697,0.014419040371605019,-1.317846499721326,0.6847958312394506,0.9494396973989224,0.10321136586437697,-0.7691506515208513,0.5111986555686825,0.7127554982119932,0.5777313814479155,-0.04217284291823886,-0.9219179127710173,-0.6661585237035577,-0.802958537800663,0.9129169664025811,0.9114576077677755,-0.48184032689749745,-0.0876780719710768,-0.36323919168251273,-0.9624406462871145,-1.3727242816255318,-1.7456460953167383,-1.2258159453525774,-0.3948241581609756,-0.27483486829328063,-0.45532222600831795,-0.426391675701908,-1.8597280326459105,0.5750750221922488,0.3577184035605382,0.4915764303413184,-0.5580530283840023,0.7205717610372011,-0.2649407793153791,-0.19474861631107993,-0.4586336267573776,0.13840030837171025,-0.48241125774068494,0.4927209721818071,0.24688200017518347,0.15654011505630505,0.2555493703855811,-0.8834988185332513,0.8026258275616583,-0.10742493640960804,-0.30600529166148305,0.09073883398061594,-0.3063978332323002,-0.403630571944443,-0.9647185803745866,-0.013554936249490612,0.08818502144460805,0.718308826045077,-0.5509911749724534,-0.1626919249770361,-0.9796346449373554,0.3125312264701432,-0.32865765023796845,-0.7955748163311634,-1.0246949306827629,0.6360454679424263,0.5757574613367072,0.020482946100630332,0.9131275442942113,0.9620267269704613,-0.7851217206561165,0.13312574734814775,-0.43315060713111375,-0.8243463994389331,0.0030649598994128605,0.8261204323451301,-0.6144618758671749,-1.017055629757829,-0.8480505522062926,0.09875812334298627,0.4541544636139091,-0.8803107425698143,-0.22457863088006766,-0.8348054712153293,-0.5673103619254862,-0.7739534950909931,-0.12004592037817108,-1.330094921606709,-0.39913002377466666,0.4284587534885573,0.5651971534554061,-0.5145142874478297,-0.5761937108623697,-0.8543481639742962,0.9588514434957834,-0.687016642303558,0.23497244615893886,0.07853730437532258,-0.6675531736921572,-0.1976913172131196,-0.029636362409712236,0.5711414231116345,-0.5213155115662588,-0.42187778877981424,0.3296655849482236,-0.5122436520145898,-0.12084054175804637,-1.066599372541635,0.011487901181023174,-1.084662290022047,1.0908941400220333,0.14575357930903443,0.44054784037896055,-0.30412517980208775,0.28410022352857545,-0.7297070294780394,0.23850836506176493,-0.0929310250503939,-0.7050017536760156,-0.8431648645350068,-0.5900631474514134,-0.9851698357319343,0.1024407260421899,0.2773005650396398,-0.3795858537784227,-0.924675274334896,0.4823666348593483,0.018147375979875813,0.4517939039444441,-0.17135954595955338,-0.6092047247853392,0.6466331277299286,0.6623634686397939,-1.0134110216264822,-0.26569888047872736,0.18012501148830093,-0.5095220369353871,0.6391546642575302,1.3227013871921034,1.1328262653771723,-0.09932847523952298,-0.9893570969717239,-0.4299578862582598,0.42234797972356164,0.4533742399835149,0.8801507578751475,-0.4621393666296475,-0.198828944312675,-1.249456213107842,-0.2322358645195837,0.5185700176228649,-0.16617506684860278,-0.05296819005966613,-0.5061848638152375,0.1730489113327669,-0.8343951942334358,0.6925721759234844,-0.31185149332027473,0.09070412013506765,0.5327953726071575,0.6477725298162854,-2.1175640147132704,-0.5079092717385654,-0.18467699913505614,-0.633904042190811,0.33036727144893807,-0.28687128746716983,-0.04237468703414891,0.14735638246178376,0.5290784979886257,-0.7361959111854379,-1.594955780070376,0.9107904812170543,0.07033683180008954,0.5706954864579832,-0.3378216695306593,0.3431103140038403,-0.3435214547556412,0.6633987868148518,-0.7861066378487225,0.08921914033119682,-0.232385104415626,0.519571141219572,-0.8570843659931182,-0.6330045397087072,-0.7578237112343906,0.2976992724437716,0.5739487009266038,0.4609841661698132,-0.21037828749996523,-1.6911079545510657,-0.6623294323549587,0.7886636658950501,0.2677053541291755,-0.98216861194355,0.13489451573001923,0.24594797243385239,-1.255675615962014,-1.0402986637599083,-0.48360198117868336,0.7152473247638463,0.49033176646323445,-1.1287563505195268,0.600080429145846,-0.6252017852758917,0.2519632539154294,-0.12022264238190467,-0.8835009646934162,-0.42829402474610334,-0.7863442939420611,0.7104054426026913,0.5035852374721133,0.10682769110544577,0.07240814151018005,0.5823996271682425,-0.24028156708221257,-0.4184254240242185,-0.2907074373166623,-1.2984919427604646,-0.18796279391429327,-0.23593021395566657,0.6301626898124708,0.24066602554342906,0.10327420330611235,-0.08452004462611154,-0.5371270154106617,-2.2689866950434565,-1.700851800391579,-0.8216004958136041,0.4100531677858616,-1.2450294838771183,0.8077742453858376,0.9601497612674118,-0.24277885361660842,0.6236095115093098,0.46611809416909367,-0.7036211237544412,0.9944145650682668,0.2503035893207477,-0.15051074153550514,0.1161420126120396,-0.642742213395795,-0.7153041677113909,-1.2196228966337637,-0.4353408075100371,-1.1877990147784758,-1.085720295131145,-0.5283899873847925,-0.612955332374536,-1.1246379797032326,0.13919849356850067,0.023409204729720294,0.0868762007989752,-1.1441605765766303,-0.3264139388740598,0.24566870398496315,-1.3884064996015184,-1.0864178496872223,-0.9406450842669442,-0.6294696166179532,0.9493005578827006,-0.07387525190978068,0.923808699243701,-0.014413700414405312,-0.5536623829869107,0.0872596659965037,0.1485645125165258,0.4566811743560677,0.3511399244976534,-0.1320480659884733,0.9236663071164825,-0.6692624386680609,-0.33727751012785917,-0.55825141133913,0.5771756875381387,0.7687318988505688,-0.9153347292874071,0.10181725037643237,-0.1226301504615765,0.02732005948235161,-0.1112691479402944,-1.2775317660713013,-0.1682463706845675,-1.2682950051225206,-0.7462092892389725,-1.2305110246798219,-0.6552115699969001,-0.7610736592641589,-0.04929424064347617,0.9888301721733616,0.25479355465210757,-0.4844172456577915,-0.053193377281304466,-0.3237699363200994,0.7206432199827464,0.2086311284868143,0.43000668433485867,-0.33081079874052843,0.14180438461279063,0.5073256466937248,0.35296777285111086,0.5577112409070794,-0.43332400107288455,0.12953580469672699,-0.9694503570307315,-1.3636591320459397,-1.2669480502726624,0.5073143664401016,0.3094581528019674,-0.6996013842688622,-0.46925907519046967,-0.32147389047446895,-0.7047563701072637,-0.588860105203467,-0.581873368704323,0.6822030016131002,-0.6575439272002965,0.23331133419077252,0.4324983352447009,0.6450771572015057,0.6791504639842567,-0.8080643153588121,0.6433037725149064,-0.3667532444364152,0.8634894698696292,-0.7402970691587568,1.0957121480875607,0.3816178565039276,0.4828180233899985,0.1720380576846784,-0.5829711077183694,0.23920790255317917,-1.302415144386598,0.08482502573688572,-1.2862378695248013,-0.6688990076650184,-0.587553690862525,-0.6524205299331401,-0.2106259308051589,0.3465784627254482,-0.09952725561560041,-0.6877599147388603,-0.7616381394823126,-0.33450585462767723,-0.3128860498341228,-0.7661197788851235,0.42201140078602567,0.614160203501106,-0.4661884129919487,0.4419948728741694,0.04525404416235812,-0.23688644223503252,-0.7395340131260177,0.49088821841388897,-0.8327046609904977,-0.1559336370467065,0.4275149462941191,0.539286079244076,-0.6518318775563018,-0.2769170652695268,-0.04733938322808123,0.2939770308670842,-0.4241676455698933,0.13244833119050914,0.6603114935613772,-0.34877539418217296,-1.1284388451121175,-0.01390624831389646,0.9400238533841835,-0.541209867894694,-0.6046425154600995,0.37173228794698987,-0.7719440403369819,0.3496643072295638,-0.6632021503772528,0.926535080520666,0.02193396519520574,-0.22737398155929034,0.33535259685320074,0.7313134672299413,0.6528992841673411,-0.26700209153726506,-0.3883322252703616,0.26668041537445264,-0.8318108248331951,0.8038939870734889,-0.9674957966835621,0.5717055173035414,-0.48492328936537804,-0.8094127447410937,-1.042603627526716,-0.39225712791755607,-1.22202164745231,-1.4396297356684573,-1.3528560098391373,-0.31288591135332067,0.4290493785173803,-0.8231577695089384,-0.799649349849515,0.2229824851974414,-0.06998729458101455,-0.29317048866195317,0.3968141727594596,-0.9092109339477806,0.6841125448733676,0.8717613781279354,-0.554637540483573,0.48858314125323954,0.054391043325299426,-0.7294756531135798,0.3373233810035289,-0.5927668781594341,-0.3424764007587094,-0.5076558373221002,-0.1523224600052939,-1.032905761499139,-0.5406039490179961,-1.5372339843824072,-0.012894371066188964,-0.428489089436146,-1.7559170460181066,-1.608423930640099,-0.6686706337286406,-0.3850217940868612,0.6827595347213393,0.7541848221282529,-0.17701347769878692,-0.2579489456138291,0.49023731822598,0.68962043538112,0.9761778484733104,0.8683032526543424,-0.09482460932746051,0.612627221844511,-0.1529479729284149,-0.09941675826122354,0.3083599515031836,0.7104323607560163,0.00991294379267352,0.40015812540510354,0.5726355916247823,0.6299875258934954,0.62866246971995,0.4519965313749244,0.4105321259484025,-0.9778696089879211,-0.8282172477112497,-0.3049980734774522,-1.1662277267584507,-2.219099741180443,-0.5624485542605568,-0.06184527509075502,0.00674435476774987,0.10122335878584998,0.22959758239815528,-0.5996940210601043,0.3638157612142969,-0.537465691044932,-0.4900221763493444,-0.5517370718644767,-0.1658296488646549,0.7598006468092005,0.533983584376392,0.46340865352403227,-0.8594582911491535,-0.7363288782294612,0.8669977997525935,0.662592858590926,-0.260495736081848,-0.9650369097250893,0.7913164056803637,-0.26734961750044667,0.8140919144633627,0.6975058793355683,-1.2424331253583811,-1.4969424850657085,-1.0958292536253567,-0.7701974394730627,0.9222043181480525,0.7447929186816011,-0.8091198287165523,-0.8494326408061104,-0.6999575162701365,0.8423317185534883,0.04918065312794013,-0.6941284392476932,0.3543290550523448,-0.6763409114916015,0.41000447787767147,0.07275172768990146,0.4855319475385955,0.043345280274916353,-0.21596136060728055,-0.7677476232803209,0.7024457927499199,0.08897732128089797,0.4884631682132292,-0.27051738681377957,0.049864983170297715,0.6869453769966379,0.4312279477294027,0.578014569086383,-0.06944175509937037,-0.6940244800999267,-0.17159869045531306,0.4710151411423375,-0.12617638091372774,-0.06297507847609962,0.6937821469698698,-0.9388252586066639,-0.6126282396652171,-0.0826464496931888,-0.5620887951953898,-0.9610339500859757,0.735982019530969,-0.6963540390635938,0.7516245084232314,0.8172912463484274,-0.8756066134334337,0.00004956029392744199,0.534858448802646,0.00564790681669769,0.7467259651380176,-0.31397022333985647,0.7195432975905627,0.9384599744470661,0.051824110093305675,0.5871895615220111,-0.9434713398310874,-0.8436251444882018,0.43866339492091594,-1.4438843879971004,-0.6924871829822012,-1.2600060151395593,-0.8831062912604217,0.24325599570276646,-0.2573959730335067,-0.5354803747984783,-0.870269534565814,0.6310045213921378,-0.14770010086886143,-0.1923252838614078,-0.009265454694361575,0.0931618005769197,0.8504920941608427,-0.47955470851928395,-0.06557141891479956,0.4608891917251705,0.36930338999778023,0.2160787134476858,0.9867533787974301,0.3943952893943523,0.6969657597452226,-0.012034982035300734,0.9117594424514901,0.6454739298857239,0.3953327921163905,0.3018994240070787,-0.2546160602690184,-0.04006775141725494,-0.8756141119472884,-0.21549699713847992,0.5281125416340582,0.8933543427115547,-0.8031333617763441,0.949732949615189,-0.1706449464384372,-0.24075032739040103,-0.8387592960200694,0.6774800229938709,-0.31654498615055693,0.5919617786721245,0.3979582082188935,-0.011111911667624819],[-0.09887505412434638,-0.5601134889358168,0.2975563799260732,-0.7240181822733049,0.7653553894270322,-0.6183011231686995,0.09930137466627587,0.7452603912125768,-0.03333184643661524,0.9506255131340478,-0.25412519227036845,0.645861326189118,-0.955179811668561,-0.17327129645393335,-0.7286292874619469,-0.06948697894674072,-0.6948406636143345,-0.6868969802133327,-0.5287782259909448,0.3849987275978932,-0.2532749610826266,-0.2506692793178009,0.728663661868818,-0.19538023720354336,-0.9536174578810162,-0.43324028172277207,0.34054986180054136,0.13693620166403364,-0.001611172088492152,-0.1567771146042749,-0.7534937378031303,-0.7788322032063475,-0.21678165140474692,-0.742982572405356,-0.758231798849297,0.9170164700855858,-0.558559344467422,0.9857821980236934,0.48918226240491314,-0.2606008910135449,-0.9932248620311555,-0.5834980869812247,-0.5260818867951169,-0.6153789261931126,0.7075181112618041,-0.8263373793567879,-0.08244067492738583,0.16705708505046934,-0.675187788896348,-0.941438528685945,-0.9797396711233897,0.8728467900479921,0.20562442727346264,0.3062826331636539,-0.17792741986665828,-0.9595657166519356,0.8144583621426564,0.24860473343115097,-0.8844299868042069,0.2519629326633499,-0.5968657462921851,0.42993138377617046,0.6330452184068156,-0.6894928058197749,-0.7524101326074706,0.2130136338331199,0.41163904575011934,0.26769874400547855,-0.007571532335844289,-0.4311464804737579,0.814330092293083,-0.0979737371074092,0.3157381709359046,-0.015505364547897083,0.45577188401317126,-0.14101989575028084,-0.3551173135118575,0.9403527917522227,0.2325693637093147,-0.4228917393355236,0.14860782741360756,0.1640127388238326,-0.265160075355952,0.5213148517876314,-0.5267334902105691,-0.49809537523005454,-0.665161342725469,-0.7357185745131916,0.3304760220891694,0.6299487944373483,-0.9698465309932771,0.45317053490069714,-0.1353328038196282,-0.11099962868955227,0.4802636839734442,-0.587261144773759,0.32771991129158007,-0.39584312350298845,0.898976851423775,0.8218601064211064,-0.37050449749181147,-0.0041991155165626015,-0.4442686802796283,0.8573823795643185,-0.5060332138872083,0.2717861273180333,-0.46493853188724743,-0.10192919323114369,0.6273533169963599,-0.024369613970549597,-0.4484466240748348,0.5843356744420596,0.6127685659265876,-0.21942454432045544,-0.14774247076164726,0.30058411949437547,0.22830769569182152,-0.18486623993840223,-0.8877042238022936,-0.41585413063696053,0.41702663270574947,0.16891477143651312,0.4524534890436255,0.44777005340926684,0.33427958070152985,0.8731354845228934,0.8095675755021178,-0.29587847866194783,0.6152801196545451,-0.8925272391017501,-0.8584453275274002,-0.8619216794995229,0.307331916133717,-0.48565631927423686,-0.24352800154988996,-0.5839345341026885,-0.4721886319380215,-0.690464703142972,-0.5939248467857761,0.1582158041331445,-0.6159835636109701,0.38577636994379394,0.44240970340393515,-0.79473241710117,0.6919726742473984,0.8334833257671985,-0.8442836448529683,-0.38529245466517836,0.19570506354381145,0.8765536473317764,-0.5336691094073696,-0.5141991931254928,0.8209873361266495,-0.6873601173182415,-0.7701010217101892,-0.5916417484953903,-0.620398211711923,0.17716966810875961,-0.7345507593900453,0.51395218131436,0.549441675401204,0.20281610649267687,-0.22861816939828103,-0.08421185524299668,0.10010263332337033,0.0560476515914512,0.7241564535786995,0.2384583170383614,0.6356321422510516,-0.6235458230137467,-0.3422470304259291,0.9455745886437106,0.8213215288833102,-0.19625886250661223,-0.9447223044688375,-0.33903739594138677,0.5771590672382643,-0.9306987513094949,0.5244402599125273,0.9583335285055449,-0.6757328693420424,0.31857018854781305,-0.14542513506086288,-0.24310794036329583,-0.33802165250458116,1.1094375810614476,-0.2553678151689304,-0.10609867090650793,1.7311622995375726,0.21320544079657736,1.2412109255565424,1.8387610925842437,0.9280726918623512,0.8845892053621295,-0.7681685053961131,-0.8382541906735301,0.8132975874736215,-0.6551782971976177,-0.7459319077357469,-0.6437338942075106,0.24868202495200767,0.18655169440841904,-0.6789325125144193,-0.25371618864436773,-0.7910109555912008,0.9339585708160597,-0.7074327280039404,-0.10330914416854238,-0.4129721172014918,-0.1681584310792685,-0.7492819040294187,0.11744021467161295,-0.03558933995104807,0.08206860936453841,1.5019611255260659,0.3704546837400732,0.021637201400033113,1.6911355504055305,0.048067029655421596,0.21022592069631352,-0.8395031682747345,0.49683253096728097,-0.4046873232898349,-0.8942419519947509,0.7508246827779472,0.8684507635930989,-0.49380378518194146,0.169753062829154,-0.07412748338023462,0.12614651461617496,-0.03965855898827379,-0.36730507079925495,-0.27079233266816205,-0.9183408136569513,-0.4945625491079178,0.6203555133862103,-0.31568406791193937,-0.47340588405917805,0.2763421639749766,0.9483366203261177,0.8067348222407886,0.7186845540810641,-0.3727145945731847,0.473640489090634,-0.4074200878390028,0.6692756685519712,0.9299668542404411,0.27271743997747894,-0.5454099143412718,0.7672714788717128,0.17308607393244824,-0.24718214341527855,-0.7437656423324759,-0.6140684664367742,-0.739526546574414,-0.21482264993182146,-0.005031957865455095,0.5190151154329874,0.14810178342912517,0.0043686001838699005,0.07629510538468179,-0.5273044464321872,-0.8398805281779077,0.5034395781103964,0.4633030822229894,0.3368056668210183,0.571896622958835,-0.35516076127860335,-0.14188002549399334,0.855109647263464,0.18258211169232136,0.34442628932557207,-0.3170035913292442,0.3637798843016367,-0.7803019877557585,0.7999698242048349,-0.8392670962263367,-0.2828265151822207,-0.32759816129047703,0.8373069991393884,-0.9836750712888358,0.6756199838067396,0.1930336067333423,0.09078388772392951,0.11132524027218807,0.28124701828331233,0.738549951557139,-0.8813403920111246,-0.9599159572199654,0.46809523026571637,-0.39910471078786763,0.24885022756824396,1.433694735786796,1.5522512411855642,-0.30377738130363846,-0.5087039348793898,0.4558411433841673,0.3943002603606055,0.004877966773456286,0.9792982724374958,-0.16280564648490575,0.7407960483915823,-0.5479783687916894,-0.05208926541008915,-0.07304336422818358,-0.3004954223213323,-0.6403864692690024,0.4537138317097549,-0.5678641573018246,-0.8133331243456066,-0.3233185904596223,0.16025263702648673,-0.45375067284793813,-0.5070955414601217,0.3259197954805446,-0.9368624573105485,0.19765324335813464,0.06699355326711974,0.9480352340112292,0.7736361342878334,0.9897569912757016,0.9379473983268437,0.037326024378208485,0.553998306490029,0.6426640749936889,0.887489681293256,0.6271529007140514,-0.1593843127828822,0.8492474441608457,0.35406100269360014,0.2684871225220489,0.20650197475315735,-0.02826565911744816,0.47252594777249013,0.6324667639799808,-0.054405810251286546,0.07680372896823129,0.46581315519298694,0.997954695994135,0.4780920468272811,0.852236438374634,-0.6170361687071073,-0.30040736668593077,0.508916800438303,0.22239167109514762,-0.543995770956219,0.45591013682736914,1.3907725314449155,1.073312827540425,-0.6265883916884808,0.8790253285690114,0.5737092293383048,1.0388971644395297,-0.5569337735367368,0.17915744169359693,0.5295275835565844,-0.7077900530494408,0.17862578198806223,-0.9818520391225758,0.2501691908265557,0.2084065678610061,-0.8533630017111151,0.8221903982349559,-0.16917293488979168,-0.49348534882414197,-0.9982400417206914,0.7355636392110099,0.5954559561650234,0.20142141553672194,-0.2276187187497973,0.343448737426198,0.24509755085709742,0.8534314291590817,-0.057371650192499096,0.42864578374011664,-0.08982797856824992,0.8154285807180811,0.24669827075163084,0.3653548140341841,0.4157995679051145,0.34386843351132246,0.35926569295705685,0.2512886083273228,0.34177553488168194,0.8185154798301363,-0.5572542617826359,-0.9594635126234125,-0.6298860275634344,-0.6316343171987004,0.8786071757703886,-0.6367064534173739,-0.015572715096947354,0.1880756405027959,0.7079791200357473,-0.2850963127045367,-0.3894125240689703,0.9773545197733386,-0.09686416961390208,-0.4059573360670127,0.9580956296477806,-0.014901353914980028,0.8469125258865646,-0.6573465203706222,0.10806875260229475,0.7884133875935365,1.9462677359180924,1.8022597313119935,1.2684087624524183,-0.06186848092136022,-0.34508001233430924,-0.1528070198118807,0.646677552919303,0.10978273298793129,-0.06993404397634613,-0.269183935269469,-0.7451098566945572,0.6123694252744352,-0.19515372577718315,0.019989672775104994,0.8785981752347485,-0.7426602623667278,0.3317228767114977,-0.8667051241649124,-0.00011978252571442916,0.03819273546496973,0.9457047417808707,0.8299330626333391,0.38956098212736284,0.16711724907589304,0.48620028725712233,0.111321466617185,0.4209015530411749,-0.12428207512156207,0.46262280169565656,0.5219724424481574,0.6732522595064026,-0.3429451248771321,0.5127816175046029,0.6131543510994723,-0.7802312898822261,-0.8031991067634373,-0.16993567690775482,-0.07639870189470667,0.6547606194770423,-0.20079084193884617,-0.6833460098942861,-0.09023540812442166,-0.28198437885350613,-0.6233007144994631,-0.6829934761672771,0.48196733346379683,-0.3612426579394765,0.33459750266581356,0.8655560061544959,-0.8455837223342697,0.31188499796004315,-0.800614793553987,-0.65184041860827,-0.3843898440036405,0.9427344287463124,-0.016259793713208865,0.11547149250911215,-0.4459057750863481,0.5920441384112339,1.8115395915682548,0.12061884819306624,-0.5530310478787746,0.059394703981803576,0.1095211417425125,-0.8130028548969863,-0.21313625754011103,0.9977456252761998,0.25366797136495584,0.07941338961384492,-0.7655306849650416,0.4128871842176538,-0.29898483215437044,0.4535815626288964,0.22055756654691594,0.48333366196588035,-0.139696437878174,0.2671519460967652,0.35204536721703755,-0.032748185855403275,1.0637894257592018,0.6026426248940595,-0.7493898276751048,0.47930158687138796,0.8732195725670986,-0.15318688452886148,1.0422970870120747,0.388727773047999,-0.0716890643993898,0.5027372249656306,-0.8777209382553091,-0.7504152487378132,-0.8345215004336319,0.6988470389531278,0.23987079943216646,0.5580129634088105,-0.8947334904856092,-0.09861332737653838,0.08589797356450468,-0.5290125625413831,0.9786869386077108,0.1526657784499421,0.9237021793952267,-0.672959780374202,-0.7075175484846488,-0.5914656367700357,0.7416252481499797,1.0695643467933456,0.14166548005205548,-0.8522310521606611,0.11002586313610886,0.8974472194621232,-0.9471732080736862,0.5287408135327649,0.6037314985012885,1.3450946821346492,0.7291221931471201,-0.720609108951863,0.5717103650836477,0.11871327927689554,-0.935546346876283,0.12390670014463859,0.7964047375442661,-0.2768373061015168,0.707818587982912,-0.7044380478291721,0.0016675910127583737,-0.7364742916632279,-0.47402175100147725,-0.052048390076242734,0.8414830983160735,0.6507518262105161,0.37791326948421455,0.9400525817113833,-0.924476703798656,-0.8158182544143469,0.5902235039893621,0.5547930779026671,0.10630264236934206,-0.5098333650867206,0.9110189570343429,1.0821512430309215,0.24915430181797749,1.814235187600096,0.7497454812947072,-0.18370937521897293,-0.6128651624412312,0.4520007786743996,0.19483236558335715,0.3584743678575601,-0.7270734653001074,-0.955726249176541,0.05063303281443332,-0.21489337897535754,0.2168989626222202,-0.9828809253417086,0.7509730311837506,0.6248342052047742,0.8072883173484529,-0.7873160946509442,0.4161759408720502,0.8494919414956583,-0.6493518085672653,-0.15082959321267633,-0.47189898071891984,0.14134190945293662,0.40175823762466667,0.833581712379344,1.3484347349535775,1.5072779231244562,1.3195647823356431,1.539258874438257,0.013223228164628233,-0.4852911459846364,-0.25463436651032373,0.40421866900514086,0.7946938662882046,-0.9630178951903272,-0.5471590870929056,0.917909901397711,0.6935776903324966,0.11931465905472849,0.028154473314053075,-0.7815820865665433,0.592208069319577,-0.6830254820266728,0.5517569995765057,0.697831837049953,-0.5435902237121967,-0.9187813745342476,0.08989483248715796,0.3134899476307863,-0.21208273800192984,-0.31757779403180564,-0.7133557965224427,0.038106615207671224,1.982935821498401,0.29071107243224725,1.5541761941797843,1.0634538025230256,0.2725777226535433,0.6929928739390345,0.313119591823459,-0.8805741782516616,0.9961678081498491,-0.48479394229123,-0.8156968333542349,-0.013815773981392887,-0.5627481357019459,-0.5343875377154417,-0.1763583885915534,-0.8674778009018029,-0.1715418952717238,-0.3603371056425573,-0.13967016332767423,0.8155816478359464,0.10069876964761007,0.9576352410090121,-0.5066258665241969,1.0474818077529062,0.010166462099586117,0.9685771487774675,1.4151673827109765,1.970948166132298,1.2486726212877317,1.3946792626503612,-0.4057845071961065,0.3867006154765021,-0.9886002800801947,0.9294675457425489,0.2018121340015366,-0.5732588497188055,-0.8902049586281955,0.6240508810068064,0.913919817367032,-0.8999192744363025,-0.7388846035979941,0.8065580968109023,0.8596077729293929,0.8297114579815399,0.9601450419796036,0.09172775927481869,0.019093204813936726,0.031296540676525535,-0.40300881661037646,0.4705078804631124,0.23780732910427205,0.9223735323821308,0.7885093438740288,1.0317282246748731,0.5578290913681796,0.9025001634346703,0.33299586352780675,-0.3681771111716249,0.8879287778088473,-0.3785979530524592,-0.11459387904044314,-0.21088505619077316,0.3300556568403286,-0.6079023263863251,-0.859351764727479,0.25726214106985745,-0.5995162633903104,-0.26319799563205093,0.1334097100615299,0.3425084859928895,-0.6372044829065895,0.37220180425116034,0.8393162657579771,0.705123296632419,0.22009841201012081,0.18679109114469933,-0.8176993538645978,-0.9759850967768109,-0.12163598105547185,1.229697047659029,0.9613330176579553,1.2165903616962086,1.2934673603735638,-0.5174460089010916,0.45104752280492333,0.7878209840292044,0.2978908998409432,-0.6877101632994074,0.952096819734381,0.8952120934314315,-0.5002136556770439,0.7449691626914146,0.5396398847791404,-0.7318770667725036,0.2925386262131007,0.17178232884677413,0.34744688132796653,-0.6614445079127258,-0.4386693222339153,0.2974952743132877,-0.5746857686803812,-0.9926635405525588,0.44803813506717716,0.048888803275028314,0.6570282182059193,0.9834626080911244,0.15228759365279831,-0.1769002149488317,0.8856584644673959,-0.1563322863524497,-0.5374731024721482,0.456153011823946,-0.881319653510816,-0.8308609175416152,-0.1643950877393793,-0.25325360694791293,0.9023974694560242,0.7325387795416684,0.19634079963249174,-0.45744966924887254,-0.626899955364728,-0.9645853899244052,-0.6236655018060225,-0.41013549118367315,0.11043712847774656,0.7322294055618428,0.253756808518669,0.35641560498870084,-0.9756647199347945,-0.798929703335183,-0.569071250131735,-0.7697414385260124,-0.2298267692851086,0.38528616222582546,-0.7604985033762055,0.6337521959498038,-0.5090344492852126,-0.014738387715725887,-0.12019782157479608,-0.14305180241807514,0.784266589738621,0.7868266085083273,-0.9002145232667511,0.9147314428696193,0.3761272390268305,-0.3059994514111325,-0.9008730035493868,0.6039798797507623,-0.2087980894479322,-0.9103297887932862,-0.12382609583490467,-0.940915304321575,0.04633820373944575,0.04683289223387033,0.4188794112333778,0.3508279904291176,0.8982245157090836,-0.07580818216422691,-0.6643640180095298,0.46042235316324587,0.9578433737620431,0.9134348369926799,0.41909537164718835,0.45274288138825636,0.4880028165282928,-0.8147307270148727,-0.6448675747696522,-0.8987157825243066,0.9837194342678997,0.7151605120202315,0.0900665274426163,-0.4298109853417763,-0.28832609710146184,0.3019271101844354,0.4701089419313145,-0.3480460552475384,0.9363042303653528,-0.38822075196494654,-0.768115213488832,-0.6152477154152522,-0.8492740577994375,0.9997360081581832,0.046969014447398205,0.11381859166104769],[0.38625136191629816,-0.6635301790348345,-0.4693769414726976,-0.7202858868026178,-0.9036719662544352,-0.539766518078862,-0.008395505241306722,0.17827974391343093,0.1533880949336528,-0.672627457076094,-0.31574104004682435,0.29819018455204316,-0.6828056418379482,-0.17067326411894368,-0.582754125669118,0.9883778351788186,0.12278424543222521,0.9024260195812956,-0.9809716480390505,-0.5157111035645923,-0.33549688059342286,0.3434902076466946,-0.80747375749712,-0.2481797103968162,-0.4158414638202772,0.9235424308310356,-0.5356342727986847,0.0034192963809247523,0.8873849154822655,-0.46188146483672443,-0.647863636175054,-0.7558483025348579,-0.24785565700684598,-0.889942541437817,-0.5266722396147854,-0.6116914219552956,-0.5879958956809093,-0.9799707452953506,0.5181283598840702,-0.2866299009301285,-0.48785005286114536,0.8335019852965659,0.15494180374480382,-0.9286149723781241,-0.8643238891776757,-0.513810151235911,0.24443943012256697,0.2607133884627939,0.742485837380515,-0.1866715136554289,0.50560364017657,0.1835601983131645,0.3475254877911942,0.874624956777118,-0.09034568821962097,-0.8506106443945247,0.8137044746775726,-0.5148028270513687,-0.5068479822815541,0.41702045569574464,0.24916133108493588,-0.9778342240162792,-0.3235605608955576,-0.2503098176635441,0.7370699044865354,0.09786908492945057,-0.6333027651709981,-0.5664521686903292,-0.05516695982737185,0.846989413964754,0.9376887036431325,-0.6289191697252865,-0.9982808202289593,0.6410929647656571,0.3944326700122285,0.09298471638769623,0.7246985167810491,-0.5971301812484353,-0.2174338725897722,0.8949954160455602,0.7576235776512568,-0.8903642297952361,-0.26911292480853244,-0.4707444788670605,-0.5343024984155607,-0.004863444206342438,-0.22458489486480127,-0.012349060833678038,0.4053397501251874,0.43501015824493106,0.0283710152108958,-0.4301541195570202,-0.21448900120770698,0.3958751221967345,-0.579411346832374,0.016705998434725755,-0.149715556190253,0.322885411978114,0.016941285126936472,0.18003666254548983,0.8275754408198792,0.25043867300952827,-0.42243915469867765,-0.7751736771682174,-0.2435221765561808,0.7558689578340558,0.6868938803401645,0.43275265766303783,-0.9999102648795357,0.6847773308575418,-0.8170046320416726,-0.17184312104558153,0.3759265445523152,-0.990028936878314,0.6186631292306668,-0.7851273609813687,0.5967175152567068,-0.8129447959393641,-0.9911125981177782,-0.997652775865489,0.9981509529434198,-0.7149072014101778,-0.08701522174606446,-0.6097825654216993,0.20634384513491888,-0.25128499290476636,0.22036139220945022,-0.7793760652298861,0.9960786221454752,-0.43129023782190745,0.3285176630621187,0.2884194902828318,0.7469807387333147,-0.17877880983907124,-0.6464260271170403,0.07066294159819564,0.8617894915480413,-0.7466475758634976,-0.9746407383185594,-0.31741225871353795,0.6937748045098742,-0.07421779570647269,0.37486488763995673,0.9314578957054038,0.018658174624324175,-0.2652142753730289,-0.5102901425280415,0.28830893419309445,-0.9102178220672923,0.4917807876982663,-0.09858053520883762,0.20481550142840418,-0.3700367425037565,-0.8939739582068624,0.6192945426570169,0.20089988409117304,-0.8162032976013447,0.8670065835927493,-0.4648628267900031,-1.0295150753449842,-0.7259596386846667,0.5304115760709656,-0.23592446337177475,0.1835550049102388,-0.3432961578052056,-0.2062853949626764,0.2627967708383234,-0.5655675628124555,-0.7188330243063872,0.9760454578547109,0.5178370341859313,-0.6639106341226826,-0.9404051543726799,0.3788674482718335,-0.33199493273771497,-0.690735341575816,-0.16680647445028915,0.5388853321533108,-0.4915271087093975,-0.21147055763102524,-0.3287197129160858,-0.6377644995225469,0.5584200880209678,-0.6596383820420528,0.3151201860438676,0.24134624506108415,-0.9732467941081557,-0.08366707860936218,-0.2992153175261343,0.7146511905831036,-0.5539171836937478,0.2995309374461852,-0.7558610157163621,0.3263350813029886,0.26848935411254815,-0.3374554583055769,0.7941790866106722,-0.13457135891496197,0.7357863722332518,0.629414315137788,-0.4874831031506135,0.6458056598908573,0.5561528977262711,-0.11533834964331735,-0.8494648378661868,-0.145790319977616,-0.7046063634635229,0.3103640459015711,0.4705103868225713,-0.40555185053815246,0.37195722766217576,0.36687076800061025,-1.0846440971725408,-1.1343542450252435,-0.25078506133774797,-1.3936224916931022,-1.0755819575243812,-0.45264046810166325,0.5515251487855095,-0.15244858820481144,-0.11679038989736212,0.9793106486079777,-0.2732826546442757,0.49094360668779524,0.9011466318189763,0.9200629833293554,-0.23726918140319864,-0.06955014828074702,-0.021586958040707316,-0.4670929545380895,-0.7115717918261173,-0.725122556122304,0.48477045020941867,-0.803346676537702,-0.5127257481533729,-1.068834647963138,0.6835111087349645,-0.3270570251629397,0.4458356511756213,-0.42756002931897874,-0.5462584070099127,-1.1477269995845196,-0.533454599488055,0.3769561933928817,-1.0997114067908955,-0.5078397952381535,-0.6864673170004263,-0.13519336420496253,-0.6942831386270745,-0.8955227281710059,-0.8905995534151476,-0.6785071744509477,0.5705880351812858,-0.3016355579291303,0.10515015019641671,0.0014649455402993214,-0.6830978946386284,0.08648076800081787,-0.682627839227935,-0.19253838787950858,-0.41321767076954175,-0.3586441503893856,0.025813723895028916,-0.015834389244622826,-0.7627441209101806,-0.24738774642840228,-0.8838670916356353,0.007854095305019654,-0.99549728659526,0.6175162959757962,0.06001006611891722,-0.2686473290770795,0.48711232295844586,0.5578966768160956,-0.8607616821383716,-0.12477342316499618,0.2672353007906718,-0.5910682927039426,0.12262855533846562,0.06422356643456117,-0.8614549198117756,-0.7339766755608268,-0.4540827899907953,0.6320092007029531,0.9559746876738184,1.007509021529007,-0.23615639670526808,-0.8898264535557225,0.2879376207955286,0.6747795657060468,0.3523388757544445,-0.2299694682781805,0.3759998981634101,-0.13471392572169566,-0.01102729192916994,-0.8519005193763587,0.3531665194055598,-0.17723704147080788,-0.688209362397192,-0.04314239731597679,-0.7000539963487652,-0.3525245683773984,-0.09835645737836728,0.011476394671388057,0.5767269483025896,0.7930816580073112,0.30794703389793177,-0.23694935939827855,0.11883008703971587,-0.1265426899706501,0.454308914192989,-0.7823817050282079,0.7372740198065063,0.4839800819004108,-0.5252921696452746,0.7636020675065475,0.8032811764772048,0.02888371462919581,0.4159909922190485,0.06903689808928544,-0.3173782269618687,0.281559837524734,-0.9701519222803886,0.46305740509619703,0.3041545780191206,0.6864864653501083,0.4352811422168016,0.44408362979080185,0.7562910616566655,-0.8715310083081009,-0.3038499006801146,0.492877347678744,0.9105008178608021,-0.9560113299063004,0.6796435163924275,0.49814287615577646,0.32521296575438563,-0.7458861436291275,0.04858595473998428,0.5594358782004047,1.0050046546176814,-0.5412070984049419,-0.3931394359073005,-0.1349778425041142,0.15777315902264383,0.5546714069861185,-0.33495282565072515,0.07719697967268814,-0.7102100740881743,0.7860962789480861,-0.7049890824058246,0.7156156281412555,0.09180511911350675,-0.183047724724583,-0.2972842081232522,-1.0548625474953177,-0.5862541800458196,-1.1701005709093866,0.37909827407478247,0.3231336010429202,-0.49652214403895223,0.2628300318414065,-0.07116193132108672,-0.45135183543127577,0.005914555810644595,0.7894368040730497,-0.023023886645701097,0.7204855250210515,0.5856860612846336,-0.27948971252009064,-0.3752698163506659,-0.24561947584920948,0.12461181593661813,-1.0725033092080092,-0.47926979845425205,-0.7486086712914494,0.9222542700376184,0.476625371226159,0.1861682318803183,-0.9707120925348063,0.7105668837056598,0.1624769776490413,0.70072445280357,-0.17519957989769294,0.5412069799825043,-0.4845610528277366,0.4794910708401839,-0.7910186360345446,-0.6444342594942676,-0.7046156736342837,-0.8249944566920611,-0.010485346457644651,-0.09709465775356274,-0.9222867471429792,-0.6540092203732644,0.3344797117591751,-0.6788000719888061,0.6903370755233409,0.5663860112913253,-1.2210821013626423,0.6288507706583519,-0.1391343861413128,-0.3066929788184811,-0.7499890898863664,-0.31557982897900333,-0.9449292490334037,-1.211818584446314,0.45127205437374124,-0.7473155797689072,0.8442870987915438,-0.3511727073504734,-0.9888911933725886,-0.998608507107622,-0.4572910151675185,0.7239162336961736,-0.12749805455857532,0.5780769971032118,0.7732613560687354,-0.4134101102300163,0.3538915463152206,-0.02392944841146938,-0.04836796179288427,0.4008404319970762,-0.6855783605911059,-0.4603003004098529,-0.9973090061696286,-0.7311046691374312,-0.8042606696024177,-0.464206990500215,-0.6851439684002752,-0.9669441842313704,-0.0738056931884129,0.5261058403126825,-0.1186629718495104,-0.0866503677985542,-0.9557059708827129,-0.1117945931697099,-0.09890307055154528,0.10187270434381307,-0.1330224439254258,0.7272078066977353,-0.7011818909596259,0.0850924499743334,0.9344777068443865,-0.06040763268540861,0.8086393274778267,0.663120970881655,0.9904110957239045,-0.47050679320417266,0.843781212151461,0.05979700483997363,0.26694255586901794,-0.7976567924176223,-0.7836226861787219,-0.7160830186756325,-0.7678938235592335,0.3787407206671185,-0.33402830565268044,0.9204360542313201,0.5860558968726011,0.328310780155017,-0.9073753234082932,0.577017483817351,-0.1128889487894879,-1.1665976550491417,-0.8892117878574061,-0.3214768201405257,-0.847906694933323,0.1192325884800137,0.20797527243124486,-0.8927455009461049,-0.37088693955583213,-0.858575547972874,0.17720935414042205,0.34888260246531644,0.5979805415015662,0.2585319640435859,0.15897778893310588,0.10899619013835227,-0.6447659788581177,-0.11822741254001334,0.8901974015119684,-0.7236362949703017,-0.7076049317125924,-0.04469363333356206,-1.018914148101922,0.07410672469475672,0.5201521541573759,-0.01536106188404695,-0.10799593914004091,-0.7790534876726329,0.6366875168179692,0.06730520778095994,-0.2476200654261233,-0.11868553815695912,0.6451746613404625,-0.08652917920403469,-0.6242749033249455,-0.25498494331329585,0.29906266772760115,-0.970820858034118,-0.5982234620550424,-0.03433758163227352,0.8206983802125629,-0.9052552492680233,-0.04204488305072074,0.2810637607778288,0.5276031451545207,-0.3671206812251473,0.7175653296808899,0.610635440182686,0.07325389786360298,0.3840047627095564,-0.8143812653175861,-0.9057348352659341,-0.8342361377349339,-1.0710864580534163,-1.49758293934405,-0.007654133770398308,-0.5916037495014449,-0.4764611158881161,-0.8742942810819577,-0.25662431001792624,0.3573123206642436,-0.3537617426404859,-0.9380913900196826,0.2788342066197287,-0.09198072971786608,0.33539015889707247,-0.19537582352256444,-0.03249131068618527,0.024780008945283427,0.8174996982390643,0.003045796317545424,0.9748678843006084,-0.7643494104513027,0.16450726656675174,-0.05361045008701226,-0.22073929922111035,0.7880440035348583,-0.5290710943163526,-0.23379657982369817,-0.17051009187834681,0.37139073665662103,-0.28949188885689314,-0.9306628236622103,-1.0103952512364223,0.7311281650441751,0.9506987907922847,0.0710116741354006,-1.262018508012273,-0.6603047887539956,-0.4270021062940823,-0.6812153958126322,-0.1058978001057187,0.2516054351477579,-0.10174297778975538,-0.8391661086025399,-0.47468030017863616,-0.49060104672400584,-0.04324100262802788,-0.5751015371055466,0.8924647997190756,0.1619636555353383,-0.828392871454021,0.603943961715484,-0.657581093693024,0.16995303616739035,0.8508271943038329,0.18391714510698332,-0.1832365389175591,-0.8905054302086655,-1.0955287943328453,-0.7136090365160491,-0.10488031497455316,0.3564471037550716,-0.9487232650358305,-0.9486359716768733,-0.2547889178496504,0.5126423032176699,-0.8984596366165855,0.3073813292576426,-0.882257846730228,0.9640213759819776,-0.8893909983123656,-0.14758604431608635,-0.4331510166103003,0.24097549200427748,-0.8135555256545413,0.9993196447419233,-0.966221716952733,0.32604861583028577,-0.4244517554158993,0.8483255225413084,-0.6241386038040988,-0.9525827296068496,0.6281458863341804,0.7632929331990165,-0.40645674949451466,-0.9769819112756617,-0.45460757512987165,0.6730406035887897,0.3897167700857285,-0.3985457732907421,-0.33626282006195096,0.42000751373742384,0.45706399748798077,0.30661397027501275,-0.018612721963558572,-0.07380659521411892,-0.0697545957776784,0.6122890075086411,-0.500270297858556,-0.13890115474258669,-0.45072783735874533,-0.33589749644482936,0.4145316806863599,0.5498649869984653,0.6449108838512541,-0.3283259795407778,0.9616175325356808,-0.8035208867536958,0.8793319223702825,-0.256705587977851,0.6909351032865282,0.5893540107942781,-1.2214596706572727,-0.7460987341342584,0.31356385372372875,-0.990603538577651,-0.8455244672529221,0.9655539187675735,-0.13431497070449494,-0.9057717108002598,-0.02085162176001959,-0.5385889212459073,-0.818113745408247,-0.8040560427488022,0.28864330622806933,0.4747243454114114,0.1358063095301958,-0.7484860254305481,0.8921990694043429,-0.5251897348015908,0.846105627397622,-0.5842929777963732,0.588878537158906,-0.4942393283144564,0.05873468433036111,-0.49713995358454777,-0.0009997801152761276,0.6579840721330261,-0.17546044378347936,-0.4125011907980133,0.14567647469501638,-0.9806709814751983,-0.38984264888914966,-0.512892911988359,0.9650692336420525,-0.8434012223120939,0.045594379245041936,-0.8815320619001783,0.38379691462311316,-0.2678367214494814,0.8705009324954593,-0.23029670091928245,-0.6299739306766321,0.6521487231081062,-0.14004187110430144,0.1453827945554409,0.8833866403017387,0.6763137347712709,-0.1834043373534544,-0.5904213930418918,0.003461266259341844,0.7171652436395133,-0.35189660792381483,0.766447214042441,-0.17001720521125518,-0.27643998382087265,-0.27484423140988534,-0.558587847964676,-1.229479406245007,-0.8762667350698341,0.1079767457057085,0.4011410776680411,0.04800193669329759,-0.5586802269592651,0.5921940232934708,0.06959310630859339,0.7163433090884446,-0.598354916191703,-0.6988138181993949,-0.13138646567965684,-0.26171073440702264,0.46199771217876684,-0.15365064624332314,0.24750147103015396,0.9829242819139246,-0.8291442679172094,-0.0667430100394486,-0.254272699018103,0.5750792520863808,0.8037635542718287,-0.13445262469896835,0.29265533350729855,-0.3970296490701273,0.8806768228486952,-0.15497951765612838,0.33648245444375635,0.19234568339700853,-0.2654528586459156,0.25466137831216173,0.8072608379224153,-0.040808120249571596,0.7616337587591201,0.39132191167017427,-0.13071325830985192,-0.46997565535145136,-0.7007578066439042,0.09271932847332232,0.07268716298047484,0.032968316989011814,-0.8488814083102914,-0.5613229904380728,-0.7555535425743125,0.4711555794405333,0.46723403024056753,-0.0031503400439170104,0.26090285339270713,-0.697983676687852,-0.2215328973077484,-0.2589386623370571,0.2963300342152362,-0.2874090215761367,-0.8863309779823643,-0.5861745010628994,-0.794178744212148,0.17883124864375777,0.7566142722555992,0.6097285319843163,-0.5810541237820398,-0.4718069928448439,-0.2462887587796791,-0.39049015168710755,0.08607291202865319,-0.9586051464881111,0.7564705828167206,0.8383688878739208,-0.5443896176528678,-0.12740591178531258,0.34172321359444435,-0.8686637548022398,-0.5369638598348496,0.6420136050933407,-0.8475033356435144,0.9799447487644917,0.7990580008114565,0.812424944315892,0.5969449663236734,0.5284533974262857,0.520537689990842,0.7187000655866964,-0.2881193422460304,0.05583626310839862,-0.16103976227452876,0.5745858511255981,-0.19113297233652646,0.3588223652323883,-0.5953481067470219,-0.0015955020396819187,-0.20964948614694112,-0.5100503856893579,-0.1591658611902811,0.41777309104589366,0.720356185575795,-0.9493106020202127,0.3733033594513926,-0.20479825880184932,-0.9468700665485086,-0.7198431657655642,-0.23393246035599735,0.7660686520791584,-0.410640679677875],[-0.6858072516675684,0.806561873356624,0.3059040430744926,-0.0003967324059923616,-0.5409401094785482,-0.8716595702899668,-0.37642450460400134,0.8393817343290932,0.5547505550495309,-0.4055805230492713,-0.16780386305558426,-0.23929646561922224,0.808534265178096,-0.9874111628102951,0.14073728244161532,0.2254572362974856,0.8988338642766411,-0.20736728306367347,0.35585900081353294,-0.8079689480186343,-0.2666808011221964,0.07555430909281524,0.25837588445156956,-0.5606149122471744,0.28925515138000946,-0.7843648185630916,-0.19076489682942044,-0.6165892964094406,0.918750325310586,0.3128410879467982,0.8306185643887605,-0.03412737108891184,0.09344718047988354,-0.559491107503356,0.6260068885309216,0.6784737453226655,-0.6222393261323571,0.4237214210110001,-0.5634502445080583,0.7322958547897744,0.7530696563478312,0.21336009677999002,-0.5343061014285022,0.36731853123363023,0.22802063283812313,0.4332166382064959,0.8982440157465277,0.18177561173255152,0.4347777665503467,0.7525405068051436,-0.7732127537663815,0.2373556866547284,0.2506680065016611,-0.36696076045361403,-0.8544862112253813,0.36661209922697835,-0.010164910351656786,-0.35261593152250326,-0.30790049138278164,-0.04724951679269318,0.7572440999432337,-0.27382700784237857,0.5073667469425027,0.1896537817179551,0.4182359294383493,0.18645053635391307,0.2796364248631906,-0.9411683692982717,-0.9962567988269155,-0.9936485973835558,0.051598960506984204,-0.1073342653533862,-0.3081961083302318,0.01674424272889552,-0.44953963555864696,-0.5260317519452109,0.5959977890679105,-0.0873081577191337,-0.40460937707095823,-0.42716822975227164,0.10902703543486059,0.13992665383032588,-0.41569348146441265,-0.5955152601979417,0.4884470362106559,-0.24328996863892582,-0.19084205997656056,0.4409678136340138,-0.8438938078317935,0.8146331448968129,-0.5049955832230117,-0.6133732186788639,0.21403019018374647,-0.6882679389559363,0.2976911376033662,-0.06402715011101945,0.17831706402661407,-0.24568598801660357,-0.1065295241058144,-0.2702122288561959,0.6387636856324364,-0.9223465852855277,-0.030318828272451803,0.4926189776656018,-0.17770492656244619,0.9468058944634055,-0.6452533295753946,-0.5856355917721847,0.03151402540893411,-0.19520281293545794,0.6031926019412961,-0.26055140711228053,-0.1109744866365785,0.021112817375266824,0.9832327279801634,0.06647694691091321,-0.4895235928839259,-0.15908952640258067,0.13540378865806857,-0.5423173022738974,-0.8149374221659613,-0.8826378102753589,0.8549188386278344,-0.9274100255146449,-0.9767486904807172,0.45685529990577733,-0.0925547499533168,0.3264193743466206,-0.8761416226434235,-0.8546894243799268,-0.853071384462512,-0.49284942806335064,-0.6725448844957209,-0.3157972931970723,-0.2698463860109448,-0.7968997700225577,0.3430374323916605,-0.8081775935223146,-0.9996177347239654,0.036960246557712795,-0.5157410424643774,0.21733118990758094,-0.31071669861932905,0.014157268113255128,-0.05475228240938823,-0.7409332225435608,0.9375477580817626,0.2064816869676207,0.35403202138437684,0.06702329973109111,0.8951673188806231,-0.2917901924370681,0.4016252211672165,-0.41786354964421063,0.8398599176426326,0.18361206197519117,0.8094823835494916,-0.8202606185490259,-0.7129901939855509,-0.7910878284808499,0.22144628642384218,0.015181492932679137,-0.9766012504505734,0.17104174805597339,-0.2070072507673244,0.8404668658336205,0.06614508773886141,-0.6235396866034948,0.733796618174402,-0.24050120749702253,0.6262897593195587,0.5537734182366443,-0.6327874279033185,-0.4309244074789851,-0.4643965252780937,0.752412643455955,0.3566174792821257,0.976649717266423,0.5017113406788262,-0.49327832488940404,0.19416178113644572,-0.8992817856186109,0.013696632016982324,-0.34382443454477757,-0.6943869972418389,-0.0873371104130997,0.9638345740118229,-0.8966391504938044,-0.8927646226966189,-0.23455538580374186,0.5290840398358411,-0.8401867260116767,-0.8379879950368769,0.9485411353321431,-0.6209101461979019,-0.09471574802704619,-0.6732387935425703,0.7038045991132968,-0.584949162672795,0.48055209230929186,-0.838740959357321,-0.2575449024319276,-0.5824884991083896,0.6004200399675463,0.9872740194065808,-0.7493013390613186,-0.8449555426393238,-0.8764060899866527,-1.109512333989915,-0.792405256534144,-0.16106870150171582,-0.5250331893170462,-0.6349563525552698,-0.01247740317088335,-0.39070471556698644,0.1670536698682195,-0.7610232076066498,0.08673070226418877,-1.5453132014962438,0.38423680018243245,0.033598319271304744,-0.9264623864635775,0.26202934062059535,-0.25784364009005034,-0.5706437606747097,-0.4871014869033363,-0.06923627938526589,0.40649420861477226,0.625157050912764,-0.2238330440557259,-0.46281312747414804,0.039900889180686905,-1.17543727193196,0.04548385260935517,-1.5421203103846133,-0.2074342134301551,-0.8715971753273595,-1.0095711365670281,-0.08433848231158125,0.1849332642076538,-0.20047239359000063,0.80424730592163,-0.5757432116633369,0.8549218527151158,-1.4749471473816036,-1.2994669116556734,-1.4797605198044432,-1.2617062889415847,-0.19571584036916234,0.6996893099250698,0.7580253510608654,-0.9320389564059413,0.0011227176698163088,-0.47833915694437246,-0.7676247306692496,-0.8006442484144289,0.01726688099851037,-0.697695846783972,-0.6086581930724022,-0.6841705619192991,-0.574932365302833,-0.42743209991323894,-1.1869410484501413,0.03452641302685813,-0.9987531330082445,0.0994638951040143,-0.5393912495753461,-0.5031844085520567,-0.6217567585877102,-0.28745344221738195,-0.9989045639662701,-0.45518212822250653,-0.609184603803731,-1.3538314808315057,-0.5005144700588298,0.7546776349603865,0.6384855258539017,0.2487718575905553,-0.5764737616663154,-0.04409599346994142,-0.9982306126239495,-0.7484973278258686,0.9019993726282785,0.3922045956873783,0.9803245506288203,0.360293275754769,-0.15787113004304743,-1.265258323046027,-1.3802121953453779,-0.7246650965307184,-0.7971752666275409,0.7740002315473602,-0.1550653520745231,-0.7227080696233446,-0.515376302841458,0.2849259045934709,-0.022604813826296644,-0.9243073779838911,0.3660619891593999,-0.23866783886592124,-0.06346153443014757,-1.7022723629135765,0.7113611558144243,0.21044150005671258,-0.6320445083670148,-0.8942074270739637,-0.7838487402290693,-0.17773016260827434,0.6739435499056747,0.5327305193506404,-0.8119181706003211,-0.7878807606278782,0.20601511120886595,0.8098986935796897,-0.43360770214935196,-0.19908873593467802,-0.8416062056659606,0.4066067585425852,-0.3071902794477033,-0.9803754958571829,0.6634978779589151,0.40076115981651106,0.8526075711063903,0.7234373106840284,-0.7837127807952883,-0.6198001909909725,-1.0878854743444673,-0.3586042637451513,-1.529979660243035,-0.9415018878241453,-0.4495495854923883,0.5858689542906528,0.7942449205438549,-0.8210258986386749,-0.57397927210346,0.3781889014991202,0.053292756990287904,0.8522861515613462,0.3837425341686238,0.533517078047953,-0.917507492707818,0.6396392114739184,-1.3198256114142324,-1.6754542851132723,-0.7910844559056383,0.5289820322077246,-0.5580109282824179,0.09164186196211355,-0.5075714074401496,0.4527891863984821,0.5709801946999344,0.37683041069953105,0.018215206873324563,-0.8113350201074565,-0.6663435332001244,-1.869836379594417,0.260637658971775,-0.24468400982775587,0.5943716195270594,-0.9642881936868466,0.7320794059519433,0.47100807406431944,-0.18315122447295784,0.2994398649079475,0.6778253813431225,0.30332844000614534,0.5881810674772381,0.05701237826231176,0.537514319725308,0.29243383812550006,0.33326470028591654,-1.2620778181162757,-1.3454181667123006,0.0010061378257093523,-1.564814044187556,-0.24976442342887584,-0.20032839402903035,-1.7132958797955833,-1.44043713149227,-1.5509307280498819,-1.2617999678795804,-0.10304101152562273,-1.623512451025564,-0.18705783383218533,-0.4990160971143568,0.3376777704855338,-0.1190045725416018,-0.08659068237966094,0.3346995361776992,0.0038659937330058902,0.37285660478958604,0.0010791316984009036,-0.9260433609550314,-0.9673787615069338,0.5420459526919077,0.7952670052051074,0.6569733485854568,0.7009653595318692,0.17045983124348285,0.6260558426846105,-1.0279178731582814,-1.0531873359984387,-1.76935766927107,-0.6911025327292954,-0.7163763175971269,-0.8020417878318845,-1.062397071756287,0.01191055628725679,-0.5495466617919631,-1.679382251755051,-1.5102544727885574,0.7432904543274192,0.1160744528436477,0.9042534362601458,-0.6550222115074575,-0.08042138935961107,-0.871760568781552,0.40460718720493394,0.12425183417848573,-0.46614861193834733,-0.06288233960146972,0.9930101314175535,0.28788287492964515,0.6918047851580489,-0.05300867762259598,-0.7312673958836371,-0.9977078558052197,0.7115731420635829,0.6077500732031039,-0.16347764206655002,-0.712147313162707,-0.7671211175198371,-1.11124369176372,-0.5810242215113088,0.34005740822155095,-0.5068553011628155,-0.06758163962401509,-1.4148491060884059,0.35102212491292645,0.6395600915758957,-0.7285391340782297,-0.6470741444264119,-0.8664498960277047,-0.33818509825011334,-0.08869051847137999,-0.7169856779854131,-0.5137462618889901,-0.0020435888926959578,0.626805565869498,-0.7326078257519888,0.8539881678868371,0.16965899049759559,-0.27379391693450894,0.9890591901191588,0.6789948993235748,-0.4187389297409272,-0.2522088975187906,0.4737437306262031,0.4656418822507719,0.7029823687173264,0.49018200701501785,0.9819475016249768,-0.16501836014701293,-0.6273503768834866,-1.799665904447568,-0.5390907578299162,-0.6772864008371043,0.21175289500503983,-0.381448712444987,0.11886844212254455,-0.7101756802951129,0.553957913876796,-0.32580653004151183,0.3313694655739723,-0.1255014268449126,-0.2704569627331974,-0.7227987932262385,0.1712599310812286,-0.5561002773959733,0.12247643006041531,-0.8013122525905059,-0.3120431868847675,0.24853492083606055,0.9068613170767894,-0.5065333425511069,0.21483365444289482,-0.9540553321464469,0.37496675666357016,-0.43083023052449465,-0.7590842346697184,0.492476669593948,-1.0995185763826203,-1.5894334091650846,0.04077640533319987,0.9858456484109582,-0.021642667924111927,-0.314790388620942,0.8687104387797044,0.32603469005450303,0.44002335684534954,-0.3244380263100508,0.9895457141007657,0.27533330234429765,0.276872078776248,0.543541655103102,-0.4272857446590337,-0.6661808806654042,-0.21355672335683917,-0.9858679462367161,-0.5671786821262887,-0.3695393437869783,0.33959134713703154,0.29850761949815774,0.19210975755044335,0.03336752075472327,-0.5959718733425123,0.9987814564344837,0.5525746594387291,-0.5550768852168785,-0.17055108996956436,-0.8315926662410504,0.6616596351918661,-0.02007647864982125,-0.287232488524711,0.5381993243470484,-0.36189549538246313,0.16800447482144265,0.7419770557686793,0.34763270738907526,0.72249472076453,0.5803017018047494,0.9209261168564293,-0.5176517557335472,-0.7725328241507554,-0.42492718953272046,0.9524154737047592,-0.17328945412020125,-0.46142918980601966,-0.8409868992380171,-0.6233333803776662,0.9320615096797931,0.12506476908950837,0.3580624664920875,0.28308381798767646,-0.9102406078588334,-0.25265416740351293,-1.1910868502848784,-1.0621897011415267,-0.8850236610832511,-0.36488157374606506,0.9791961281406135,0.9007407251826169,0.4439217579218109,-0.4593742793778173,0.2058280571582829,0.7025529610124959,-0.9237375118353723,0.9590313357191596,-0.5730044566959152,0.6518790715123892,0.3463435191686095,0.28734697362702133,-0.729234498645948,-0.7860559227523047,-0.6462132647093424,0.05040905611418764,0.966734051590591,0.12065961253410269,0.07099067667298616,0.0030537634175002992,0.0003656254217547783,-0.22108802769412095,-0.3207480221878216,-0.1836802916671787,-1.8011174856931937,-1.4997978997512025,-0.011856442688242753,-0.980049740983605,0.23859746337149632,0.18084161957279338,-0.8443180779152197,0.9170064887890141,0.1995297360170578,-0.7200760629668537,-0.8225121940328195,-0.607615023018969,0.7783766695215528,0.27407858013672426,0.894765906096135,-0.08937042748697288,-0.10935056585847014,-0.45335596496679975,-0.2558997178457727,-0.17074409873390484,-0.3781141206679541,-0.5638419204034771,-0.8747950072885602,0.7069575606451863,0.24985918862066644,0.8588245826822107,-0.6191530702843328,-0.11674160341830031,-1.5687947917482745,-0.11611949602619637,0.8138314561035237,0.17878770032403882,-0.9254025162145303,0.7555258847798527,0.8767273792625501,0.06702609001471571,0.48278152068010227,0.53587703049579,-0.7135895091026043,-0.8130180133270615,-0.07630074938161702,-0.26452225526330486,-0.607264788456712,0.06721590976797276,-0.039826726482780295,-0.5214012990768424,-0.17275795918396208,0.98641388064841,0.08069269021455001,0.13202900783885602,0.2600574709051218,-0.12953413594848046,0.3609629182294343,-0.9512019178805314,0.33905627932582205,-0.16149872551250566,0.05056551823199873,-0.20828649583755302,0.6095090819809812,0.6130511860681322,-0.007722772996958671,0.5388385293777027,0.36053153855815334,-0.7123847023944845,-0.5992597241686244,0.06722556962519,-0.7685786369463461,-0.9967580623835219,0.5506055387407716,-0.5385736692241794,-0.428790433779517,-0.8939026966270365,0.001945122757144091,0.01675383730587554,-0.7563476693223432,0.6469106353935806,-0.8516732368892128,0.1577617834069996,0.10844001456305737,-0.7852415022757174,-0.007278911995372161,0.7265652047993761,-1.0504022750262871,-1.0894976427460872,-0.9094850999250691,0.9831815146391917,0.5926269291767206,0.13332097344764882,0.35728933764662174,0.3426580550824547,0.9404068542955395,0.029626874354098387,-0.08171645448474174,0.26285143568845637,0.40221078903620455,-0.7189896526608375,0.5960245964829978,0.06689421790067951,0.26656195343840516,-0.1586335499133762,-0.31710328126917053,-0.2758485318416055,-0.41924625736206456,-0.5271909120821321,-0.2719282308560083,0.24498460044909362,-0.5208360337372405,0.5491483353881949,0.9435406524505875,0.3784741450336062,-0.8848721524828593,-1.4910748893348242,0.2820221145038213,-0.5260843750522789,0.0549686390918569,0.7517798383810643,-0.14311353783166303,0.5536740670004396,-0.47326552175028946,0.1323634481368705,-0.8057999515542953,-0.24065273278043242,-0.7116988831654834,0.4509404719575747,-0.02580227632150689,-0.05320480033864117,0.7056910210613299,-0.2367607645292178,0.4518752148156344,-0.23506543661207524,0.9511377233096237,0.956830098995056,0.6858786706121904,-0.7800615117277749,-0.46242801964370983,0.442504012491185,-0.49318760302482834,-0.6292093262961105,0.6881471908242306,-0.24970347024362916,-0.5550737319196928,-0.8526011971215962,0.8302601263429419,0.21283418628579298,-0.41207780309378417,0.9991736788328174,-0.011107432170442078,-0.09943172166552583,-0.2449991812633765,-0.6829051634809178,-0.4888285535539516,0.8622241925869116,-0.06205230824890329,0.6435200725901584,-0.7845911758684003,-0.1252460276827776,-0.7784182334798133,-0.03677109543167534,0.23878833585660741,0.3199739126156149,0.38429023712478316,-0.10407143450634604,0.08310944742853388,-0.6127159634460153,0.2831639075469232,-0.7413553825417372,0.6708359441585071,-0.2520878585179104,0.09034858070846019,-1.027811808892202,-0.7252404198031543,0.4707220801682641,-0.8676526713583961,0.6194364116860298,-0.5884528143007979,-0.6943799435483056,0.002608103448878296,0.5470860802482291,-0.32335410603611914,-0.80548630853212,-0.5501899558052588,-0.4403365830451804,0.5460133795152424,0.47504944704528085,-0.2365670983450674,-0.9887275253096814,0.7295396115801116,0.04299444558482324,0.6285461085795212,-0.9239359889632319,0.30533686479684596,-0.6797985129990798,0.2958369066455191,0.1621186745504435,-0.4269634058301883,-0.8615671002897862,0.7482248057227776,0.45900272412229826,-0.08751445346848774,0.5757677580014553,0.1545944898135878,0.2647931714852627,-0.2776679073172983,-0.2486633326747818,0.789305184518893,0.2951000865475928,-0.8070505456455654,0.6704754813201039,0.5402258159313214,0.8190380439956833],[0.9962346253852055,-0.2615376461292258,0.37528985615805976,0.9213075937352566,-0.9338414194225795,0.6948417297336009,-0.6285131602892517,0.04732092857552184,0.10542442069191349,0.8955032275699804,-0.3377611111089984,-0.7118109819512517,-0.6456336108333514,0.9407780620079258,0.2400413248759139,0.3836804396528899,0.11301012760362639,0.24615596136196105,0.33760500677983285,-0.45464893908296977,0.4334323933250568,-0.7668631720023567,-0.1422698334797945,0.3683688314494493,-0.8267374041726525,-0.1457899762247108,0.390582127200618,-0.37130190318067724,-0.5509831467667123,-0.40591210664435007,-0.41119250919327777,-0.17342703671720416,-0.035958860160805406,-0.9996925944974933,0.8142295100124728,0.9501143233887281,0.40854443152371345,0.48914052424004173,-0.5723188045733616,0.30293816888127223,-0.6306534663023959,-0.4619720890588894,-0.1433187177074413,-0.5033404331083524,0.3098776457792154,0.821757847477881,-0.38339009110640165,-0.18709660932866146,0.6126658020788602,-0.8366289731326857,0.11764777804355231,0.6686244652093773,-0.33763790841606833,0.8070761671397195,-0.698088074721595,0.04539842393932636,0.5352787901992007,-0.17872055270748288,0.013084736628774296,-0.7267229502375891,0.1820979212398377,0.9307119445852607,0.16890570663813032,0.42679531031837903,0.8391351236437801,0.9370523643671329,-0.5382813473120562,-0.5824812654180609,0.991823366682355,-0.457356588995693,-0.8699995994320122,0.2425171416505849,0.6783578542321771,-0.6411247374794895,-0.8784919111988616,0.566496243168229,-0.7938287740580534,0.3903540252890272,-0.8257901279127846,-0.024708318376091887,-0.5709704972244678,-0.263567632211656,-0.7261675961969449,-0.05148604485604347,-0.7087376249854549,-0.20648286400857163,-0.5616163403807468,0.8272814668271986,0.15770338969615483,0.997786729339649,0.02609711363638234,0.4986223392812499,-0.23021760743563013,0.5288546408852817,-0.09467931485795589,0.570627568808157,0.9639141128008817,-0.7069843139857421,0.16440969154127472,-0.873265284017724,0.7833834141984612,0.999350264061335,-0.33973000318278923,-0.6894844521397774,-0.001958184984035549,-0.32681763668181096,0.6825135330232168,0.5596728155795629,-0.04520495493613308,-0.2587979014982975,-0.3589792505788232,0.9026190743696245,0.9468701688625698,-0.7571849990074888,0.3577956949118837,-0.1732196481413546,0.6843098632141371,0.10545726806907885,-0.7414165148843488,-0.42391108473861205,0.8940003178688192,0.06492436683075287,-0.6876095205459802,0.4728387037583721,-0.4110408609972884,-0.103141029415736,0.5130450135692164,-0.5487994784188969,0.2184558571862061,0.4653787509599401,0.34947784609823973,0.3909293417644939,0.613976624410814,0.8928394089244216,0.23126084901926003,0.1696824948572182,-0.3659881374970264,0.3113525949911995,0.32853977292859304,-0.2298367412218314,-0.5654017561792957,0.5852010654636215,-0.9100404669536952,-0.31286449170162234,0.17772069929571588,-0.970275831804712,-0.09378385706982528,0.8083374694644607,-0.9163861244665894,0.2865582954387502,-0.7206727375595727,-0.7923017804268582,0.38350922535551585,0.9479735226254759,0.18334451464244925,-0.5465000593209548,-0.1417663553315009,-0.7210187867375663,-0.8454057428299491,0.5352069011585434,-0.9616627447646449,0.8539944792382088,0.5995005825484199,-0.2079102418337584,0.2038279799205478,0.9028445203755493,0.69540196153695,-0.1979486918129334,-0.16956730453229163,-0.03182909701482162,0.5125553159534737,-0.7719001005820645,-0.7757141375663865,-0.4528680345034326,-0.8014397481215993,0.5274876666620378,-0.6355999335457316,0.7564356764144934,-0.6469649666425237,0.962074497085393,0.7835185254698609,0.570488035188782,0.3057652928890113,0.04630064927210281,1.2269223730220364,0.2696286013228543,0.3596031502080797,-0.13929511969816988,0.0709124242432797,0.4363515798986932,0.9860609402250655,-0.6195901655630738,-0.1386037439764629,-0.7914380715601035,-0.9545713792716024,-0.7644318073561327,-0.5286856584672395,0.6778204718492522,0.6078917628329161,-0.07340416344449929,-0.10599702918367959,0.3712373404249394,-0.2057370836290151,0.9419263067911551,1.2864437246465754,1.268510292544609,1.8569379796980068,0.029134975575013322,0.899636560814292,0.5805023921904233,0.821906907799856,1.1000935275685246,0.929342083205213,0.8991728566905725,-0.20158550811156195,0.49376724724358784,-0.22046357106757908,0.12809922016676434,0.6602274210158143,0.28687418306178536,-0.24151127594464517,0.11667330211959426,0.18774740755595842,-0.10812008551873964,-0.5334658112737076,0.6071922276171111,-0.9062313715905526,-0.6283266268316461,-0.7324839928871478,0.24021747117367553,0.36824283433626726,0.35806063801526344,1.4742964599658375,1.0231357949556512,1.8499844635664509,1.3751476482154565,1.7264138661696786,0.7289794566874659,1.233950867852924,1.4616940496605224,0.8356079376432868,1.8592130074934465,1.4368669507021798,0.6599205395320842,0.7326858679322562,-0.8055259203460093,-0.21216977246055135,-0.5832136183051864,0.1984242737665045,-0.041448934718162134,0.3746545817795044,0.39358787178829946,0.5224300772707982,-0.8951220545674698,-0.6944720115009744,-0.7172850209662236,0.13396636953922303,-0.9059785892134293,1.0168455091015496,0.5513711605211975,0.723701483756827,0.8515529804538152,