{"biases":[[[0.9440452532903091],[-0.4749685967935527],[0.27876093317076744],[0.3487562137152568],[-0.7835665418609749],[0.9880834898857995],[-0.12492134293052122],[0.7358784770386555],[0.6338552817745828],[0.9092818634371752],[-0.6203794643724388],[-0.46659356008748826],[0.6231498280003945],[0.5522645334316935],[0.5007580523333225],[0.28868504080928614],[0.7806559823536074],[0.06559390572573495],[-0.5778234580281973],[-0.9896255556412978],[0.6767685156192679],[0.017165617756705664],[0.47084942779743577],[-0.6908410500030902],[-0.2903680077831815],[-0.08963118142891875],[-0.29909885009186193],[0.01757151436187341],[0.5115784830727756],[-0.5597836305558342],[0.792245518277469],[0.4310532133062895],[-0.8064993078628283],[0.22872966975871448],[-0.6231973546985564],[0.9211276585162372],[-0.5625431393347226],[0.49309826013641195],[0.21464554031205116],[0.9909199220102384],[-0.06696211361351705],[-0.8298148421206326],[-0.9235072107452718],[-0.04667450850873497],[-0.5061839374498788],[0.9253873423696111],[-0.4599761725075399],[-0.5090757458968154],[0.17603342204795921],[-0.8872323096888054],[-0.49481280016332657],[0.45064537583256165],[0.23690672725012296],[0.977142798206134],[-0.3556195194611017],[0.5005847888155419],[-0.5178223714487842],[-0.03867530673296064],[-0.5431825992599704],[0.20251406611297093],[0.7523270988555629],[0.5155362330743297],[-0.851435667835521],[-0.38720772757045857]],[[-0.29583515877862915],[-0.33640801062729603],[-0.9970813434072349],[-0.386453473717591],[-1.1841682597916263],[-0.6798404628685972],[0.49257472112864387],[-0.023308330295594842],[0.5076348464304695],[0.5910188954965601]]],"weights":[[[-0.7981565223270395,0.94225446073179,-0.751726067948921,0.767675224841337,0.16587115267748365,0.6607904143280563,0.18004830289509566,-0.9239403919450836,-0.4604815782160416,0.3554815746656501,0.8056656497664259,0.120765456963138,-0.96794026419585,-0.09406647977938264,-0.7747230876714484,-0.6028130943174388,0.8278893268910574,-0.0640807590879453,-0.8241275786956892,-0.6008146080087546,0.8552608767435779,-0.1805862527918893,0.345926415888707,0.6342375258757715,0.5218284340979884,-0.20648714618968467,0.9097433396999788,-0.4249879878873519,-0.11785833809435252,0.2475156234945204,-0.04419442959729092,0.6719672422820504,0.11707360136286347,0.8998641183594251,-0.6043372646602322,-0.6648930402252338,0.08680404258031446,0.806546432967817,0.7356592275494621,0.3200484680857811,-0.7959520006885837,0.8021506073006959,-0.8154717599259352,0.2062426752880016,0.31743631583472737,0.13381702950678098,-0.7897749344411481,0.5117806755132112,-0.6969519510684576,-0.6911160430654305,-0.1818102141142599,-0.7751248109201063,-0.6956939585114839,-0.7741640254093056,-0.15328384977115173,0.03541128147186723,-0.5252127323359244,0.7745702280233018,-0.34354800947441677,-0.6526413846490602,-0.02928513094192331,0.24578788376596317,-0.457020134110371,0.35064877791540183,0.09698492689690508,-0.08432292263653833,-0.4580193750323202,-0.08209038724871112,0.22232557464084138,0.8293663259787594,-0.8698101727015957,0.8662273164287848,-0.3134547548964025,0.979960963573241,0.12571688445689552,1.04619722115843,-0.47515275878449853,0.14558575206131236,0.9658063781756068,-0.3876125289223208,0.8350805274557487,0.7078380446619645,0.1170095523477519,-0.6545189086507879,0.3999676684647937,-0.6839152056191105,0.0512891232471997,-0.5759533080180472,-0.008937591295710146,-0.4052535949716596,-0.9095464887861253,-0.9905644863608463,-0.9327605681937436,0.877128830651055,-0.5350797809428822,-0.71081223079021,0.34863170091671236,0.36688589190540877,-0.22322024367042906,0.307853623914145,-0.8244501910728032,0.1360343197744823,0.11680410242126149,0.9197793522625386,0.4753269777518259,-0.7789972827345513,-0.906732576691289,-0.33597664796603416,0.0015971809984206447,0.31858576013900464,0.8756382453438616,-0.6502256361442209,0.4276832372927115,0.2644875691304367,-0.7826555191915956,-0.16585209686852254,0.7343678426959719,0.38565191579087377,0.7452759478637123,-0.718451591779986,-0.5374359656900735,-0.4441630507238202,0.3234228103798547,0.5084065533577727,0.24345346851104713,-0.9655922950067057,-0.44642722962196923,-0.2302771562527649,-0.047599593221788354,0.7329355958408805,-0.1993324195385547,-0.17252488430642393,0.38268036031379804,-0.39158930260309943,-0.14218835819391518,0.268376046007524,-0.614915759974736,-0.7315017869691216,0.2610514732516727,-0.7247986426707989,0.36923371033257935,0.8513143364859763,0.8832055702681235,-0.26640599454555824,0.856822589180612,-0.01978343227251788,-0.9014411846608974,-0.0992489602835333,0.7293459505162417,-0.7709200931477757,0.8379737862213802,-0.43088242155624246,-0.6022573907308046,0.15907547173565684,0.3154541186142741,0.3786444153660787,-0.7901536525281788,0.5375697088810508,-0.911785577354661,-0.014356717990930063,0.6836161575318267,-0.21128313055294218,-0.28852030014135005,-0.5103817759073951,-0.8281385810317521,0.5150335405754844,0.21395649298015598,-0.6882551326632164,0.30382614560005616,0.7413314403319107,0.9726892498515511,0.37879783570584113,0.4052326000898011,0.5617011070415516,0.32046701807121086,0.5620929009329617,-1.0551315897191198,-0.39169661445801274,-0.2093876288901993,0.6373347591799516,0.5205541696364689,-0.6852664993089155,0.008814286215983595,-0.8351514882191905,-1.0195748899458075,-0.1502610481305165,-0.8643382260459024,-0.9123118030666719,0.6567403877550461,0.5029714124947879,0.8235596363746135,0.5232083323427462,0.7959757801117229,-0.2782036015382342,0.996506425067955,-0.5550418686483436,-0.5560859410207892,0.9081422584477568,0.7490031227971599,0.9226131232507918,-0.8525555950689848,-0.29082390524171675,-0.08743358157027398,0.631145266828741,0.4174048124386703,-0.3210266512350834,-0.6167139958501061,-0.022912215077545976,0.467609365415667,0.30956430114343514,-0.5345187488825373,-0.5211385131180823,0.09401294518907395,-0.35263737223426833,-0.3675235649710036,-0.23440933160692254,-0.703756418017139,0.06939140077246042,0.8074808662562907,-0.06947764841504005,0.9149072664018126,0.21547823260050492,0.48485518187629983,-0.13355608744199232,0.30095676961865214,0.16682950536095786,0.8649619557515895,0.03881766362112939,-0.5767883265726057,0.44091170232903804,-0.4384196416313426,-0.4294739998644062,-0.9006359661038215,1.0253692219109851,-0.6985558687865344,0.5625407178467131,0.9365728627656654,-0.4465268118424643,-0.6820178039308222,0.6438463615007434,0.6840300264231781,-0.5291239467770456,-0.612073041777379,0.29938498147538606,0.7574238118700103,-0.5709011493158922,-0.22685728520076465,-0.5729307008955222,0.5555613418590994,0.8215763246933125,-0.6030706819453853,0.81454967990642,0.9503835391647102,-0.9842990695516384,-0.41407624916159463,0.24185486717539392,0.4095697101546111,0.8171399180089873,-0.40906742226600146,0.786533750482772,0.7094537022134474,-0.33906154793959853,1.4185036208163135,1.1958559470733443,-0.11535885059257633,0.8849473087127672,0.6094282262557107,0.4731493945008373,-0.8014373888174186,-0.03850627697519087,-0.7100397325211313,0.31642839345766605,-0.25731951649939566,0.5562316669792446,0.5400272006391428,-0.5186037854280221,0.1688040402446584,-0.8520726868982991,-0.4480356677391199,-0.8123425383727406,0.9250875211233384,-0.3877943822179148,0.7061351023292514,-0.8488494832871196,0.14576725127279108,-0.5843986739011107,0.984295325204879,0.5316125549017442,-0.6578037401301859,-0.41801137588737747,-0.33412411947792764,1.1327823371900052,-0.6278471075900242,0.2509533144378143,0.395494593413942,-1.046576847849477,0.5084427437500949,-0.10164889049039857,0.21411934818075584,0.206832762968763,-0.6442895856959909,0.2141276344637558,0.6394485048106171,-0.9577634830309824,0.9938744861850041,0.8558841729670995,-0.615019298343555,-0.9028328083475492,-0.3966761226808271,0.9779694903510476,-0.1527885577224644,-0.6676036791152318,-0.8682905313430613,0.5561554558319033,-0.7001935408217734,-0.27139451471288556,0.7747525143902947,0.6869877822167502,0.4798608793557831,0.6870919215519318,0.6152775373809075,-0.08174506062878226,-0.9814656268762608,-0.012681791339754861,0.2648697388223546,-0.6799009200761119,0.3324605893326793,-0.5688000474969737,-0.933411371217983,-0.6941240861250263,0.4178680833781311,-0.6678786338536471,-0.9262494520837182,0.8139087009859567,-0.9081844911662641,0.766506658487697,0.7898200420202244,0.45971839795152497,0.3354686801686379,0.11891688725656677,0.10016144309625485,0.9293276832464666,-0.1807372953155594,-0.5470646069056895,0.6374439939155894,-0.22578109381700032,-0.3142554444801427,0.04945770230026989,0.22759989970050304,-0.7046212987285613,-0.35792515657477,-0.14698506082716772,-0.0382200144946951,-1.1254958862814388,0.2527042190893232,0.20238362344808195,0.23124974079448135,-0.07527185204536928,0.3658568899358929,-0.9126490275579738,-0.9109620279148897,-0.48809811401618025,-0.9562677419955636,0.6833589530617792,0.5981679074608592,-0.9670788667536478,-0.021098322349890175,-0.6412411400155571,0.6338951546490629,0.6485046717931963,-0.8393897272870032,0.6141058607721103,0.29495547080090273,0.31224494562410265,0.24275233559221565,0.2013839521933821,-0.5253471343831569,0.8934822702456199,-0.26044198497420723,0.10422445283926662,-0.9661319992939166,0.3374895767228364,-0.44546107078635283,0.3443008614083424,0.2525759621887917,-0.5809125244187946,-0.3584761609749501,-0.727342018564828,-0.02419712139321584,0.5419974625848971,0.31020445080074566,-0.4648299944326307,-0.7582792734554494,-0.323632489328789,-0.5510536260773401,-0.8716955682584456,-0.3748930104737249,-1.1017619545346689,0.4539660065193437,0.5558221150774545,-0.03391633695073,-0.8656466810554801,-0.3809214547972023,0.18716792056813897,0.06148806166546488,0.8294754598829905,1.2945259717523632,0.7530113163528848,0.5265173713507028,0.37544199937310396,0.4915591897855348,0.20959299956815422,0.7389453751595684,0.10162847734660198,-0.6533308265975768,-0.9478453591848226,-0.04394143960656827,-0.12271247355302319,0.7051234827696861,0.46542526856665406,0.5997611532087943,0.48031153180455033,0.19246346051376412,-0.13825602787988817,0.5474294764111454,-0.4205423398406512,0.3310091795652744,-0.9233588679824581,0.7894243245124856,-0.8782769251272216,-0.3870492409189805,0.4983771632209056,-0.33094519167239395,0.8126625466814165,1.4434292006548979,-0.6091276130126593,1.0131053644754795,-0.589045280357083,0.8693907891163095,0.40397303479425506,0.007442839858085292,0.3502403746548008,-0.8478321809851077,0.7934740896588489,0.7323745218979502,-0.8644645542659111,0.2126633460155014,0.2478425034828652,0.68138791989095,0.4362630127730509,-0.042631958669915475,-0.21084674332964135,-0.06141690393942364,0.4137083818872043,-1.1448772972597188,0.08529473417244685,0.05020002117356836,0.9067208382632098,-0.9137654292158787,0.1747832529786103,0.625668603659747,1.080830524233559,0.9606786405056362,1.2209630076635096,-0.4010053803979157,0.7901275443659749,-0.6663678623484434,-0.8806016335928889,-0.13279874522732765,0.4848885351588267,-0.00712482109553711,-0.5101133642189404,-0.1327716090846989,-0.21144768492504434,0.8717833857490412,-0.9286957551660212,0.6682586919997291,-0.12938063992576088,-0.05323961436903392,0.357901258267337,-0.22103137737804782,-0.2164288454903772,-0.3836334585423351,-0.7835884864699231,-0.8237904676589981,-0.6215454751592375,0.1162369175524087,1.0867271728715997,1.2212967916709538,-0.4769659863768318,0.43985444480532565,0.9782308124975869,0.8752508989229668,-0.13036557065301577,0.24699071990676738,0.269051893591421,-0.716198379109796,-1.045337793563117,-1.0155477708596798,-0.43402108528656314,0.10532957559681526,-0.699658751322756,-0.956544165008438,0.00943320134893622,0.7485246974677431,0.3179068554304454,0.639322075560679,0.7258854690863474,-0.02346401678337613,0.3612670941408895,0.7002838798935104,0.6156056774198345,0.179160679752966,-0.7010853182572978,0.7508421376828834,-0.47618492064790346,0.09903907874275424,1.165717755416757,-0.6454694870261714,-0.8899980735528542,-0.8317661152196401,0.25434229270175224,-1.0306419975199437,-0.6130518341230389,0.3384435602234501,0.3435566450925202,0.16752939185550011,0.6005991729222298,-0.8213150968892985,-0.9119269631643516,-0.4231115017173588,0.9037828406076516,0.7296029743877914,-0.426805902165208,-0.8000919879906628,0.007107064928791357,0.08685521932608128,0.5323571973924333,0.2843208269951805,0.43173799728018125,-0.6880409130147234,0.5852331680962756,-0.08319925291245116,-0.6323097830707332,1.0406052176053615,-0.5523470718858329,-0.706167883734581,0.4583644570408662,-0.08139098732638471,-0.5150647240218004,-0.7080431244971166,-0.4619351579642227,-0.2037276766660888,0.09119513470968199,-0.08921068544727963,0.766783896972597,0.5088642696605366,0.7787395104178881,-0.37481626034585624,-0.3613994956674551,0.18108612773086707,-0.493063699759851,0.2315942285038491,-0.9156042273851749,-0.3694206962309392,0.07432515261040021,-0.9193758839690275,-0.20205032968340744,-0.03465916773613597,-1.1277418338437026,0.5199774784602992,0.9858593517208657,0.04908915541778539,-0.631122287132244,0.4337348861080067,-0.39652758242665237,-0.10023511168978812,0.6627718292693164,-0.7129688482560378,0.5978746299579178,0.6468736217850922,-0.6942085442280687,-0.31840770605235613,-0.07336052941045125,-0.29521940418933834,-0.44404106591046405,0.935801806185172,0.1346096678130082,0.7313699490395932,-0.5773148306785607,-0.9630089725792168,-0.7094163464181865,0.02902642066360396,0.7202030964955425,-0.18512365473945,-1.1285106230473254,0.4150076922926453,0.5518914718537369,-0.333855050049633,0.43560278326089735,-0.4027997847770779,0.4406627100043161,0.6922993030989737,-0.5922677666913648,-0.6579914997639676,0.026802776781716758,-0.9119363641595445,-1.0495684729252368,-0.9893901168522443,0.9407196625491746,0.09341322582514368,0.9180240928434422,0.5820127746108819,0.8715398014777638,-0.7876209329649357,0.40860733799849913,0.07079893520570203,0.13985295508689208,0.11978067069232598,-0.7835589384300244,-0.13743146871717155,0.2220747748784064,-0.2836640890901384,-0.4179477411953052,-0.06269794271002092,-0.7584056348006118,-0.13552165862963547,-1.1728231732021588,-0.7559935492092364,0.5576666386980624,0.0788261133408,0.633751120151831,0.5935935377559675,-0.08332284358939798,-0.7340982762762089,0.11537394327410895,-0.2631691556777431,0.7337405915610886,0.16745822674624505,-0.5648102577316003,-0.9010039793820619,0.3124740862677156,0.8673667517792432,0.06562963374021757,-0.010102727820202162,-0.3572260197521684,-0.658201087058359,-0.5950963494119917,-0.44636902357491476,-1.0513300219219102,0.07218648046115214,-1.247939820870215,0.5629689196371749,0.2452073861914631,-0.24525772348248556,-0.6341347534714215,-0.20293379821740615,-0.5314983138657476,-0.24534645342849593,-0.04242715983449595,0.9063634781051623,-0.75718964384649,0.8579752708649188,0.8710649161077617,-0.7735824632366166,-0.7312418504110592,-0.34659993682007306,0.5293822939244892,0.04991007224890434,0.4013959849916897,-0.4317607105793255,-0.9754397531946652,-0.5866816439416191,-0.8605659874831899,0.7771264805770585,0.5084062055336024,0.9234030760992162,0.6751851631530755,-0.8810805360943412,-0.7786968267198972,0.06516520797100377,0.0818679366320211,-0.3003614088730225,-0.6347588586282025,-0.09348542337170472,0.7613797484809319,-0.3586926709318636,-0.446121489512114,0.6711815336004746,-0.2710848967102708,0.45486672225160296,0.10390008758583862,-0.5097692981955888,-0.4273327089076097,0.670122809905325,-0.8853089042584812,-0.7931373735842792,-0.5150817757829118,-0.20616757992859913,0.013371935282950886,0.5665996942360829,0.8744273826777866,0.9593514457722924,-0.8058531685373842,-0.7762279578376469,0.44270740296148764,0.3834304101953344,0.9667188734205264,-0.5012485348865546,-0.6729808644803201,0.7338503074301091,0.5079651477341232,-0.6300040901946197,-0.29724876633318126,-0.4302036414077591,0.9140241294772256,0.5637389757571659,0.7456985687848866,-0.16891978411820402,-0.26559495661293453,0.6467955999839191,0.7531749719859797,-0.3974441706951193,0.8390951007147187,0.7113754592900619,0.4580533114342842,-0.6949066591534727,0.80985680117501,-0.8114868938504951,-0.33209179829849944,-0.6377145623484204,-0.7083729740636953,0.2755784808013353,0.013746233814716282,0.7733522975148572,0.5796441983418599,0.1296048395834205,0.904861717857544,1.019742117422797,-0.2598372389574213,0.5954681546354257,0.6986771438519173,0.4561731683747899,-0.395351596552912,0.5560030053386417,0.8176023216126148,0.4642582815360613,-0.5833980478018231,0.5094114817023152,0.18709428234172384,0.16796412425293114,0.03212443551757034,0.3754051012837176,-0.2283587641802447,-0.22197997138227987,-0.36868266446173337,-0.47477609524509545,0.3821411909257389,0.6941709866737478,0.7973781115752694,0.35172422120048896,-0.14871032328216227,0.29735372834863294,0.11493302000236327,0.7675578650365669,0.36620904595618886,-0.5602182071087628,-0.9770954889136058,0.368186966332463,0.9076450280314534,0.5315928173340487,0.6479298043384805,0.9697868762664354,0.6423149490631753,0.06062479348142249,-0.5572221109759875,0.01238865112409278,-0.9483581436025836,0.3463147209473571,0.468535154910414,-0.3266657197397469,0.7591817078124903,-0.048779257556364586,-0.0794257020016631],[-0.987702764906316,0.19986117013807392,0.7131746525597704,0.8679054124416268,-0.4344985067322296,0.24358437722608103,0.14115746685408537,0.21297859429945645,-0.5862920256787996,-0.603702872578739,-0.7205698949729826,0.9723109610899991,0.03754615130337058,-0.7138838714003797,-0.9847068291195922,0.4644214227199319,-0.16725667495529015,0.25002020995369234,-0.08459336103144266,-0.9389228809599364,-0.5192423224400304,-0.8043634462027325,-0.016413377041246457,0.6636321381616108,-0.9847757349927913,-0.932576256259882,0.053337748779901384,-0.06986546289650564,-0.06199397009434349,0.8611419817742985,0.8527066039463231,0.32935096245255724,0.7719025281648548,-0.03237662939999186,-0.4176586120968686,0.3700026183526526,0.14166149817185225,-0.5582592830113089,-0.24599126404781657,-0.4216959233285488,0.8653488685583295,0.8125552171445344,-0.6184108788807161,-0.3026286571832495,0.18111404329762873,-0.45920925667556495,0.9171454201429402,-0.40010994607278877,0.5254255982059053,-0.5545580035084634,0.36434124842406224,-0.3794007459288884,0.4113993410959629,0.4890725100420257,-0.6917879977394084,-0.82470579847743,0.14197094683659062,-0.9780459254333772,-0.06260021783465897,0.5419581670883944,-0.7265758439809866,0.46682534058816616,-0.9395296219246463,0.6955013268352589,0.6007980609978318,0.684957369157214,-0.3722581497168127,0.11702706210062638,-0.5755756811387411,-0.8455779991802148,0.6856239883631577,-0.3024599628767971,-0.389492867631291,-0.5556470677253852,-0.8074682890185283,-1.0221148997199996,-0.8111791895206261,0.7316757831684649,-0.060862886740062114,-0.9747613792538761,-0.41160407292406076,0.9093754524417174,-0.8758852665892234,-0.16334131065795288,-0.10557442767206092,-0.630912845752005,-0.8099246274829477,0.5998519356291454,0.8953405062638751,0.7354279428360907,-0.5742887553360672,-0.5148505032041595,0.1682155896948672,0.2623127222009359,-0.6442195327182827,0.31903718390442165,0.6153142041443052,0.7366669556638502,0.8530904813825156,-0.27634424098134186,0.3259779681638543,-0.7019189167471713,-0.7698090369929211,-0.7977259688041802,-0.5528077859195688,-0.31237138732935715,-0.4965408297027895,-0.6951914073440368,0.9559207269400385,0.029687127167308633,-0.8807001053618402,0.9101696011841056,0.9778015220152864,0.6395000935153425,-0.40626425098670566,-0.7283224991892945,0.9824026023529132,0.858682227658695,-0.2253507504867128,0.5727678782060935,0.8740128467687678,0.9428574906571399,0.6982218171668944,-0.47348863622337434,0.31170199088543477,0.9155359729973229,0.26001686680846114,0.4013876811607327,-0.7061579276708241,-0.8715959868668497,0.15891447552844415,0.2869570936725204,-0.28686651912097344,0.12045758109501824,-0.22225843077754198,-0.012575311479934641,0.8406576408883089,-0.5112584048223039,0.3782608270942784,-0.6870948470386116,0.4600231951910207,0.49519355202421256,0.871506756621035,0.26544171394465166,0.8097898564195972,-0.41877116556845667,-0.24284034523749937,-0.9825435451298339,0.10986204451970091,0.4840795857651415,-0.9664878276588681,0.45578126466824825,-0.45268758636266787,0.4449233609295906,-0.5644590270027163,0.6771340893664357,-0.7439965673418314,-0.8343554184434233,-0.2953793785645149,-0.6304292546443628,-0.47134992278501336,0.044326699516873715,-0.041717755071494486,-0.10886353686946719,-0.7673882919677163,0.1449797160490486,-0.250205383288311,0.6383234382025196,-0.3130280237998224,-0.044433356842960486,-0.7940810501294753,-0.5624978135834412,-0.47978048648816374,0.2227178630739121,0.6151955655453109,-0.12431933582353798,0.4692652931431691,-1.013296689392823,-0.7094210022756019,0.4116532720889496,-1.0882995528189323,0.8006699695106453,0.5361603424326111,-0.36008111360354006,-0.1797617094329391,0.3917090370020435,0.8911582282737964,0.5052344879539291,0.14427256189737148,0.8439182301818744,-0.67448556992237,0.9116176377458458,0.5207259232009587,-0.20557570607640027,0.35030922377174395,-0.6562690426367342,0.8254699862768298,-0.15613968020689117,-0.8725357493000083,0.4553207624806192,-0.1573605422769966,-0.3172139356149393,-0.6544200089528543,-0.7204634817926776,0.7245514475233992,0.23617265354539502,0.45915359072240347,0.26045116234176313,-0.3277479049970772,-0.8898471262637047,-0.5881498389038436,-0.2793932798984962,-0.07079414465114568,-1.0164007880916603,-0.6276630326344844,-0.6577142021691782,0.16570757568953204,0.9198591136099287,-0.6461373859526973,0.054886664690053384,0.11219564388759502,-0.16510761991061715,0.10737544252572943,-0.227964925685145,-0.4242758834543152,0.9622197899939404,0.08625110457574994,-0.9343755248554,-0.12588882361293594,0.3282589397564935,-0.6271590914740156,0.8090221219243936,-0.6841929037691347,-0.16756255718773133,0.3483084697247082,0.43260214439375083,0.6956756855943173,-0.9954065947770167,0.39666668844490227,-0.8378499139828817,0.6644665260623303,0.7260237432657949,-0.7954540721897335,0.9612685359581136,0.4646516114250554,0.5884689000887802,0.08502507104724086,0.42951230545304475,0.5243219295078946,-0.5966407680104088,-0.09876778253547264,0.7265894049971255,-0.6585219472039006,0.21787451475933353,0.13723512416126302,-0.6328126988515492,-0.1698402788655694,0.9095316880008936,0.7931478627630144,0.7043014078917793,0.6605310432904542,0.26273799525364194,1.0319487129678055,0.8498678780488402,-0.7608472802995464,-0.8166652781966043,-0.6723817625585041,-0.21982612986085448,0.8220760203271775,0.3803892015202438,1.134870220119958,-0.05443294953931865,-0.6083089787155755,0.5238725227836791,0.3598122677350503,0.11547695268324093,-0.44848554579256333,0.47415543301494434,-0.06180800944309571,0.2400419458017513,-0.9960124117447652,0.05448969834332382,0.5478121258943963,0.2776092362877659,-0.4474695335095278,0.7498834540931129,-0.1414882215060792,0.920565080814812,-0.8005227383734487,-0.3878997202275199,1.1811576292490138,-0.46921208564670636,0.22682199602508546,0.6841499923414653,-0.13388792874998898,-0.2091205217824073,0.8077649212218156,0.8497622349368923,1.1169619318387713,0.13057095187011275,0.3080765672252102,0.005343172243073192,-0.7330120466817924,-0.8947773081839598,-0.6652011463949379,-0.604521346833965,-0.8182384754180171,0.6942420097712638,0.8959841517893816,0.5544276547601085,0.7575045974783686,-0.9409111791535089,1.0716298358487812,-0.7460722873059807,-0.05324031538462932,0.32756030417288806,0.10193315872993582,0.057616460521695695,0.5242455420699114,-0.28088379563289556,-0.30444600885871786,-0.5073776549650016,-0.9302160275083816,-0.17270023997603248,0.643633546436027,1.0865129230219415,0.8900571049028185,-0.06428722570966643,-0.7388003022508094,0.7865529920180594,-0.9226841694371102,0.5232156802780505,0.2561573542632058,-0.9823641366929141,-0.996861688671435,0.2123852259596572,-0.16371629292696377,0.9813078190075415,0.7558797142306357,-0.18279630001595343,-0.8357723208978779,-0.8083074367539159,-0.39197923012993785,0.4430845423470873,-0.5743772413134852,-0.5524962330192034,0.1336695758680781,-0.6516410725739968,-0.3585146076417202,-0.19957797743302008,-0.02146526745378347,0.03807255181478985,0.640302435711069,-0.2802280931288872,0.789497243832823,1.0675425751366256,-0.05556904497426912,0.40963668614477683,0.42410277770030763,-0.23513370412822898,0.15178626077748844,0.6925714354789345,-0.8779173412893035,0.8703195501038106,0.804554075173513,0.3463410207997164,0.2693937991422942,0.7081120561252826,0.6722746714274731,0.9890837623279517,-0.1691586069794364,-0.022033437232926886,-0.5158263303322341,-0.5605348878858349,-0.2265845524766349,-1.3102989571618777,0.6172016743553822,-0.23826723017698023,-0.8743509951163301,-1.1155584003438783,0.44596762918169175,-0.14803426815273862,0.8680011147021588,0.5629767343175385,0.8016288449669821,0.7925629921707953,-0.6880609342575427,0.10814856035504039,-0.8413424135511737,0.4465810568207018,0.5415844573551697,-0.7512078769868751,-0.9129785863350052,-0.28986008148576836,0.1313901702602295,0.418022225944897,-0.7879821002641234,-0.8437228830586512,-0.18672618989992468,0.13104927324646723,-0.8967959112736257,-0.7163776854849626,-0.6091209989946801,0.6905114714192443,0.7637055237418664,0.08753948424192205,0.7568075080511616,0.46539282459134423,0.6035879363642921,-0.7888683991852534,0.5095644239262315,-0.756878023289703,-0.09192874430063157,0.39410884070322516,0.7237830798106271,-0.8455840182473372,0.7362353220746679,-0.10182867744463846,0.1450701792036317,0.04507760793122712,0.958208445677328,-0.6066171276560375,-0.6422069678959835,0.40390931306914357,0.17911085779179517,-0.04631697240997104,-0.7507834406803368,0.693821851974694,-0.2917934106758816,0.33156977939896515,-0.22269727663903813,0.9767844501802695,-0.20727536618794737,-0.0008709312770264511,1.0904020680681799,0.3245159844178267,0.28862031728151594,0.04697215809547021,-0.27273681993525034,-1.2441399336948995,-0.29130121430077843,0.036790925822381096,0.8035940597243576,0.4375075841535174,0.15843731971558592,0.23683439196749526,-0.39495720223339953,0.41555407457356,-0.6009268575793378,-0.426308379070458,0.7711042290218313,0.18313767291428826,-0.18825674180128008,-0.7178693032521489,0.3910257886536813,0.2166486002428422,-0.4967687357873339,0.9402139415569315,0.21533557536275535,0.2388920247034446,0.9065068513780893,-0.37089076659367487,1.0454090635777507,-0.16512347350567314,0.6563175355106198,-0.16512321968508706,-0.05299770515475816,0.28259413700351704,0.1477427565431558,-0.9989218584527668,0.019650567492174448,-0.6608680581649283,-0.21103517061795646,-0.8658126536392267,-0.6082824075080557,-0.2709956015376712,0.588255046707941,0.00835721602320838,-0.7052203806616614,-0.1548775112839694,-0.7286345194516568,-0.5068372292071137,0.13512232806116029,0.0003995218498626139,0.6224487815052571,0.7482538250417903,0.8361538977655505,1.2537034265611406,1.1334771502468042,0.7190448022936792,0.9300684810789019,1.0537962642121568,-0.7345402278321334,0.7268980475006598,-1.1140652426762667,-0.5416189803321965,0.48054949753081017,0.2441966736121346,0.07784125525975097,0.44908284672962295,0.1385156509324222,-0.8440134897794549,1.0085356484028745,-0.769912607303369,-0.6965902664734573,-0.3550692371692332,-0.373970328495802,0.5290302340816817,0.47455903926772136,0.2576381949799502,0.738477482759252,0.6935913150642582,-0.3804662493307863,0.8574619714132897,0.28906437347691005,0.908911922384127,0.5760571704306068,-0.18459579076627067,0.5884143642273932,0.1544520053712673,-0.8255681291868843,-0.16171519539296692,0.07394373080108535,0.293716821762672,0.048375548882467145,-0.27703906381591986,-0.23290726198426048,0.3379514115691511,0.011219618129518409,-0.8599270293173825,-0.3049044980683741,-0.984621569645084,-0.34458385496248156,0.73411871133637,-0.15961558372965734,-0.16965521107167925,-0.3006947090737804,-0.23543407264043445,-0.8563827778659822,-0.5878621116662867,0.1515329261366401,-0.5925905146612853,0.8325363024346909,-0.38651809362609985,0.15309833329986813,0.8320655475599186,0.6256994701503139,0.1587086298267664,-0.6037521647320203,0.4547204787570821,-0.3854859830226337,-0.5610505507293905,0.056561765902335435,0.39942855498247726,-0.33346422155483774,0.26473388560482874,-0.22260519160512152,-0.8708775110258697,0.2420603568290497,0.71166540477001,-0.20355987177484391,-0.06265952963674204,-0.1689677849409716,0.1301585412579804,-0.4012996130034965,-0.2216054131880563,0.05852934024046365,0.37583606008032694,-0.658819391491024,-1.1702409511967677,-0.419755147411414,-0.5945012015885067,-0.7577399422684827,0.09466024631574851,-0.5929212345222911,-0.8083364266829456,0.3009499253413874,-0.4724990994374821,0.6729858770732583,0.8486342850889841,0.15815499326798801,-0.7608951727398969,-0.2114828269785696,0.4825490397427682,0.474065064589544,0.01852306156725956,-0.19201205881620345,0.9972434683998064,-0.5845544661365922,-0.6599445743457626,0.5927926633915084,-0.3288440674484901,-1.0158004634677524,-0.742365309018643,-0.768892634249293,-0.67181658163022,-0.6939542251332207,0.45897913162731596,0.22125076221733678,-0.3856749704920265,-1.0184982012714292,0.5738413311597639,0.6067461191192072,-0.399225190526586,-0.4263744334207012,-0.10810455703556864,-0.9104971397483121,0.5314950322562175,-0.24121181210447526,-0.25134314336977104,0.5549265903012363,-0.3449310683596652,0.08970235585390025,0.8692869247043423,0.06989525731234636,-0.85985213630028,0.8299700973478559,0.6878004846161678,0.7877204021358113,0.9048649442118164,-0.5583377704446474,0.8310523864600057,0.07155290257628502,-0.2237388687020483,-0.4567587748070919,-0.39404618147810283,-0.5472890537031359,-0.8049710269024201,-0.4108071828601534,-1.2084534581867155,0.6875357722265875,-0.4644882291384555,-0.7844987140397721,-0.49831205542392654,-1.0045506332404726,0.7348940543427008,0.7433929841121335,-0.4180784308175061,-0.6030017800413003,-0.42763756421614024,-0.7735267387229894,0.7130249623908187,0.8291967986688902,-0.287397574413256,-0.7383889393004834,-0.33527666361733144,-0.47148253037211896,-0.9192088992060863,-0.6533254368173314,0.7717991188375575,-0.38399171295036677,-0.36188388908500513,-0.3666065273991144,0.36720669335133627,0.26245749920658723,-0.18464855706582917,0.6550825322396228,0.3518903941890336,-0.6821417596047578,-0.048550122589789316,-0.6053317194764012,-0.726989849066895,0.06781427465692254,0.899139832444054,-0.5676326778527293,0.45346416502066766,0.32036844645359336,0.9655135347869194,-0.31468242616013975,0.5091837251260428,-0.27391857359480465,-0.5154881116579175,-0.7385635017897407,-0.5768072172308785,0.530878901360036,-0.05837850154040449,-0.5857028932892461,0.7233936478595258,-0.49102929819200797,0.9189713435863308,-0.2746395573972315,0.025002306856220295,0.6826514039152806,-0.3238689488026534,-0.23154963334579468,0.4536037874166553,-0.6574304624792844,0.14307178263651105,0.8552277031489252,0.5444675071135755,0.8182203206990133,0.048691540885774036,-0.2856533437995396,0.4191739568634198,-0.34931882243491863,0.41958818367826944,0.3663429294834921,0.5926855154391335,-0.22070625826846824,-0.01017559477570229,0.5101529666957754,0.7681001961667753,-0.33107042199439807,0.10238998871818006,0.5053861402679365,-0.1324851101110136,0.5477440015511003,0.4077330355348658,-0.3983375401816879,0.6103116374330297,1.0469008178496546,-0.9525693781902048,0.55676579877024,0.5120993517519721,0.019789053518202693,0.15506697418651766,-0.8472360885681948,0.28986240220942044,-0.10512245798772751,-0.07336876333218693,-0.9136739501857531,-0.34082582363042435,-0.787905288562278,-0.7913178734271911,0.8463876327260567,0.5531933349472815,-0.931284427191932,0.38160479755504473,0.17832843408769317,-0.7497166376931967,0.7107234133546607,-0.8397289601800535,-0.8413132450252865,0.7299401580265789,-0.8399583074007019,0.2491541581950577,-0.9746617994281236,-0.5349615063053995,0.5307325328440196,0.30261196733119494,0.034169912040862754,-0.1449604637808611,0.6319224764928176,0.4521967211396382,-0.34559858814182864,-0.056343782923927145,0.17057320993781658,0.02235601237064886,0.15607474195428162,-0.7942238972458485,-0.045203075037405775,0.13932548560695834,-0.4620614805966703,-0.9558717235575204,-0.09842555387839336,-0.03977358570256739,-0.8723670691324352,0.8746875485819725,-0.6126856039354422,0.1488607278581009,0.6302380236895393,-0.8087277564728368,-0.1503051689852135,-0.4703994829272933,0.4155641414892719,0.5870617641498328,-0.12917449804259978,0.3419328277415879,0.773746307049279,0.3328366585387581,0.2483321080909124,-0.7190482186931676,-0.18910017261478695,-0.3894303450044633,0.6263573391189217,-0.9116999224340976,0.9509819909874536,-0.7466525076400449,-0.7337206076173003,-0.292455724853788,-0.011940278432039042,0.691770929021106,-0.12350748363223762,-0.7347162472951991],[0.18304687342727768,0.019814432918960012,-0.524536564917403,0.9992025149095418,0.1516206729503411,-0.5531304553666303,0.92876050808793,0.3208260325760368,0.8202793565912463,0.09448149510415392,-0.892777280008239,-0.4933520530277524,-0.7781400997999883,0.4447540748504344,0.4321314734588418,0.06516107982989094,-0.35106119718621165,0.10730599756931136,-0.11978745284382276,0.1270055120419031,-0.9413224732667258,0.6181523303510195,-0.16387445649243904,-0.28276613609337664,-0.8839772865434252,0.9501294881625726,-0.9489497282099671,0.0954580556860738,-0.6634573849699132,0.37835643001761166,0.8458210843606833,0.9275360231681212,-0.4934559445500628,0.49642282308734176,-0.7679426996697787,-0.7171973113819121,-0.9802168955090064,-0.8103953886674895,-0.468482514423727,-0.8809186258007551,0.0933475425547583,-0.7982490923109764,0.8386175057883836,0.5014423515320423,0.20990825150151776,-0.5072313632274796,0.38493886996898485,0.8695264381626377,0.2076099493729597,0.4928133124632678,0.16861991574266333,-0.6194235719770915,-0.2592849371289436,-0.22800073431831705,-0.39123804710563737,0.13849095940244327,0.3774200148220548,-0.578790878217244,-0.9487858628727766,0.3262009342874146,-0.3367421641911268,-0.3796477576107895,-0.08973177990030412,-0.9751243956665996,-0.19157768782217444,-0.9462350727306944,0.7867925359562753,0.7083806752313306,-0.6807906920473386,0.8164587165933733,0.3790531558930774,-0.65267780899178,-0.2815159030053535,-0.9027579953148896,-0.5371853993813178,-0.03605564116229291,0.030704484652986353,0.5597088776543329,0.481415829722452,0.7634804750079054,-0.3136352795427153,0.2877143861465412,-0.7485599149057662,0.8555343908709381,-0.5749505040563556,-0.44353183713174826,-0.29805748258861375,-0.31549753283176263,0.8752181555965513,-0.6000017967827185,0.0599027683448774,-0.39538279838370705,0.20346379041563928,-0.19977804132727145,-0.2820601219294843,0.05096268437367775,0.7914282603447368,0.3905928092669138,-0.6879105053459097,0.909323578169408,0.4042040491862843,-0.1834104524682187,-0.6784872296595378,0.16214136039534416,-0.47372356213250905,0.5316920645722499,-0.832154603345763,-0.19165125354352952,-0.444983469784912,-0.3586492590724053,0.9179814126257928,0.10205768126334602,0.3195953639779827,0.8285817947419054,0.13393833851945458,-0.3322620512456864,0.7472183159894416,-0.5148293142409661,0.9965723163155752,0.8642718781909522,0.702264794233841,-0.501517521592671,-0.0968870572416989,-0.9535061141706332,-0.7633797492807547,0.8501112446391739,-0.7300048093597109,-0.7810971502497207,-0.6751030057036493,0.0792826836207229,-0.49005377672181794,-0.7210264438702637,-0.22685891760152643,0.29255052961196204,0.6884505233902865,0.4837746620590193,-0.794536166805841,0.20325039955464488,-0.1651846337944598,-0.12058902769980252,-0.5644535224499567,-0.10622768698892382,-0.14110768700792464,-0.10269676857815732,0.8950227030577617,-0.07959023305910803,-0.5628798714432971,-0.9212048871732462,-0.5291685785895822,0.2179056198696475,0.7211296140519443,-0.5304682664807748,-0.3789630742815766,-0.03511609983209583,-0.038592234510223755,0.47950869030900223,0.19602415715280744,-0.5525635263226516,0.15587616869499507,0.9160737990732504,0.7162678473508834,0.18409461174257552,-0.002402074705315975,0.3063084065559504,-0.7264598755863168,0.6990563466090084,-0.4148148488835466,-0.6277508754358463,-0.4333057712279349,-0.39227462712759453,-0.6735619928331373,0.2023659869445691,-0.05603643818352843,-0.2400492496911483,0.3715427014952627,-0.7404170590116436,-0.6954174986461503,0.26853492742221496,0.5296917181260907,-0.8132637015228542,0.16584093780931797,1.1963655961750983,-0.2729251321703616,-0.3437615617941833,-0.41587053274767694,0.41709851056184016,0.4341188179863411,0.2573994314191031,0.9822998280643672,0.2723971025006775,0.6571119399170832,0.9551382888632208,0.22738642638037324,-0.3212784944808591,0.9962296659895722,0.7979885289508368,-0.07629781815194003,-0.8818423099834742,0.8746355779348827,0.9675563541715864,-0.07643867434538128,-0.32208311849834287,0.4297089892455139,-0.8026028799403548,-0.3427725195407927,0.13800936125405372,-0.430067708199498,-0.21509690081490992,-0.24440719220621182,0.9123710695627618,0.7702562303450701,0.6098035315296384,0.46073478493976144,1.0614816918045507,0.9870506541546752,0.7651951902447448,0.4969464625856927,0.10962212622800818,0.42704595500860926,0.13436298183633869,-0.9793478263478088,0.4776814314206108,0.5812095299954947,0.37932880936132873,0.430353566564476,0.5577212381920438,-0.14878609057002534,0.45573480486658113,0.4102134983256624,-0.02944611865694277,0.3881722338150635,0.5056170005001754,0.7750683430692846,0.5621609124988656,-0.6894403900257795,0.9739463447955311,0.7651385245166654,-0.3040112026856128,-0.0935682132609722,0.16911830546976,0.882458050125762,-0.16409208942867556,0.6002554533046945,0.867164475575215,0.4167273712453273,-0.8939643399481284,0.15085889579098485,0.8599236431327726,-0.4531580959337865,0.5725869545106196,-0.3179743838306508,-0.4617508821506575,0.469374220742472,-0.004920460711792879,-0.21123603703394347,-0.2113351887053869,0.044258618780551304,0.7338284404428191,0.8037113964026914,-0.12362640501270206,-0.07981225537301438,-0.30861890666144437,-0.5346342771944109,1.0532199286852246,0.30687098613024777,-0.58749048119421,0.12847099210623789,-0.5367641421718332,-0.394755774391616,0.005213635451093891,0.3708584611390026,-0.3609308265271942,0.3047271338640114,0.27635003696069654,-0.22764262650716544,-0.5827017301864178,0.6817897787208401,-0.4003960169007909,-0.546073263843481,0.06091170302834547,0.7225365204400949,-0.4957355912221893,-0.4092952168089295,0.3107798446433198,-0.5439879772007602,-0.8628852953087714,0.7699779775112212,0.24753774021563835,-0.5326188038211435,0.03614870689858209,-0.7330046047741194,0.0916226218308587,0.46216594061617094,-0.24127337394098694,0.3082741831174165,0.7558583795463412,0.8276173609056422,-0.2292847466691741,-0.44074645346937247,0.07165930879047429,-0.4437791170099048,-0.12919609737209892,-0.036093940322829386,-0.15866555278122177,0.042561472540063414,-0.6269562476673031,-0.8565973568817833,0.7602003929795651,0.8652326731406782,-0.4364311925291985,0.956215391565073,-0.7496277355741708,-0.4872589146878734,0.210157384064607,-0.21644086868546752,-0.0580032461554444,0.1313860287035427,0.8377197332785379,-0.38273707140329966,0.6509227095151571,-0.2659721387534172,0.30767386521503687,-0.5703425870226864,0.6851320398068449,0.08172662023443071,0.7836981445940605,0.2279026132283138,0.3019923797694841,0.826864463108036,0.14935859512483513,0.7686340470284774,-0.09617828461099348,0.7957671156998782,0.03882494627094915,-0.4483853729742679,-0.8036598931172474,-0.538516384592159,0.37595011141825974,-0.6061518708023971,-0.94064982969101,-0.5486162623846509,-0.8549230518768162,-0.7797065407910239,0.8837066361217312,-0.8480714241433849,0.7167824662240041,-0.5322972638806017,0.6117205138563436,0.6313820603638777,-0.18913251051960694,0.9952044075104456,0.732155447365865,-0.3768767681875634,-0.41681975084909173,0.26034136783188877,-0.5316801721925352,0.06289527102723269,0.42435428437601713,0.1064611324251085,0.3146249051566835,0.33199258614135085,0.457384790408371,-0.9396584598853426,-0.7421404635860256,-0.016930844266503264,-0.3730114241043314,0.17933375872529927,0.39893031749239743,-0.5001319625466112,-0.8223822646083635,0.23564004341170897,-0.456041871167835,-0.9361428809238387,0.8339299182855678,0.48361069499738807,-0.08663787894990392,-0.20172033525033034,-0.3583442312812194,-0.18758104776058807,-0.21113549700632378,0.49255370395729053,-0.7192571614244394,0.7312210794004589,0.16672519941448197,-0.1109100192275722,1.0102629730103396,-0.2533891714325623,-0.12521419083571858,0.4825064644437873,0.1563966719361818,-0.12111389015585285,-0.20943786445416612,-0.10455820924486849,-0.9534747607344602,0.02241052334178195,0.6629189729556639,-0.8694487619439726,-0.38034237737088966,0.6357780774585979,-0.8398535345335008,-0.2682099916851254,0.11744346782602143,1.050591203000685,-0.567758249264634,-0.9009537037662664,0.5677264243893324,0.20631601805801467,-0.388670506056855,-0.04540949148616221,-0.0799570662234776,0.5083049860615556,-0.8477653557985271,-0.06445042408846069,0.6770211963830388,-0.6833235572608772,0.5163113292998333,-0.671062450413993,0.5274106386636108,0.26070277425500143,0.5438512402268725,-0.4737425098616508,0.769552319846067,0.6734424387849325,0.4185330318070626,-0.4054494402171211,0.45969032760744577,0.512308980252452,-0.15955124608276933,0.5542287172750209,-0.13200425166811292,0.10937383422482311,-0.4073582582532737,0.2813681390697174,0.560203643570825,-0.2700516373712315,-0.6168182121121575,-0.07466388712877156,0.1290733118022153,0.7320654303644241,0.5708619258054406,0.7301943692512107,0.7904379783481353,-0.2047694209707828,-0.5699886616314516,-0.7729530210129735,0.3939645524465629,-0.2681394478977768,-0.25591820993962777,0.41937041727212865,0.3806024904409469,-0.42680010590047646,-0.09537039566928406,0.24909593308105368,-0.1510343078432924,0.8566513571350655,0.43442929008790504,0.6352431216468831,-0.22644597622107376,0.21052174874996332,0.21810210482207928,0.8215987220561127,0.5749217028826258,0.31768398590799557,-0.6239348796400415,0.8651359553338945,-0.059498201154580654,0.32723801268563074,-0.8421024551868086,0.480078234653026,-0.09896094428922728,0.4198061572923603,1.0606397901225093,-0.16736076662633984,-0.5336051104140256,0.4796938172386851,-0.7083860737945458,0.40967720987316025,0.2030351598107989,0.2278344700223227,-0.26759803644577806,0.9730704341889338,0.16219686966812924,-0.05479255787587332,0.9326831272005344,0.0159588084040873,0.8953706793205337,0.8101081514131705,-0.4706639973194664,1.0564753423686628,-0.428126812699018,0.9647263984638074,0.35083914828543383,1.0076411588330745,0.5617913472725584,0.2512650660318881,0.5225837022748031,0.5310097776169981,-0.49021190361365585,0.051875317200137584,0.03459311380237292,0.389261289661572,0.10965317041132484,0.31066689434767847,0.94174069035271,-0.12674477242536675,0.04510135886986699,-0.257575393977048,-0.4522273682381501,0.4452550735409293,0.961283096966044,0.2390255907939983,-0.20699027553480348,0.7095368797430878,1.1588326204292656,0.9604808597039856,-0.5837910763672132,0.2784107978704716,0.24525205828491867,0.5436137578407035,0.036937678887155684,0.04214787492966399,-0.1969319580959736,0.5198882621417492,-0.37714968755591416,0.3657374107130303,-0.8089030595884223,0.1412923838413896,0.6556244142901266,-0.5190993241547961,0.1758079774646213,-0.08750545433563373,-0.3031501955800975,-0.2731007782445922,0.29676723268611416,0.475862649265094,-0.6789082036554257,-0.5592614388901632,-0.3824982568690552,0.18604957503610836,-0.4786322619909978,1.1734745676978653,0.5138011729794647,-0.5642086149248631,1.0213018226662938,1.189954322324723,0.48830686851611715,-0.3578811067591418,-0.6419974326743771,-0.6503062810913357,-0.6255709476709107,-0.16413501449761467,0.26605262092790216,0.26323485010455694,0.15981680952905167,-0.6214689048215397,0.28920534273280357,-0.48344140662535334,0.20308840493022196,0.9981075331346208,-0.393740625804023,-0.5693800344539008,0.6489878622467329,-0.45372162123538473,0.7864512649868416,0.5190758141221273,0.22582243229686727,0.7117911722051622,0.5845451795173986,-0.09731396207456527,-0.09420800471462268,0.691253692436939,0.19728402722117833,0.37136839899893687,-0.47791364790421476,0.5976634264298804,-0.26998569386720456,0.3326616434406858,0.57836074471643,0.6574766279970322,-0.5910596683074526,-0.18074850649316057,0.2690358970727528,0.3577494732418554,0.935396358287148,0.00326657832103594,0.3706107792848432,0.6301147405716803,0.26181721584553364,-0.1924189789311321,0.9332073543542174,0.5816686174391454,0.2685180573373336,-0.32243158630405444,-0.2289935474918647,0.23467527586391365,-0.26051979160111643,-0.7211515150009093,-0.31712103460607294,-0.6146959302096541,0.5725843047685606,0.6102202696516569,0.3438903262001481,-0.9007994774361034,0.4732234999191678,0.5804937461097617,-0.09957654768825462,-0.5037565339935292,-0.42458159532672046,-0.4875525066592287,0.9502525682324636,0.7457745286510342,-0.267195134245265,0.6077152029931925,0.0959549510200921,-0.15631490730311226,0.14250099022620577,0.3641594194833558,-0.6137159459865997,0.27640196188975613,0.5416818851190337,0.6791869674514232,-0.5102753675314118,-0.5304556052128305,-0.15759950310398302,0.9149495520088788,-0.45190822386272744,-0.7764813784550797,-0.03658475463024158,0.6425001171896987,0.3524203245017686,-0.07026858611002865,0.47779975454594603,0.953603559473551,-0.08577412289751915,-0.1405815908916563,0.0864031247910255,-0.31262725652913215,0.8267594004355693,-0.659235335527429,0.9380991247982128,-0.5555611299814605,0.3131344968733798,0.5042495842413672,-0.121377158064347,-0.9213020598169211,0.2716868863947186,0.5193344152378552,-0.6955793217459254,0.5579043516732959,0.57862645875794,0.7844014614713883,0.7123532729927522,-0.6411544293925856,-0.5898059259220446,0.347987257620776,0.18443772068491146,-0.2241750270774856,-0.3906547222248037,0.5435415136631156,-0.871574904211766,0.6441074270694397,0.4266133295711323,0.9835336374454706,-0.8108181996671486,-0.2602576252576747,-0.48881813533773855,0.27006532086040097,-0.017546816147629807,-0.7414586364546538,-0.24092666887899528,0.2418150406903503,0.6713949157372148,-0.4537220051044031,-0.7579766766688685,0.988658003570812,-0.428625540407041,-0.8481271624983374,0.7824465451130634,-0.9714494337357188,0.6694818915110388,0.02340478220138136,-0.4614216480152315,-0.28012830095626445,0.5290659767712436,-0.24738842217178827,0.4356138838146553,-0.33232498829827917,0.46436813226794627,0.7066813286738804,-0.9365068303453814,0.07982052427749242,0.5460001235990826,0.06803930914236256,0.805958683645694,0.654250998496611,0.7368323824691798,-0.977554686813922,-0.6342560020153929,-0.1930799113483359,-0.6454580626088897,0.9001864782658329,-0.7847140423348775,-0.6194356466284123,0.2900350073931319,-0.9256553132207026,0.47634096825494776,-0.6493025085835077,-0.23467692016660363,0.184526519149476,0.06692032899146733,-0.29632898601412666,0.968398684102179,-0.9394328310834668,0.37596282579277146,-0.7377775073343613,0.060262578645822094,0.5746575412297222,0.02746313600771123,0.26987346559004716,-0.07412380102539644,0.24288500984754124,0.05791406435236168,-0.4752744147379586,-0.787835943447365,-0.9438152636493852,-0.3593598060299006,0.9015077236046404,-0.0998950314794156,-0.7501836911227524,0.6376928089182989,0.7399491075030975,-0.25543824755695477,0.9213075065740706,0.7450113538128147,0.8420874756723826,0.8041685501606748,-0.7803907782139402,0.8146708675413142,-0.45976657809216326,0.018410341000937417,0.3279010758408455,-0.11473719111850796,0.17797782595566317,-0.07712351583491182,0.02149765678163816,-0.6319419495662999,-0.10043330407535649,0.05960556152011811,-0.5392256794125136,0.0462778067314229,-0.8173490507229464,-0.524793449458649,-0.99087849021187,0.7159480582672075,0.19204537772684296,-0.9323328080939904,0.6654320720365694,0.025908094005709037,-0.013585727060501762,0.012596893960316269,0.16811041516391367,0.21176467358071083,-0.28731327551971586,0.3994308504373047,0.6952694298593634,0.34808364278350123,-0.3156099488758721,0.391664105928506,0.6727737135216139,0.17984472559211803,0.48289985085718173,-0.02150527495431653,0.7075194595751051,0.7197386031549611,-0.06084079119076736,0.35433921315782124,0.6449027384069381,0.27648301881490056,-0.6802967246797305,-0.11423735272914048,0.35056344488926383,0.1996468419827755,0.24281436581406424,0.85841834566766],[0.7023371912093601,0.4469075415124977,0.47182265490976816,-0.05740917563696901,0.6125232256215833,0.5137758602217783,0.28549338545114655,-0.4570559382787316,-0.5654870664056553,0.7538997597832557,0.9537730404235294,-0.16136859878368415,-0.29962827961378546,-0.15429662319650397,-0.8390565306061359,-0.05690856464905436,-0.005484995814629023,-0.09647840233390292,-0.8630313076570921,0.6284981234938656,0.48629662643151894,-0.49112358150428537,0.976525658790431,0.6324063516336298,-0.550874394201178,0.7203498681496541,-0.9301338091856416,0.3225810373540601,-0.36689515851862287,0.5481963898115925,0.35104211175445,-0.3736197424646166,0.4031314033476663,-0.5445575337814554,0.13705023287211504,-0.25990799786411634,-0.28773935714609905,0.25688898663642423,0.5769252596009105,0.004113889594995003,-0.2828923502913075,-0.07764506966276313,-0.7859120684372125,0.988443367876501,-0.1002746501925688,-0.854778423967576,-0.3321202308462037,0.5657006616812014,0.011647217583697423,-0.7339045922293385,-0.41862302332079926,0.8835728538192609,-0.7092529299099131,-0.022059497389582905,0.6354148478896147,-0.4836521197339001,-0.34842456167535185,-0.4786943676498001,0.9802192714643228,-0.8939534858570399,-0.34888001924827816,0.016622059216129248,0.2594623051920195,-0.7073871130485181,0.1800232155727705,0.3449715053155468,-0.042671862364296924,-0.2933710288555158,-0.3656950404069654,-0.6859579446616637,0.2138395286652031,0.4583310287031672,0.624924310233242,-0.40355527859217655,-0.9659051088711973,-0.465273814652846,0.9833632596610304,0.2158645722564092,0.03366052424752533,-0.9750017952441892,0.4746870112624682,-0.674726154766806,-0.40589710423209446,0.5445311722943766,-0.9034270154346962,-0.657905775245883,-0.9216370314191384,-0.4411910424790999,-0.5212446061531855,0.5387048334296316,-0.27481528534569305,-0.021440668463854527,0.5733169883969182,-0.9240768070824866,0.7820536311812262,0.34295448004797874,0.6270385277965499,0.13135348819181203,-0.5899877555190978,-0.9968158033178672,0.8082254204837862,-0.7440836834099321,0.7931729880548554,-0.6207521936229017,-0.9857232596345262,0.6837570327694523,0.5037572881933954,0.9269712596981582,0.6648376833904471,0.5479194853443564,-0.34415801668301627,-0.8446343038200639,-0.350209378854212,-0.5099557624153794,0.3019487693291776,0.2190873673668516,-0.09776297471149402,0.28360542564039665,0.32314066869171576,0.5322975750119652,0.7103210224083688,0.12775606497157338,0.4326775107960575,-0.3435050461443355,-0.3400844588640719,0.26389116832847437,-0.13834340726252403,0.7162311750295386,0.4594613482237722,-0.9179995022718789,-0.6982391142001231,0.8398078144688481,-0.16612664836030472,-0.9123202103578825,0.9151986165755774,0.09063130610333,0.2754395787510197,0.14416282393098376,0.2817989521287015,0.5040204280647693,-0.17551226912703077,-0.8034849888728577,0.48542502275896143,-0.20127332093638234,0.2617031376877247,0.06754477399510721,-0.26609563022249016,-0.4086237068814517,-0.4064406731096372,0.2553210625735513,0.5533825643489003,-0.9029693669939175,-0.2996636155163964,-0.6644785026874983,-1.2280701990317542,-0.28112421951001976,0.12570167444151956,-0.7422350068070486,0.5121013251388465,0.8964154575815098,0.002065625901966532,-0.9960937912018726,-0.07974846521729381,0.3783691892590909,-0.458682104475309,-0.06727771826579645,0.12366507870223896,-0.00822135413939229,0.6942591504510611,-0.3834389133197946,0.3378879820145446,0.8289691327622154,-0.6378472095548038,0.8637276253291414,0.5547355152131486,-0.4736050963046712,0.025500229773579727,0.6494918715148085,-0.6295089829713388,-1.1514996005632387,-0.8952603072292364,-0.4639183206452122,-0.9875222554028751,-1.1157148308334728,0.5404618004612944,0.32758319522600343,0.06569413814266929,0.7806979789459864,0.2313132611099275,-0.23328790333841593,0.4562225349661392,0.18289355584124448,0.24495202526252893,-0.5689505636840905,0.6302523424485279,0.8408582375352895,-0.6068087069421413,-0.22644968741116395,0.9028888451019328,0.31412931093758967,0.9491797391833254,-0.7280309119639895,-0.47043226099282354,-0.976753452339551,-0.9077017358719226,-0.4902759154868836,0.17451464235353747,-0.5547291880393918,0.21076471059895777,0.16753181609895518,0.5480929699351532,-0.10472254229851963,-0.5524538140537686,0.16659709917700335,0.5283618255261707,0.7666741193607097,0.4121924243548395,0.222129205732023,0.5192367229267093,0.7528307700783055,0.641113197885584,0.34581638778248647,1.0313390788063155,-0.8638790091543548,0.6792818157430756,0.4339351573990734,0.13220039480912166,0.3549104609856348,-0.23316216371585283,-0.7756110260420689,0.29116232996459346,-0.8924678300084816,-0.9405595702477539,-0.8344610576806982,0.9844100766490288,0.21517339159818524,-0.24475028811157062,-0.07019011667164908,-0.07567546919471094,0.14013976597354483,-0.33037049686935344,-0.5049904233725055,-0.7776174832978273,-0.8960662603415598,-0.7558160703157812,0.5057830195233969,0.6027542408376108,-0.7042034925439455,-0.6565462252630924,-0.3698461798411257,-0.6897692091454654,-0.2779843101019963,-0.8440731141516202,-0.1615212983558535,0.01330683414294415,-0.41157094701852304,-0.7119506834164449,0.6219865302911955,-0.48080392419659096,-0.4696014629864087,-0.3286114713255858,0.8005051856029392,0.4426939179764088,0.8236506288501546,-0.86544739744031,0.11518722302726377,-0.09670593911753021,0.1656594781895117,-0.8102679184906562,0.5562065172155707,0.5459906002422998,-1.1244704195960964,-0.1290905576388773,-0.8129154996829543,-0.13160597890727926,-0.6041814301478347,-0.92213592052738,-0.4749823904282644,0.18917094449673422,-0.6713257552639372,-0.2393215223969225,-0.65434021147504,-0.5630379032775853,-0.4309741215812272,-0.7194537997384628,-0.429188649369963,0.6221163833233352,-0.7035154115800942,0.3303034640396743,0.16189476871228248,1.1651305405968913,1.2074525990868978,1.0913797572825956,0.05678738947159557,0.5594603433696602,-1.3252707635878154,-1.1086296892915504,-1.0190344021257693,-1.119564019697298,-1.0407247149072356,-1.0834679343328097,-0.09080730085177759,-0.966568142325115,0.0410470045737398,-0.7066718210278297,0.059643321361801734,0.6001756060822335,0.2695812394030282,0.5444579893051902,0.8966768840381057,0.2942586953602347,0.48823786504959793,-0.3916917462434849,0.25426648740068286,-0.9526178003449345,-0.3864206844013728,0.8273061579222754,0.7828901015971477,0.043824523996470535,0.5820218913973078,0.8413652765839176,0.6671586406754644,-0.629522983921892,-0.40228667008929186,0.34594940449264105,0.2951998432280497,0.47867364972609566,0.20991642583222678,-0.49327901991346823,0.46250991719741563,0.39121596669354214,-0.9070335686494834,0.36877768451288057,-0.4488048979043973,0.38151068932915416,-0.2285366499846727,0.1623085334974186,-0.8142419463112864,0.6172479529077719,-0.5825688877260984,-0.11168712914127205,-0.1798340721279055,-0.1261726101145772,-0.8548227507352238,1.1191997926027895,0.5821129692261479,-0.5485378805931582,1.3764621754472337,0.1457442507533984,-0.7295219441446686,-0.9101814259697178,0.4420054244686517,0.08188467812836073,0.6116088297697554,0.27522289024798163,-0.8413772839044272,0.37394742329924574,0.6623649691163087,-0.4052148821320678,-0.8606290018708015,0.6375517806414808,-0.9247504414889347,-0.7161886105344646,0.917797695442496,-0.30975038225846907,0.180452686461099,-0.4875185612075113,0.3176872201764857,0.6280501668595548,0.5030228067702945,-0.26656924525193587,-0.750920675086383,1.151034285661626,0.7830219502947138,-0.15022154259826245,0.45125119225461124,0.6983806365472712,-1.0069766286084612,-0.7178993319572702,-0.9573813790560448,-0.7638165484193014,-0.2277584412859458,-0.3993791953533192,0.7079841424517266,-0.6071330991633153,-0.36915622981285534,-0.030196101993178376,0.19335054103941737,-0.5455288996174767,0.13522285091607825,0.8571562280680111,0.6915689610577818,0.7871972496199362,-0.11291734323854752,0.45490856786753386,0.7602957663925255,-1.0262899107556298,0.7221114316322959,0.8315978969917733,-0.49555751441236723,1.061209641684642,0.893232200953406,0.24220978976683138,-0.1158371387516028,-0.14506010181268497,-0.946838375968822,0.3693302643850638,0.3212915539981158,-0.26590806225083036,-0.6719543840723244,-0.5135979699440949,0.6753886440418251,0.20721839152481555,0.504072382966494,-0.6335638307180148,-0.016741001220287644,0.5314052240886893,0.323593985558624,-0.5829623295957342,0.40265688419074586,0.08330807274611529,-0.6049119043295446,0.5102427695877256,0.9012840157839026,0.2634948949698031,-0.4389760443739987,0.7864575645032856,-0.012860878881308171,0.027628639849913168,0.7889554245104012,-0.43811033054337484,1.1652797492927687,0.4897729614043463,0.5855726662885686,-0.9856025923865376,0.4630330951598648,-0.5263132440260233,0.2900569034457924,0.4844010405029928,0.8032802416311565,0.30190837749986277,0.29362794769315365,0.5484226254752765,0.726110819593349,0.07194936131568684,0.08891017768496029,0.37570992144599186,0.6865900025926244,0.7495423443909297,0.17491877829792163,0.520056397224726,0.30303750554906755,0.46476757894510246,0.3129824259993161,-0.5832085923911542,-0.5684537034290114,-0.3525379673463787,-0.20521139231363555,0.35989277613228826,-0.19841283828445205,0.4742919618558137,-1.0332952694828084,-0.11059500767193109,-1.0749005422392175,0.15469299107042092,0.19841888594660415,0.7902178092144226,0.1488253459622983,-0.06603671132596402,0.38551520358023433,-0.8509429778986605,-0.7299701507265035,0.22827741420904565,-0.9238805798603855,-0.41515271975729817,-0.3317345781946526,0.9193412690589462,0.5416975866436673,0.49871632428675416,-0.09170420290957945,-0.3940231657276617,-0.6705095328298014,-0.8900412102222726,0.662496857991018,0.4448127513342541,0.7075242807260249,0.06383699999564214,0.6460976594613068,0.893672847247243,0.07201474669032437,-0.9217116370775481,-0.2511870677852241,-0.5878780972372675,0.99729919033413,-0.6019458250153341,-0.34816037381900916,0.24194482785843358,-0.7821504039362819,0.041810956850719484,0.11996935172324436,0.4094407778200807,0.9277422447192948,0.9542118610603049,0.8649016733364749,-0.2382772300790508,-0.27241217871971113,0.5517672703027526,0.9116093386701447,-0.2219888013805185,-0.3746932116426402,-0.8879296333504013,0.24798663632834156,0.26672755731674275,-0.7299810725938484,-0.03507503259652631,0.08006557485393616,-0.8783336474271866,-0.6876548409765599,0.2942274311542303,0.5143958619626495,-0.07249091701090418,0.5614802927850084,-0.887383001369493,-0.42408372246739456,-1.1895636126663676,0.5686601425503037,-0.38187484556727075,-0.9504693690671735,-0.3404816709003335,-0.7039452671352043,0.47786727662283374,-0.12540888367496716,0.13948151036306689,0.8044248908476781,0.28834236704124033,-0.731958418028625,0.18479426497372542,0.7578028238304441,-0.8779005814414835,-0.656042789495139,-0.20669436640244204,0.034682344222299315,0.7729502298102613,-0.5439739873136459,0.5624960947931907,0.10795562735590396,0.39024454631948896,-0.08099842459046407,0.465758354433984,-0.44951263027336036,-0.20395387545910518,0.6437247071248152,-0.5129926785754471,-0.2331742441031082,-0.5846827657037382,-0.8139663447283801,0.3203895005612931,0.2150677748904715,0.78649099881227,-0.28688580527259044,-0.07245536822165177,-0.9315799936536804,-0.04640394254745918,0.5390503980268141,-0.33269007075237034,-0.29270156220369664,-0.5448652609100225,0.397666139983512,-0.8910045332901595,0.8439190102021921,-0.8471071866324247,-0.6465049135931719,0.8029824131845837,-0.1076938536392681,0.010445563468114679,-0.38519008932250354,-0.5828045422834534,-0.587300484741744,-0.914105138780939,-0.36203420145782444,-0.7314670252912816,-0.43608868151974345,0.30513349402388756,-0.48824145967583854,0.4826674937324494,0.08019092575122419,-0.5267938455382075,0.7769846533553357,-0.25651882743595333,0.14794214526716676,0.5122260406404867,-0.896991323145108,-0.5852738429198112,0.5067313095721023,-0.6726569939654906,-0.6671741507075034,0.18032657147625708,0.40177334386608315,-0.41442711188358805,-0.6595224404556974,0.011045813363492302,-0.5499552153662768,0.31819310016707925,0.9475900825958613,-0.9577268717467302,-0.6901218207842446,0.7556561759988373,0.38047348000201825,-1.182640675497402,0.8814354296181024,0.497462202945015,0.8331833508124344,-0.5168339917575372,-0.8912235296999382,0.9845365292213638,-0.34450443720887036,-0.9926463977084512,-0.2539598249186257,-0.6369802951668974,-0.14131721144185677,-0.0654234006732492,-0.29950327021289813,-0.5719721289035098,-0.8305893657031778,0.24990495403444526,0.24784186424782254,-0.14805913643909582,0.12835985618809614,0.6868192730027044,-0.2105210531897864,-0.2864977724181498,-0.0776699119005143,-0.028120847027528248,-0.4010370871803401,-0.4186006301199558,-0.7955272586493121,0.5275289610085343,-0.27391797125148754,-0.2171220936600858,-0.5620821642610311,0.7394213898561266,-0.4238572268742552,-0.327816642395404,-0.12414911578234487,-0.1190442698743508,0.7593046672947723,-0.49661911938881864,-0.5463721912151225,0.6121001681520132,0.1916205398872833,0.5785855892680196,-0.03500103907840044,-1.219505763420003,0.47124496970688345,-0.22651783400981337,0.6914665779992302,0.7656281265366901,0.6150360875436829,0.3887620559369091,-0.6384341686118477,-0.32035715184269226,-0.43650806907457773,-0.07871153612012743,0.3401747536872386,-0.7466142685776941,-1.0211368609458438,0.8128672085959645,0.10475960862245547,-0.7601998358525051,0.9451552737626708,-0.6973484559419166,0.8972605018198092,0.035580147574455046,0.2524426732615537,0.12819117930533652,0.13576207038837934,-0.911642691981866,0.10628288125621252,0.8564631062914483,-0.6498287371471981,0.714809799513631,-0.4304380165036912,0.22860684394496364,0.34368562700875016,-0.050265831146301815,-0.4890828905018722,-0.07819870533849792,-0.1710464695754645,-0.7540559312722019,0.07276388376258312,0.7163304914806178,-0.6109421595784529,0.10013553437648061,0.0222195902352217,0.3097161466250696,-0.7078383969681317,0.9826787034223357,-0.8744190663958269,-0.24926045897132432,-0.33075433845524094,-0.7676875340008633,0.026097160494710003,-0.4240909419236647,0.8367781405590062,-0.5462092665014862,-0.8962258498446279,-0.056865841862146355,-0.9412074201857296,0.9703197690826408,-0.8819719207969209,-0.2966890838451697,0.5563417876689057,1.007281976228143,0.8603743669996514,-0.4693704526970783,0.04967931869650029,-0.13121765853534326,0.0056358724798375665,-0.7216580152228025,-0.35730735614056613,-1.0189091087533118,0.10162783528867887,0.6113032099101455,-0.23459504761283528,-0.7061880609086778,-0.7066545391474639,-0.4843049136223927,0.7534347795330119,-0.5191904791723783,-0.05540343305817163,0.8632273279188312,0.14451959177609708,-0.5507747121637002,0.9966851164330803,0.569260447325345,-0.09874231895818984,-0.3307738977220378,-0.46022980536839947,-1.0091889592918666,0.6601019543339137,0.21185115039422397,0.8247109719068534,0.5977508183504836,0.17943775105747692,-0.20185423960984394,0.2767309603050817,0.6592919676481969,0.7380446571430453,0.7221967783214323,-0.003086872532340839,-0.8827490220083564,0.9332027528213872,-0.6943667785621955,-0.9047500369623662,0.5189431352046918,0.9288237386083956,0.2138417055512445,0.6483094497668307,0.2943757469413495,0.4682859384965694,-0.1511606104854637,0.009970682032282832,0.01368489499726645,0.6719202654500761,-0.14949931168698155,-0.9716183485517235,-0.663109914154682,-0.5395741324419949,0.5067955545649184,-0.9019272657494849,-0.3187589391832621,-0.71655913848183,0.6625011766197054,-0.5557112842435188,0.5174087904663314,0.8831369436220624,0.3122516726245557,0.7076884305434452,-0.010425475856586486,0.2853684318039722,-0.3774937353347878,0.34938613825912235,-0.7456488672340158,-0.8893806012101999],[-0.4739413264159771,0.5442774476192758,-0.27750243858794077,0.4866171917789977,-0.48764345135146714,0.8731262430496347,0.8882441091744708,-0.6252782883672283,-0.1015885488397852,-0.21033180188862444,0.20403570261538315,-0.10895777409651064,-0.4206996573481652,0.6383981713682662,-0.508135626787803,0.4031909021288831,-0.996173307652855,-0.4312087870439501,0.13554546520389232,-0.5404571211675162,-0.2645836496812204,0.45664429060418743,0.5002619307758094,0.4867151743684095,-0.9903942966716516,-0.8428761675400702,-0.8941830243904707,0.17802705621202475,0.5747613313039943,-0.432122835562158,0.810034909972938,0.5637804190871727,0.34528591221245497,-0.1287742125511551,-0.6049265207341352,0.8497545074600413,-0.8455795528365647,0.4260934063160252,-0.2161374267646392,0.4513728676967664,0.16936835301925182,0.035499725121490425,-0.6411945817843525,-0.5456356751016634,-0.8800668058874812,-0.4423010518495122,-0.7991849145195455,-0.3158582878741063,0.33976478521135123,-0.05937631612254712,-0.7131458206934735,-0.4119048764878115,0.4711767238595945,0.4931265325685381,-0.9736424550540508,-0.38469146271023447,-0.33916484772504063,0.01712366469652027,-0.25183006397565166,-0.9690671978192312,-0.41746510514532686,0.42948916453692054,0.3442754617824836,-0.24649452369872865,-0.8270679531304579,-0.4480977410839623,-0.9411280898565351,-0.8909511332291349,-0.625002676372092,-0.8194955307881998,0.9246208771613195,0.33572283334469655,0.2196802493428808,0.9033575121404922,-0.04777401875595356,-0.5739040278493829,-0.7363357044345643,-0.2647008015114478,0.9194771296817721,0.6940149307814749,-0.19422838912528337,-0.23452555919929136,-0.7659810876723898,-0.4871581730672987,0.070263801930744,-0.10605481766453197,0.4636809220355751,0.5852288334524698,-0.2975550065060246,-0.6185673816922251,0.5517032648691139,-0.6718780387983112,0.8062526772010986,-0.06547709913766121,0.1051767307718178,-0.8369887512154941,1.0097038025432568,0.8269994432593497,-0.45127741029178836,0.11306269514111894,0.12683721687492663,-0.5833450265965029,-0.8193327710875691,0.10737920321582155,-0.4139407577953331,-0.8803855654059889,0.628065655574422,0.8970333141206165,-0.07203163397538136,0.07430593806935061,0.4852565724211044,-0.2277769714440363,0.8733293417499852,0.3752117779095805,-0.907642451070282,-0.20135059252614468,-0.288026696482362,-0.38565322251678585,0.11089142158062867,-0.012702435993413983,0.6538563665944244,0.7868578484027523,0.0679607383791269,0.6082444347572766,-0.5120682022140202,0.6552398144760055,-0.786282914853693,0.043008990402613655,-1.2576452897494674,0.7229679672095598,0.3853091656273946,0.5705512755820582,0.693962131446798,-0.74820392030294,0.3542350955980438,-0.6241208288509164,-0.5927420151239238,0.8567439508757866,-0.29896070306203226,0.026262185358194357,-0.21685063421256956,0.8959337138539967,-0.08950895645251082,0.42014200374098404,0.0036844943277349897,-0.5961759777330324,-0.37491610775556095,-0.8896695179421505,0.04252500163591478,-0.5119106875066126,0.8150409306596862,0.7504411819360082,0.4887767497158701,-0.1959320853033051,-0.3524889433576179,-0.6638457093934566,-0.19031036575030114,-0.28493384944365857,-0.3086990027093308,-0.501564126826297,0.005590493550075714,0.2606326694518124,0.9749578774659935,-0.4739217006664349,-0.5953648554651021,0.8323382435433352,-0.18958873437997106,-0.6983757112827027,0.6465319599714539,-0.63467003046743,-0.8800734758251201,0.515215657985906,-0.8125985225651772,-0.16976690479736314,0.12294235539364143,0.05175312267543299,-0.5643586551863126,0.655102192061684,0.2863012215503776,-0.4259871389657331,-0.3586094410827769,-0.01985236298186926,1.2046827363884682,0.43519977023124395,0.09956876246903287,0.5737667362524987,1.1884411909758452,1.0237269746571416,1.0596997582418144,-0.15292766709058694,-0.09141078311011308,1.1643484343378159,0.14100613940299156,-0.6780306951097771,-0.5472245331104053,0.14676272229495266,0.05319137716876931,0.4269805121649043,-0.6532604370893378,-0.48136388255468027,-0.6233448371014778,-0.2651845932889581,0.10748268865802735,0.7678802001645271,0.5588883381843709,0.2834412935302481,0.6420355432874382,0.9033851992853359,-0.025538695934004527,0.10481796461236763,-0.21247017413819402,-0.030259519838318566,0.6917151485866135,-0.41262506561422096,1.2084684813265298,0.631085847735023,-0.26568242520197166,0.5236716282627141,-0.6274839590647324,0.7897357215254623,-0.3158815721142038,-0.1857218284925323,-0.6379154217424874,-0.4429112735810272,0.5017265078293642,-0.04954767091021364,-0.867143136790866,-0.21820161548525283,-0.5984424467705229,-0.40205768556847105,0.640056465404888,0.49075847094139813,-0.5672448924633815,0.5382743167893059,0.5873357696509149,0.5627999963339718,-0.9395418677991569,-0.7737400787137795,0.6879669411974498,-0.32618772182056044,0.2897433287490445,-0.346538300061329,0.9112062889794453,1.0640591602640042,0.3815771385209752,0.40391290901472415,-0.1375390648664441,0.20538626589204972,-0.5131388813370419,0.7617917036095221,0.7026285508032695,-0.810012288125894,-0.3318117414448267,0.12305445348411892,-0.4726921524101315,-0.37774000143028136,0.12262631077267509,0.014910293553975142,0.6005480298607802,-0.6499062828494913,0.3754522701486322,-0.30369571728379585,-0.4332512796170026,0.4859163600543007,-0.7376249282853485,-0.09203163963333591,-0.8721364964657667,-0.12356359731446126,0.78613062737358,-0.07714492699011902,0.1153295931695826,-0.35825005257780085,-0.4869055729447469,0.38045350361792285,0.0631401387207167,-0.09829763490436348,-0.46139683286459526,0.651457164103786,0.5903509382507168,0.2545227797322658,0.35918385136344666,-0.20093651285822592,-0.9759284259892992,-0.05382430770591457,0.36987820354487144,-0.22664774084922323,-0.6079615043648645,-0.2661704767987306,-0.6207701993543984,-0.5667607250063331,0.6390285793232598,0.29947269561461115,-0.23246468607440443,0.2669178062014787,-0.7803716409713949,-0.8638292529463704,-0.006072058623168009,-0.4513500765739019,-0.9950688578283373,0.06616530902591962,0.10742145418027599,0.46232760439755793,-0.07609758492124567,0.7099583495358979,0.2860640535941029,0.8360772549284087,-0.8224901308173396,0.6370561867574998,-0.2291750303126636,0.32878037764450413,0.08854229880987338,0.9339838300683229,-0.6186200470048058,-0.21496921152054155,0.8532828881916472,0.22210834446744024,0.058001916208955916,0.38191931631045034,0.05707469594811752,-1.0335267197086586,0.8569737269057794,0.15651485358419792,-0.15861057701074643,1.002435408242038,-0.7241948916789002,0.459393190229003,0.13545923391636763,-0.3373721963405988,-0.4403016157673829,0.7039148712940186,-0.99135872403066,-0.32397389107746233,-0.35128297173520173,0.862077702932616,0.373620845266713,0.9917957552340592,-0.2260530689515365,0.9179381995417514,0.005728139337926539,0.5230686351523066,-0.24385676790698682,0.2662246537008612,0.5634844328874336,-0.16866076358450727,-0.7974850116116172,-0.2988427072064683,0.1787283221654888,0.5638816954121515,1.0449222707920622,0.9519746556496573,-0.06087903774607933,-1.1480390410530363,-0.6576161590475552,-0.6614194048022578,-1.1615308935254043,0.49345484923413446,0.6068443451982471,-0.3963740714552924,0.9190227533882124,0.08727144265815105,-0.5345047849845834,-0.6194387800039407,-0.9415866346586752,0.7749110640716464,0.052596506554170475,-0.6457789332845727,-0.5209342073079514,-0.8603852361046408,0.9318770529941856,0.6628607512462571,0.7532260688658787,0.8389996376945442,-0.41583406209824864,-0.2400988736701128,0.28438613080444475,0.6175638224185506,0.7619719354669231,1.0699865163968159,0.7355264113895725,-1.212647387352236,-0.9333433966574353,-0.44082311461955465,0.43366273168208785,-1.0396618262130037,-0.26340289602877204,-0.5011587446596244,-0.6455412492000515,0.29079094677228495,0.23842994752128793,0.7028735926734346,-0.5007248289290575,-0.03104740203826994,-0.08852937766650437,-0.8627390164828352,0.054162202832326575,-0.6963824894784255,0.105092473033468,0.7315400184602363,0.6051765059257029,0.6879840755578912,-0.2834391443754784,0.6672120927628201,0.43841264604746366,-0.5100632040086861,0.9011628265544924,1.1730052944593046,0.5602375451829777,-0.04179063735492842,-0.4311565633000282,-1.155407108046914,-0.7650301908746496,0.23216605262499174,-0.7643421757439854,0.5992229103697189,0.8826722200589762,-0.45194147931523576,-0.28041059109064415,0.91191512531731,-0.8556369920337311,0.33602621622553563,0.28647455581311343,-0.9930337007439104,-0.0860614294824537,-0.00545210578184275,0.7289308950219081,-0.7844574152480036,0.25216614304538143,1.0571961612209133,-0.4403495483899464,-0.25429125478385867,-0.23368466121789142,-0.07580084095145356,-0.1580341369002779,0.3955559633818971,-0.31469452157133077,0.678764349598078,0.20097921763858898,0.10267129350218307,-0.8832493920411233,-0.2954352764750014,1.0814686436309728,-0.00483255820236803,0.5462776797209393,0.772548545164908,0.17260825346308567,-0.4023864425958779,0.8000998910178699,-0.4719989964596911,0.7490751472706885,0.3480464843649419,-0.9448332448136696,0.879669732736348,0.25871700650621104,-0.8332207577623353,0.21564676078047854,-0.6432500518485988,0.8877136604432194,0.476548106209418,-0.504854057682612,0.10987230943536638,-0.11809575901718321,-0.5466251389503348,-0.3262497893908149,-0.8253117244844836,-0.895310030637141,-1.1515089654650665,0.35013247366514916,-0.4185256896234906,0.1664025539819672,0.06681707193565703,0.6270379957772085,0.8910492877683585,0.17688302191039013,0.50778487335405,0.8538966087584771,0.8504923360357364,-0.423957909675952,0.239261117583148,0.1023387837534502,-0.500750070810443,0.7897137192711814,-0.25072556766080645,0.3249743681273054,-0.20460756709787917,-0.17100167434956906,-1.012942241909561,-1.0625094169318159,-0.3350234430020031,0.25076390063910425,-0.29635992936381694,0.28984200877993654,-1.0860893091210195,-0.005225252877459058,0.6069814816184262,0.8772828557384744,0.5728048056827227,-0.4410165257854465,-0.2031931753761797,0.7293313858467344,-0.738691564794444,0.8160120209222844,0.2242118893560801,0.25132965993730894,0.7733038410767469,0.7524895893206063,0.16588043588238607,0.8040099444009873,0.3643868815484891,0.9832058539608763,0.9375992023294567,0.12300532585261631,0.9991258235511181,-0.23519265201911244,-1.3108266099176662,-0.6133675142546912,0.4954768258890246,-1.0972487492573484,-1.035407593374637,-0.8658581230966,-0.2828866059571536,0.41945660041080346,0.9496931598964514,-0.152353398528943,1.014368094869512,0.7502862829968739,-0.6711370596940646,0.6549420030505442,0.4651792538491889,-1.0186874200569915,0.6889044527636639,0.6445007231418621,-0.4035544461207896,0.6036456586380081,-0.1008547653302342,-0.7194891207275232,-0.8168619326127051,0.6477899187055824,0.22846611389093552,0.13363878887366742,-0.04946649129734873,-0.11528514327354808,-1.160165772918965,0.0654228161525778,0.10829183086487047,0.15936140337823987,-1.3729147206751737,-0.9910763704556385,0.7696478755116748,-0.7943129926675329,0.10517396409127197,-0.4342731293190257,-0.18059009555500088,0.5756085779115229,-0.07995627355406583,0.7597856337016317,-0.0034301337516809654,0.17467001655014697,-0.6620589619183359,-0.8462740562868494,-0.5363912693315885,0.17998196777858988,0.055704203915541976,0.027278760573538063,0.734933829867494,0.26809618281939657,-0.4016392507802956,-0.5630780366704371,0.01341993880925616,0.17372461199469363,0.2984433966594177,0.918185668089958,-0.2098490655861246,0.7556902443060969,-0.4312639689448032,-0.5219676094677471,0.18173086457032853,1.0630464709347205,0.888040946623198,0.8710570939713174,-0.16145367217494033,-0.11948146881527723,0.24777097377916585,-0.36834983269552546,-0.47853557978867445,0.4536542923967829,-0.1615333750164826,0.9911045969426366,-0.24728953357577832,-0.11853658769519936,0.5278907068678497,-0.4751464652315138,0.38796854654581253,0.8010566838876193,0.770170672534685,-0.12013225326021958,-0.13137193253333754,-0.0948733316975118,1.0662955047247151,0.9376908974294095,-0.761239929030779,-0.724197886265282,-0.21686800782522742,0.7901600426723939,-0.6053245294345693,-0.3175321283742263,0.11254192056043026,-0.5487060901528614,0.7175633235816512,0.06854624991130538,-0.6065003632613251,0.4535617560400386,0.6627235438638623,-0.5199220064241822,-0.5418388452386027,-0.713273691167959,-0.3533615195878912,-0.024667405076772782,-0.7454116156316524,0.49165620772018315,0.016433585355304155,0.7600025593948686,-0.649039377102012,-0.2578120121618947,0.9167313935854293,0.6328781796764176,0.4923146771229678,1.329971984575151,0.19220203508832545,0.3734329782565215,0.3467705719995797,0.8655876353047623,-0.19030088423968783,1.0580856735287563,-0.47791147228648456,0.026296670848958707,-0.5799118937020145,-0.09663874552133807,-0.8674805163987128,0.41777685758387917,0.43051207681573905,-0.2970403889304512,-0.6259227944498514,0.12757835032155518,0.6317121888510098,0.3553204030042698,-0.9360997120119504,0.5075225882727716,-0.8691954196734927,-0.5185197175479165,-0.11307785627831146,-0.47762746190899374,0.9711275881478653,-0.2906369968597127,-0.20180079074691457,0.7617850345433617,0.5062754055476426,0.05561663030983925,1.2959798657142372,1.233081173503731,0.29169780484334784,0.21346565398849152,-0.19005211619351522,-0.2115889880891786,-0.3535938478218191,-0.7436406698608853,0.49708132266682364,0.0143051735584911,0.24121897975201947,-0.02350283294648888,0.4575261296661088,0.1617025419390813,0.4935757023808529,-0.23832677543907965,0.4419884923802568,0.37046015527850656,-0.3027680213687836,-0.4563645491336768,0.16065018867942557,-0.6842223483262343,-0.23440240121400846,1.0562618393477425,1.089443170962129,0.9953652797511942,-0.08666016801236398,-0.5401495528991791,-0.01866018311626559,1.0226538343134124,0.5996209923979214,-0.07462056095681341,-0.6103371570621137,-0.23754645583901707,0.12745598414574205,-0.352612206479801,0.456569092449355,-0.6122887010342085,-0.9898274019371406,-0.5835538079235135,0.11761006837817196,-0.63633174614261,0.9661656517232646,-0.4987995972933559,0.38965793155687134,-0.987678785845389,-0.23092210870921423,-0.9290227847545444,-0.7589491108105979,-0.6893698517708283,0.16508868770672452,-0.5471242187789871,0.4929692512493775,-0.39516949126552137,0.3626388732290862,-0.7955008800210555,0.7624887861515722,0.087226182530326,-0.8062032370587783,0.24549868671253733,-0.0998616955401603,0.6242714016512096,0.21115668450734332,0.5935212864196899,0.6030475180436806,0.07206599189725282,0.3123966187524364,-0.6091648048212183,-0.9966657617486144,-0.9652985955726738,-0.1960162899400657,-0.09168617053315796,0.006611219043040961,-0.30778968690607256,0.26022651850239886,0.24964789360302975,0.22261219560480378,0.7068433102668353,0.12587448230355527,0.8033372659288273,0.3315862350595702,-0.07059047462661346,0.519723378214351,0.961036070807942,-0.36868896730657874,0.07766160319833097,0.35939653369218477,0.4009326668653955,0.1861044490537702,0.8223011686571124,0.3910776475875252,-0.6308353692948668,-0.35985085523162724,0.11654548553850362,0.13562537967084737,-0.5921615019562791,0.07716687677727241,-0.7805551608915544,0.5972947755871991,0.5789157083671819,-0.7758202225164887,-0.5793342428578208,0.4489562271538161,0.8900904662736662,-0.07685117710108336,-0.8360443837259139,0.7093151952985256,0.22089372321370937,-1.0077369556691143,0.4010425799293482,0.6878829225870863,0.9432017820078409,-0.3810490520591256,0.4817505334352647,0.09882448377682823,-0.5765540369431976,-0.6660445163262306,0.24873706586200398,-0.9857814517991739,-0.03957929830045326,-0.004038501967219211,-0.9054542745640983,-0.3226211042837317,0.2113335002260099,0.2003964150586535,-0.3164685106945855,-0.024850920093268947],[-0.38661606100786194,-0.9793364644948632,-0.7361040275144579,-0.8863447996847609,0.6064615016936188,-0.27503936105477256,-0.5282642353967448,0.17637962024998854,0.48677500670610785,-0.22011776251675808,0.894599099862343,0.20449078756916592,-0.0130733853151781,-0.4651628972330683,0.2572839803457627,0.041037148692822045,-0.1857718862864215,-0.5004393785275811,-0.521627829528053,0.8434881069684239,0.6503429776411862,-0.07250332362305834,0.3444283900098597,0.7999154855648782,0.14892994233559145,-0.1469002566803399,-0.8290079577124283,0.7311665531372942,-0.26919530764449484,0.683327472665032,0.10718109828805988,0.7703822759468661,0.8104202478317335,-0.6809079945596856,0.925473859570238,-0.931864413073245,0.37740588178523743,0.5089525230026661,-0.6159780910260795,-0.9333052920247352,0.7651755254283015,0.5911489807893386,-0.33128023308439386,-0.32918644906287303,0.08016908517811325,-0.4810259565421156,0.14306138258615222,0.49502246437421416,0.1491378696536751,0.25251927449151035,0.8685972014855885,-0.7436420074408405,0.5571277781975723,-0.8562597754184718,-0.3801873574759924,0.5052330472448829,-0.21881150274956251,-0.44390496673503055,0.6716690666358576,0.9663610656387018,-0.09907454247603788,0.44562703449516994,0.22538115099540124,0.9522285520085612,0.9712018177824564,-0.57962878061531,0.9991384216479395,-0.7766715919364289,0.0015811897910379248,-0.3089021587070061,0.05083074366963629,0.060067662930891066,0.40962367794892957,0.06674981333867243,-0.026372235783844414,-0.05419755092839082,-0.7361099857584469,-0.4286594755281636,-0.6890089528917738,0.3209997867534097,0.027234199595426917,0.46111894431282513,-0.6114837202411025,0.10697198439563738,0.5485097880806644,0.28465539288230635,-0.8773466067755271,0.5574819318735326,-0.2856286498817653,0.680432210399937,0.7088427291883508,0.23512355877292937,0.5273164909461906,0.603067028676952,-0.93111630491349,-0.10745406858016737,-0.721916158097173,-0.7774393223237899,-0.74378431490604,0.17487069874813252,0.01490947706518684,1.1057940299145539,-0.6773876759116718,-0.8885988987597205,-0.38591433441919754,-0.3964340034142398,0.05727159084339436,-0.7724372340408678,0.6687027605113985,0.22123678584619225,-0.766700940750066,-0.6331838608751572,0.11331164132907734,0.05611398754539709,0.009889028389914472,0.4668842144006865,0.961169064801266,-0.29162617871956903,0.8124123779340123,0.45744319960714197,-0.7523001708262824,0.34497808716225115,-0.3502953725353266,-0.72925746339724,0.9160403816390578,-0.9790750601173616,-0.6736188957707074,-0.880671762311616,-0.17933533165726603,-0.39917536426364464,0.01357402418343855,0.233018415978656,-0.46003854779312453,-0.7073247805257755,-0.521574363129143,-0.0726083630036389,-0.6136342075869277,0.11441335350212316,-0.6286002767013018,0.6201778820224837,-0.314466131994352,0.17903780618981946,0.6565403238408206,0.12166702897636884,-0.3654884844717252,-0.8116400336369081,0.3497535232956489,-0.7933567304185433,0.7591120784336289,-0.7594506517068178,-0.14256837210600934,-0.002624313494569482,0.22146156078106735,-0.5855626979014102,-0.17936972615699587,-0.16156470690729358,0.3308821432890253,-0.16885747341799326,-0.8549910217219626,0.8327106358470218,0.3780760876610864,0.23039449369109039,0.32581866718081776,0.5559184212076925,-0.2056229581767282,-0.37506709517910963,-0.11171571725687238,0.9339103196015448,0.8636888742174313,-0.9289039334081916,-0.16699456067234697,0.932942731536291,0.2890657429327503,-0.775612626761249,0.15116063917147546,0.3728137854462718,0.8910391046679363,-0.5217453746675625,0.5514967350909554,0.4642598105193311,-0.7372129954459431,-0.0810693935722933,-1.0027684249243267,0.08410999289554219,-0.24866029655182026,-0.8104183593944696,-0.1649291502644672,0.2812504579711327,0.35272113165179664,0.22940354008648908,0.9340055979810781,-0.18484727882730906,0.07264919700836277,-0.09593305886963283,0.7727836515314206,0.48589657539057024,0.9929389227603608,-0.4502606199277969,-0.40861260658938503,-0.460758855490914,0.8732495090196776,0.313238468497761,0.7099431216133549,0.050671131171417035,-0.13301415440068734,-0.9541823636609881,0.19343274117684855,0.6504963534790321,0.3319982101530609,0.46875598867054435,0.544808866257333,0.7589603171981733,-1.0368036050029525,-0.7339222316590117,-0.475710537797285,-1.173107334726733,-0.9133667123036586,-0.8252194462312401,-0.42542452344016857,0.1465301021622381,-0.8758121310232183,0.7484402848458597,-0.17481951951552882,0.28021962837283637,0.4485759647177019,0.9805779828275047,-0.309794993968791,0.8082499533785495,-0.4083291458473965,0.14034482524849645,-0.1627256859170914,-0.5268461395439451,-0.3892110928859457,0.8157700478069447,-0.8710345574894559,-0.08675474449284247,-0.08640505234512667,-0.5980398546243927,-0.7598558632814015,0.4540726265157868,-0.6444769694191943,-1.1402936174352725,-0.3792755839057624,0.64179391094163,0.6199115685063493,-0.902555353044219,0.4835292150811784,-1.0266823150659894,-0.45252543650916854,-0.9038978744201286,-0.2637858503876216,0.36964679568000913,-0.5731146862492413,-0.6334237494083838,0.2730966435985514,-0.687409752584201,-0.6079216596353756,0.22063772375363652,0.07307044904078436,-0.9001930781185301,-0.35964427382534436,-0.5242968739716151,0.6290484918271956,-0.7196449462971379,-0.3601066965669657,-0.48155830974000363,-0.41518242543793266,-1.0511295536190026,-0.3056056327233736,0.6257930243709623,-0.20597320580022832,0.23520779651220028,-0.05754538008272661,0.6706849143903548,-0.2811830030346873,-0.43043794190359125,-0.5094990220055392,0.21429644336419218,0.5246774875473461,0.16395435085338267,-0.5746037871763374,0.7498927014775018,-0.43221202362097677,-0.24342546935696763,-0.5713795546988626,0.7592631928912414,-0.5025385551573175,0.7383537247640797,1.110624849161303,0.1633141821154062,0.6234620625819581,0.24872715928322547,-0.9312967675999678,-0.7830311769279162,-0.6017197800002165,-0.6567776218456034,0.23561097052749932,-0.6432324795614387,-1.249718858420643,-0.7293771060402402,-1.0344449376240576,-0.30904720150567366,0.638360772823634,0.6639104702688348,-0.44740532572198116,-0.46966174757374896,-0.21383778152966423,-0.9232457260327266,-0.7328691743422036,-0.5986659742841453,-0.043103885369255975,0.5029733950212888,-0.05541610217910026,0.24350338452367376,0.8768191035516911,0.04449566597156521,1.1512620044033683,0.49422239626837194,-0.035348943977438665,0.8200523931812272,-0.23808654129792878,-1.101350696712406,0.4779453352374433,-1.0252841295758106,0.34139706746220194,0.7140452891202523,0.022901508991387504,-0.2019116603281448,-0.03786200892330409,1.0845221876884017,1.0255577807295586,1.0116728855491723,0.9413634638035108,0.10361566546937412,-0.28361069987087706,-0.8041668725382191,-0.05516275611155086,-0.4550581554977582,0.4415770290408682,0.8488958287538495,0.42820746907527146,-0.46889912230093705,1.1421229826506987,-0.30240075608877187,0.375630807253008,0.5974056026205498,-0.061380462458193695,0.9888858322685392,0.8974094156757346,-0.6682323891543194,-0.18136983323588723,-0.7188515232153393,-0.07681121621376771,-1.0368592725764778,0.48084828706238836,-0.21957995664406119,0.6628795103607309,-0.4141244333991625,-0.311108130919467,-0.5642004627610862,1.0117837856556149,-0.4849767572852849,0.7911149689329896,0.17856346904915288,-0.2364532009602638,-0.4532639884469048,0.946890152897781,-0.69461812248168,0.4856834006958367,0.8535307646708249,-0.09540673442514294,1.0184759893209543,-0.15488531101267755,0.3294468104419099,0.015042501996100993,0.26786333602037093,-0.15139825874220822,-0.8503842907766952,-0.11583843163581972,-0.3780747846604491,-0.7658698783357912,0.7912908984264295,-0.17788256915343137,0.7459834934767946,-0.7089767244914595,-0.7589612745748018,0.3122990575550799,-0.11101929569703067,-0.4716017067150339,-0.7915482392130453,0.4004274622690147,-0.006542829855392007,0.8061030266863005,0.3264679211637225,-0.33338336019984893,0.5618073332034289,0.07304320366343905,0.019596777274095204,0.6312026312826431,1.0006840433336304,0.8033503922995368,0.327598602408513,0.7533689354183478,-0.5629169475939647,0.2864598882021621,-0.6584357191058405,0.8260918566029976,-0.013682442326968936,0.7389787667800382,-0.40608112463006973,0.2294722470629854,-0.23146891862474459,-0.10428430068263862,0.35863857101203206,0.5448465635399415,-0.49032674752045174,-0.6337530067395563,-0.8877487592120443,0.5632579612747037,0.5827594252259694,-0.611244015721383,0.017371660858885196,-0.26748701450638623,-0.8215698450890535,0.5168585348074899,0.25967517084375724,-0.186337994327492,0.7088443931668593,0.23508695708572752,0.6490038692624196,-0.029533320877503932,-0.19332643476681616,0.012348827469494757,-0.036113275075433826,0.37346279893596646,-0.25679160428798997,-1.0025848654899536,0.25893084210591955,-0.06336810143376312,-0.5328020960454619,0.6674636617820551,1.1160370621321318,1.1994397198953004,-0.667252649063634,-0.3401367551535198,0.5522108445969455,0.18620299559131157,-0.0065148355919693555,-0.3903164072865717,-0.4746698356034631,-0.2990928303301612,0.8804444324847468,0.2442529296376309,-0.8265380563958955,1.1601587099196937,0.8326085111088243,-0.09127884507967403,-0.17354217512744047,1.1823718010037925,0.2581476369660721,-0.44504845994380904,-0.6660356291702141,0.13281917946839383,0.66808986445785,-0.9074715822010695,-0.865617792498653,0.4569030940810949,0.27257133977583564,0.10521420979883324,0.6397734202086565,0.015578508407378544,-0.10627009263954121,-0.49854584469926944,-0.7491565187021392,-0.35233162375725946,-0.9266848531228502,0.9210671510006744,-0.3022413245168112,0.7496937712277896,0.12380406169808282,0.18964935323756943,-0.5188085001953008,-0.665158421229615,-0.22649292965339957,0.44780593020361675,-0.560595051519183,-0.6765352324332119,-0.6300714393999411,0.7773957904423862,0.020132749813887844,-0.8689030813210383,0.030993620745581547,0.5018069331409033,0.5086290446730284,0.04473861304342627,-0.22249803181675462,-0.5044960556334038,0.7522121726600066,-0.14490002070088775,0.38374927463493963,-0.4361083647870341,0.14937122416163912,0.3470818400570416,-0.8421323837534465,0.21182991268676443,0.20589279304591937,-0.5891288244271489,0.594674219948967,0.8880168057959302,-0.8389850618786133,0.0020071783096115656,0.8211516377356138,0.10774952801960974,0.5771392390927536,0.6052148537853981,0.3727740649478458,-0.39058247480537683,0.18819269694983376,0.14227960674483708,0.880515615468274,-0.524287198684944,-0.03814090764704143,-0.25510191968885976,-0.11692688631384746,0.42696802367048675,0.5627861037031727,-0.7155271859813545,0.35692861345796245,0.021124525004358723,0.7738017918038729,-0.8213018576776362,-0.34713123791380895,0.006286249417153389,0.9691668839227194,-0.7287887892229821,-0.9307335080486153,-0.5427039408518147,-0.4900451061416448,-0.35938330414529013,-0.05736447853278705,0.5808214827039526,0.8572760338138917,0.03874782636340786,-0.018374948762718876,0.702271261559134,-0.621398814148062,-0.2592104104798169,0.5507183377987782,0.282057372356975,0.0037007058471514092,-0.5960508244334177,0.5627968886313833,0.942072910559903,-0.5398624159683622,-1.1289286840486206,0.2130789528123758,0.12256584189657597,-0.4197495711274804,-0.800462438473018,0.2693462173054608,-0.09494164185118747,-0.9776038337331644,-0.4957631105606536,-0.37736133763595386,-0.9185012141955196,0.07931099188242187,0.08259376792962832,-0.7469485912285031,-0.7883458383566886,0.17608051513941103,0.46069714809292295,0.7853320742950224,0.7396831964635062,-0.21262967552024428,0.5293462978690845,-0.22057731055867727,1.2751673888571704,0.8125126489396406,0.8872328302102572,0.4727377328049805,-0.555458538042916,-0.25203983229757554,-0.2596441237588563,0.5304844522706461,-0.7632158887825113,0.09203738657349748,0.5745012406679558,-0.18001850687489318,-0.6555992675586069,0.9442484144676248,0.4243156060102657,-0.09417892959958764,-0.4771061819315835,-0.34492890850520364,-0.0792404498587534,-1.1210370306311208,-0.8156110202206074,-1.1859217981447105,-0.243151651028687,0.34483829351231104,-0.7149339124113164,-0.5229693720558204,-0.5453205783889659,-0.07442404216227069,1.155470450132068,-0.48298187707628093,0.7657620150427377,0.4991336555794174,-0.9910726916637838,0.4108752034915975,0.29374545125360785,-0.41035259203671104,-0.17952155076202503,-0.345805618806106,-0.5948110144363518,0.7710017705536716,-0.4264605119041671,0.1969857138031497,-0.2567868021397852,0.5505330837048289,0.03819985686774588,-0.5268771859932176,-0.517954416186186,-0.6391056661935818,0.33061062050213313,-0.6365322897325066,0.4947528336731968,-0.07311352330372452,-0.08650363327710772,-0.869444680942342,-0.1705141848310626,0.05086772897620218,-0.7733294431397855,-0.923767880880472,0.41541850538113356,0.21971433645509747,-0.815537348123888,-0.2914400046444531,-0.9681242290606294,0.5510733037293056,-0.2958065761186452,-0.036189025001876436,-0.5694927491397079,0.337477166607959,0.5638005642947685,-0.7831912313537546,0.4087802651420671,-0.8072726621937744,0.12912175231781353,-0.7127467160106108,0.7971136774012616,-0.8267239796149805,-0.3508135283006903,0.14646973151529014,0.6593518328591649,-0.4566752842319707,-1.0073465044564123,-0.7318970602231684,-0.38303042984466396,-0.07388298387637271,0.1764577981632743,0.655364524325584,0.01112775858092814,0.109269227847506,-0.5090392774002904,-0.005616472690668813,0.534221577574081,0.07135316534897196,0.773929147118264,-0.08774097764058161,0.8982040765699626,0.6491892173494593,0.8095146512091143,0.004564406074799354,0.22095926143007127,0.0010422753467059663,-0.9211402313198888,-0.3219477635814621,-0.9796450272184442,-0.8195181671918003,0.08061569072747883,-0.8689608217914738,-1.0773870019991263,-0.8452887392263503,0.7755270968642621,0.4471904992922664,-0.548708063432964,-0.43826858793164486,0.7140096902465762,0.6722445911336651,0.9561764331599467,1.007567656172782,-0.7824106045928683,0.34517109350393826,-0.971206519872578,0.5162623384197388,0.20038472908761049,-0.35736560604930245,-0.10196027613950664,0.19591800810126703,-0.6040339568326869,0.5418383296348845,-0.29289769355455686,-0.4940482822307173,-0.9750878152314436,0.3721213140078685,-0.058408641336467816,-0.06343538850452453,-0.9541469604220775,0.4778779799752019,-0.263136208943713,0.11013680339011493,-0.8476746024730815,-0.3905261676635,-0.043536681563373154,-0.03753695680004675,0.7988900183221403,-0.13504891766920277,1.031190292181351,-0.9535718805781835,0.4915503691212013,-0.3168057526914662,0.1623249830593524,0.876455183098146,0.36552683748639386,0.28220041021075404,0.5172025652266785,0.7952232278853488,0.16906927513980707,-0.7018607860359751,-0.9714273752758484,-0.3349402681929583,0.430950524971992,0.2435741992092879,-0.701437037094025,0.5262880784131727,0.31734903095763745,0.31564233568159006,0.13957491520160703,-0.15600609792022416,0.762033808204957,-0.7809980928140988,-0.8500890327386625,-0.2968946012208581,-0.727228410264953,-0.479922604187223,-0.68423033319694,-0.5046260293436411,0.002312143983434457,-0.5670722514926261,0.41305942985683847,0.5889715665833901,-0.3815748354916379,-0.1010561099007592,-0.7206981612698409,-0.8315378453744882,0.720890834984282,-0.8755754374331906,-0.8703703354194727,-0.549270405457126,0.03133779271730308,0.622423845974137,0.6626246097960711,-0.07741893919596313,-0.862545905674649,0.5378086136549982,0.016493876695693153,0.6896835702913428,0.7189508646359919,-0.817960538235436,-0.5137520124020272,-0.7008598268661723,0.744501886602214,0.38297206234568854,0.84053334008199,-0.8625976196286579,0.6597558940419833,0.11192467828611952,-0.24006611167702552,-0.05385894569713967,-0.1552217955911881,0.910519482343828,0.1554194004353553,-0.8908764355429168],[0.08896286765177264,-0.2990701472114903,0.9360763496455118,-0.03645053122959574,0.9031207648757112,0.10712946532679755,0.9069509595665656,0.3676715495513958,-0.9762898080275192,-0.8473235980009033,-0.997558289610146,-0.78617765625058,0.9056377182425316,0.7306117233076557,-0.4800005333892308,-0.05131387985878266,0.631281577586956,-0.5843614330974292,-0.11305982395896086,-0.0904561145514029,0.3016643254299478,-0.017533092498604352,-0.7170967218636217,0.7085457732591909,-0.9905578781680272,-0.021218321219259595,-0.02580824366133516,0.8394149819069359,-0.8710111481369474,-0.5162337371508816,0.8093393095198884,-0.32476783411400945,0.5076864563734789,-0.15009392927573573,0.5174930175162493,-0.8197764463182691,0.8096064130964028,0.2991857655635277,-0.10820816402244594,-0.33072629685940713,0.9759705772077206,-0.2935141370503561,-0.4346803457258755,0.19650637836993312,0.0897940454707677,-0.8521676347293076,-0.6382078607687436,-0.9114981296525816,0.8662873824824071,-0.8253891365897863,-0.8367838012978634,0.011586129775737142,-0.8747579141340993,-0.13974455880286674,-0.2624732308568236,0.4763531609218916,0.9221784547524012,0.9151479340005436,-0.20809599497862272,-0.449276882813332,-0.5770163346512658,0.8268473358757582,-0.7856985958574534,-0.30954810651320636,0.3959355351931906,0.7782934692016452,0.5737161055585788,-0.734071467962834,0.6666760249723539,-0.29650912517810096,0.27783601840637356,0.6865180981380219,0.3927673091065096,-0.3115643502847074,-0.3088487868052718,0.08463323269550746,-0.9507073640945296,0.4742398317295419,-0.024419398624681676,-0.7022023774372814,0.09931455080547602,-0.9261179523838314,-0.5248960955036712,-0.4994893715733866,-0.3359938916827341,-0.022833038626242978,0.487995188794037,-0.0887163673871747,0.19768315575582673,0.5403086993210735,-0.9938479434051684,0.16398179212563258,0.20961068251226772,0.9783949984399786,-0.510197196417951,0.7550145870900503,0.01795057055209683,0.19172665334153602,-0.7419950245332365,-0.4419567236197698,-0.11661549615194904,0.7882124468524139,0.35792375623530354,-0.8796893797379696,0.8611650824036778,-0.4701855502275213,-0.04010818425430696,0.00036418468688292904,-0.3716682210760607,0.5547022152593906,0.9642954855924242,-0.1465002925375687,0.012138958335377035,-0.02095374175797504,-0.7628851015544074,0.9180370684048949,-0.879445710129648,-0.9702533440734986,-0.32966831438897676,-0.8676114367277036,-0.03914781610863271,-0.17093822043882878,0.13840756059305187,-0.34807929761185874,-0.03074144685771511,-0.378668970829878,-0.6760414688427779,-0.6156040774109098,0.8940149345791598,-0.24441911169034647,-0.43678801365137826,-0.4367999215957986,-0.5009784200624008,-0.7066103997781842,-0.3752809408976987,0.7278092420320533,0.7938141056157396,-0.719204953986198,-0.013362726705821617,0.3387061530965776,-0.43171593557389065,0.14609429969371024,0.741515724437837,0.4777694587446686,0.5628761824904742,-0.34964921374799934,0.41777912917483734,-0.6436269671106383,-0.7140503639975195,-0.3766911400002248,0.431155699582849,0.5769921967584883,-0.09629734903652458,-0.7716131800318101,0.9075947215291071,-0.41138488960294434,-0.6963759625841944,0.5218152136780166,-0.7806373003220514,-0.5650901701445212,-0.6591820611761028,0.3799121765517617,0.8758523573361134,0.8946970922970869,-0.1925866703341322,-0.29619632405559415,-0.180656709620983,0.35538346724287706,-0.3795836199924507,0.7454355710951686,0.9975059467246484,0.5483563942308638,0.2790999980657775,-0.7526841318989611,-0.881366557236582,-0.16515565465985663,-0.6403967603689703,0.3925744855760569,-0.5459907974383925,-1.001892778356428,-0.49660275825588734,0.3349737840218288,0.8418800636304445,-0.7516629984861081,-0.2924389734264378,0.27435576130806877,-0.4159751425812801,-0.0667724430593804,0.5413858376442504,-0.9571982129738351,0.7280090505455576,-0.16677014276768248,-0.16420470794449496,0.760606340192464,-0.16064328214695456,-0.9940633392586012,0.8007046854930255,0.7822802795524426,0.465004306736325,-0.04540418816088798,-0.6900801033666134,0.3826529731091776,-0.837376473887158,-0.3945353755311423,0.27535767787150867,-0.9993763202390364,-0.9170494777719036,-0.20959466781878588,-0.0747275726573872,-0.8425054658516933,0.718929056721556,-0.6684160111892291,-1.0647846867041766,-0.11673407238328382,-0.573220762991648,-0.6161079515881728,0.12771544167160181,0.5166938172740608,0.4856998728968855,0.31229117285004965,0.7469194200769836,0.654466958520272,-0.1463061571115528,0.3866010179625876,-0.4571968799208264,0.8242267936778775,-0.7179081642925684,-0.1580760721089483,-0.835777611287156,-0.2318916299065442,-0.8481126622015654,-0.3468924194711192,-0.5703322548207141,-0.17833354872987178,-0.7104180195420745,0.43966456903246093,-0.6611178316384575,-0.9119237628011436,-0.35640287373574187,0.27971558611614145,0.3758739672111244,-0.3129848628901061,0.5743480936674992,-0.3745136042537882,0.1303144138160511,-0.6259864003248654,0.2727887858834167,0.699979324646929,0.642438565009956,0.19432555881932703,-0.5313841158073822,0.9258648558312036,-0.6063142704020044,-0.0963230646961586,0.7439242087314902,-0.5603048846460863,-0.4964451107269654,-0.29508184743997407,-0.2929583117292275,-0.2656870356606969,0.4051927932822492,-0.19840153075223654,0.5659452836305633,-0.9231529007654228,-0.8844044263319616,-1.057594033020546,0.2700409630389549,-0.2347414873785488,0.5441366926569322,-0.6924084325212289,0.7949490233226468,-0.5542290500013637,0.7547601430666946,-0.4560857693653957,-0.42246782678641925,0.6037958385378742,