{"biases":[[[-0.250640382805501],[-0.9201259239135887],[-0.8608508859810716],[-0.2249289080646454],[0.5888241875475263],[-0.43450831458174566],[0.7751907892519099],[0.32701451199579995],[0.8296948844546358],[0.6373412167830276],[0.4949870738985033],[0.3711791415044017],[-0.7156606952872225],[0.9477322353637937],[0.13436648258828554],[-0.28097804393275716],[-0.23411694750996778],[0.612521754482765],[-0.9909900520442023],[-0.4734597723101115],[0.9851448385976326],[0.34269536791865063],[-0.0801414309105073],[0.7908190056212127],[-0.04862744714617473],[-0.3047724429709694],[0.37810635111342605],[0.20320095874462796],[-0.7186124533214379],[0.22961570368300177],[-0.6636851693967607],[-0.8363192878269434]],[[-0.3516279749492174],[-0.09684211483467244],[0.3320367579566311],[0.2965358937108502],[0.7579738272127273],[-0.2079866495729808],[-0.5014012173698527],[-0.28369670714659906],[-1.2984432753850867],[-0.790139059390126]]],"weights":[[[-0.31835292108783775,-0.5852913334893401,-0.8479735168163509,0.36367755414805014,-0.6306261004553679,-0.25084393390305415,0.7872054792520111,-0.13201125868484964,-0.23387632027250535,0.413882662293245,0.08617674465328173,-0.3341753266610088,-0.689497452539968,-0.4522107369894055,-0.799173613835076,-0.24381407972468483,0.7728685973544771,0.967172850263732,0.27276360214251016,-0.639552829884994,-0.035204549716358446,0.17802695880616737,0.9113412499868164,-0.8313386969982175,-0.4738486291229709,0.1549493399335271,-0.4197600085596664,-0.2926793857018437,-0.0816908891388961,0.5653050683413909,0.7390965859607328,0.7586424106435123,-0.07463220610147614,-0.6883246905203231,-0.024016696469119303,0.36414388164162936,-0.5414853431984556,-0.17747600010305906,-0.842487617948031,-0.12455802218767888,0.22445203627926252,0.15162564211107565,-0.4956889822463667,0.6542262461123209,-0.5989758985905117,0.7599633738793862,-0.0733410349167507,-0.05191233477402646,0.6330346167876162,0.9130081046798326,-0.3729986021446486,0.6886408712265801,0.0954925810851952,0.30210655981000323,-0.6063543995393403,0.004569217675015169,0.16905857043363914,0.7412567806480395,-0.465567204628502,0.9429640695843248,0.7507706857944727,0.18410081243063936,0.5576687864180871,-0.8610456153894199,0.9921131626152172,-0.3989556859263391,0.3243274840085153,0.22083235845585725,0.6885039097019526,0.4407714898831862,0.9539959065323571,0.4961859020768908,0.14872339598739043,0.4023587549462142,0.7513325790395239,-0.5953082575695372,-0.24982620493834273,0.09566295119397276,0.035611674334459525,-0.17428766288321093,-0.15693694948513892,-0.0017516068352567693,0.7874855052940835,-0.952361068157904,-0.1565107078304695,-0.7607281077996999,-0.7471735798564265,0.8642780835663368,0.15784252752050407,-0.27320778284417413,0.6009809273982867,0.6135343844530734,0.8082512921250552,0.5692055518515177,-0.2081215360528048,0.8021521654202957,0.8138510645171233,0.2811971673718992,-0.6928474028882898,-0.062391755064269555,0.007843885486612046,-0.7284134536487893,0.39938947806664965,-0.5320646909816201,0.5664609573317673,-0.26200874922402795,-0.7911618014170716,-0.11240533417420896,-0.683538372677041,0.5585196288529806,0.633631999698909,0.003234589403814825,0.6475948379982805,-0.209132813162086,0.6348962554917688,-0.33041711490230874,-0.5869987269491066,0.496892267627217,-0.7059498228510045,0.5163418927429321,0.12896214419189506,0.23888918833971567,0.787561905615235,-0.7438765841815933,0.8971626281347057,0.5987516100243716,0.15734706448710964,0.9493378015809059,-0.6314487656068011,-0.38628127071827206,0.3467791317021414,0.5673190534122119,-0.3024886963730841,-0.6087139639543262,0.10804709284574829,-0.8891464229434364,-0.5147491339646563,-0.8446332801866873,0.6770813426693099,0.15334013885593056,-0.8711349684884042,0.1172352785783186,-0.1711122421890774,0.32925182969364347,0.0830383517598042,-0.2582552209052406,0.7372150750928248,-0.024587689500696088,-0.7471946781552276,-0.1817552813589622,0.32548916933100913,0.7003969273682512,-0.46217410821922733,0.019652718757884612,0.21020787173501748,-0.2027371987523333,0.7078167075576628,-0.1279757248481446,0.8460113499017193,-0.5216433137386559,0.9473558573664417,0.5215917328655857,0.20072955681327714,0.14068494256119676,0.3535654425330725,0.4298496946817922,-0.5632348591498774,-0.1841063529518605,0.7378505641552102,-0.7446538192822911,-0.3565231792355572,-0.4287595312380865,0.15190155471913577,-0.4472748059096084,-0.3965183212880106,-0.4113569738971011,-0.7472664558543575,-0.020170656679291212,-0.743732464308555,-0.3759844683155201,-0.38264566822842194,0.2862918379186663,-0.8730496195198559,-0.9111681437449609,0.040183553637966274,-0.5770833895870027,0.6447735075979899,0.4264258403035096,0.7342061854541282,-0.5145439507832477,-0.8178178378957629,0.6911178272958798,0.1208232227337685,0.8352358094142726,-0.5478502707401451,0.4615580603834367,0.24235317624052463,0.11952036962327978,-0.5158319293807153,-0.8968675001244972,0.9625002883903803,-0.23922989438493572,-0.7042138249263439,-0.08535123782173083,-0.5600397645048553,-0.9060084739918661,-0.802563941337593,0.01915065250675783,0.48865639939476496,-0.909384486387292,-1.3915601853101278,-1.3293466864270616,-0.6403240146853219,-0.0721424176894517,-0.12856454699899694,-0.580561772327962,0.24349474379659397,0.3516390042394912,-0.018157363169305118,0.13148155221259245,-0.6744283520885047,0.7501192330594779,-0.963131578363143,0.5067577922105874,-0.004108868309206315,0.9737927534624043,-0.1630005629908307,0.6976929127411816,-0.66676009741707,-0.7339709469068513,-0.5711367823212602,-0.01451317146498088,0.3326620349849543,-0.3881026024567951,0.2489334782100177,0.3899476771339273,-0.11443400846932593,0.03894681366556658,-1.2422115897160584,-0.9788641974365012,-0.5200312482841125,0.4388775847915212,-1.1489016706631299,-0.5893163016596601,-0.9376158905378126,-0.37757698628083836,-0.3188166588686342,-0.6481866005559089,-0.9158497530291971,-0.13612564439538044,-0.43203395372265224,-0.6723582181445606,0.4537336585909948,0.1280022018965771,0.8163429738694655,0.21436777203212481,-0.022701601898323924,-0.1776454654743206,-0.020950615531704096,-0.3136016161699109,-1.0502366189023957,0.4097634118113671,-0.32385983645372174,-0.6492600576047904,-1.0611526959273228,0.8387338013032324,-0.12949833951442963,0.4902681428006415,0.017736913389069776,-0.8333284799696548,0.098153038391727,-0.3096588934887089,-0.42117449039584226,-0.7742699741224229,-0.37622106228566987,0.06590495916903111,0.5945363036042807,0.5007128982917968,-0.34114062293348907,0.016552314470096086,-0.7768367977168646,0.7667132026664969,0.6800750037067761,0.032061446842267825,-0.9076525222129475,-0.19745283853372125,0.38283365463334545,0.7152867547020273,0.2812315717154343,0.012095125575133892,0.15253004018681662,0.40801068298847093,-0.6947747951905588,-0.02257531475069225,-0.8351324629548657,0.6010548716550577,0.4445228033446812,0.09373180213070435,0.7919913899054754,0.6188456050713994,0.35628738517738934,0.4762710946106069,0.13325047685709884,-0.20383935452968516,0.9389946395319114,0.14693980536270237,-0.14513039735861638,0.17450170349288396,0.25886596538483375,-0.8291943815190368,0.9504538202886899,-0.5173737980144403,-0.3475595611759617,-0.6460987043252596,0.09113312929591755,0.4997465381853255,-1.0838516584381657,0.3183618151321901,-0.5025107355056847,-0.5592096622473157,-0.4383229767030934,-0.7765784449372671,-0.07039770286692545,-0.36290323000087094,-0.6416981579783215,-0.558779248055068,-0.7812089532864862,-0.044571441117816565,0.5954966609436477,0.039312171037143684,0.2397147170676072,-0.13595386022939532,-0.3236285829935873,0.5873025026524233,0.26405548173087096,-0.33931191666512484,-0.9490913522043548,0.517371833868524,0.7141498073330178,0.640140613890029,0.7818886773385556,-0.15570942179310082,0.502055231758618,-0.8882325542826138,0.4247160311296071,-1.075808891658123,-1.1010537209817357,-0.10436887576616817,0.02161769478332277,-0.16780451507444907,-0.43152001697488973,0.28824089681036985,0.10703506641423573,-0.6881916163523116,0.6696184211283787,0.6830227155710923,0.614376230930668,0.10902884192900143,-0.1683413649014988,-0.3060989598648071,-0.1677492672627929,0.0009743152108147628,0.7955961936895208,0.39206553532714006,0.29517260157491365,0.7711573173381769,-0.5821268580412846,-0.2694169947198163,0.5494518953267915,-0.36813954243343505,-0.6964194658800059,0.15128027262857233,-0.5626953418577788,-0.19159320885580433,-0.7448198140081916,0.663290052618928,0.5908748772989932,-1.1601953577413484,-0.1994584239789553,0.3880999466018107,-0.8184077697804403,-0.7865524418698774,0.4483135304575726,0.20560010072650567,-0.05574114651401934,0.3519272546069051,-0.08839811629637773,-0.5708863275711223,0.6090366991909201,-0.34065490721720826,0.019670446666910403,0.8807940166652422,0.5545142396198526,0.7621349924382199,0.12064348406550993,-0.7618857580038958,0.6979670795009745,-0.9876125757032593,-0.9020418572895289,-0.35503339453153127,0.4148935769099603,-0.2792167845047915,0.2594738465139177,0.7255513247870571,0.7644674224200521,-0.36128430317034105,0.040673737331880934,-1.1125794862329077,-1.0829963053940772,-1.2375456552661097,0.26766361381389603,-0.4946721982958625,0.6862346082760348,-0.6536696810709887,0.43649333129874907,-0.001126928889948987,-0.5823522625793314,0.27600395410546097,0.08984900984419962,-0.2948929754875267,0.753907627531216,0.8260305934247105,-0.3917494408832547,-0.8233338193077199,0.04930851372763098,0.4170288114216616,0.4090694166442376,-0.7216322641001311,-0.29456365812115903,-0.29292174644319113,-0.8729337157579008,0.7866829739736859,-0.5077509205406914,-0.6381986898694533,0.8002512354387593,0.4781408872924871,-0.24184838207147527,0.5437223789757403,-0.6626786871841639,-0.27641559066467203,0.5084338997824229,0.7429639596271919,-0.5633384363621411,-0.09078408015116615,0.4263974065957745,0.565073155618936,0.0777723234275897,0.9743423525617424,-0.6710504606323597,0.25349706293810215,0.6766511591368576,-0.35106087121902874,0.8835252552968171,-0.050758503320786276,0.7408213275697465,-0.18429356121578214,-1.1227171227114907,0.48009228131083254,-0.13596265542064082,0.03312719436660111,-0.0016375539619469858,0.5080834071979394,-0.6559943809191908,-0.7317021560007245,-0.6558005322847689,0.33437382779871183,0.3967451780105508,-0.7054370901125209,-1.174202652009339,0.3585678174643446,-0.42414336743277314,0.11929758195827585,-0.2593002333254899,-0.1637182175891248,0.2054251507213222,-0.5411393577835597,0.5190479500068805,0.2860101687830441,-0.09619148622360572,-0.17748283487970973,-0.34187557609293917,0.6970577496954475,0.4656392283392568,-0.22660157640115583,-0.48229666311741043,0.269221617650709,0.293257330324666,-0.7629078064474305,0.8818134014100222,-0.07437884016604962,-0.6955281752526323,-0.15782986425239484,-0.4430782186485717,0.6631308337832034,0.8942173792790004,-0.6495714109064591,-0.25956258379327785,-0.3966352082076872,0.2621311024476277,0.6374540778263652,0.976918509463364,-0.474088312142375,-0.3921384867846642,-0.9669535346455388,0.9411821121149117,-0.991587231947566,-0.23470197484404143,-0.12230301273485929,0.2558304900585546,0.5739277642861764,-0.27839531008193596,0.5228497136413741,-0.8061590045053765,-0.7094109450874436,0.4428682233161945,-0.36315699362824017,-0.7382073126884313,-1.0493905279402282,-0.9021335329235118,0.47204843502343685,-0.484261921123867,-0.9840207650941536,0.8216673272259358,-0.6728873094536196,-0.49090842226339987,0.07250810101106613,-0.21894934015755424,-0.17671580958686553,0.4367766492330597,-0.6066025458497464,0.3893189230148328,0.6422298706291221,-0.5277551251660231,0.7482394470527216,-0.5058567442009244,0.3011463607465201,-0.018826566216077856,-0.6395090454334861,0.32725921243716544,-0.021172806550386166,0.18643565288834787,0.6472367149798316,-0.2851637452307186,0.6581690251061145,-0.6207071667353866,-0.5282712559938124,-0.5860739337513675,0.27251511202816897,-0.6286553796296572,-0.059635225530827854,-0.5208839933579835,0.0077957949663565495,0.42948219266316273,-0.3459368722264365,0.3861189726796971,0.15968737001817077,0.18500397310484512,0.08877517089772162,-0.8939058539417447,-0.263338806373985,-0.3955705745399276,0.774802444515336,-0.7614465730672175,0.37676628479982943,0.5105411320645612,-0.31537250602772027,-0.0779473086060593,-0.6743007601499382,0.46073446514107363,-0.7773720588269996,-0.48320606606183025,1.0864851668239097,0.1235199188357589,0.05025142666687451,-0.9762835558344239,-0.7799173480842001,-0.8255626580835365,-0.5155913478199072,0.764104589828864,-0.22666359174095038,-0.1997714526044128,-0.6307943685824533,-0.3912030613676336,0.6758968638545538,0.9303713007541128,0.9564812782300932,-0.11976584551723558,-0.236406069467477,-0.13824550753430098,-0.15155288986816484,0.8145870916131718,-0.9051674142193277,-0.049554120160115525,-0.49544810248799687,0.5477131001498499,0.06284839792038921,0.9230048761321834,-0.8358386786662517,0.7352425366093771,-0.9105677866737788,-0.4184096594416229,0.7477566936052699,0.43079930523260584,-0.24946257801020988,-0.1104034951953272,0.5005392467432783,-0.3544714048947843,-0.8727611332070094,0.8328544578949179,-0.016788321120819707,-0.18702945865507253,-0.5602227493314379,-0.12438690948305968,-0.11739558895135535,-0.49173298158816187,-0.16038239250371222,0.4330989540777883,0.03144816443034837,0.24818079339359111,-0.1882770786876151,-0.6764032008986456,-0.8553023090007311,-0.8029744187292077,-0.7134036725709362,0.33655761546484836,0.6747545858987385,-0.8864641874448165,0.0319674703261544,0.4063895666919132,-0.9970050438286497,0.6985042940046751,0.5299247074696408,-0.05068278742665797,0.607719344113996,-0.642632401605747,-0.735201286808791,0.42374995090993084,0.35103712277717647,0.6775918702742066,0.5531341505451505,0.0545043305783258,0.7607553453493814,0.06837737073087757,-0.23512567034580067,0.5823608374928388,0.3114444778476888,-0.7837870849957917,-0.08701850241570692,-0.6387232771007058,0.8184804058657796,1.017149765328801,0.2810309692280683,-0.011802261192315821,-0.8927267229741722,-1.053985999158729,0.24103631835126793,-0.5271968213477071,-0.7005354811813899,0.8313970600378275,0.3870098160764144,0.26412426997319854,0.09654692310023215,0.16079807057011436,-0.5268340180393826,-0.01982159320285889,0.14539325006754694,-0.4597466312322145,-0.05172140991738038,0.6049282509256646,0.9323432847412724,-0.4914257102158356,-0.13955234820396045,-0.9258998615621834,0.747501294955812,0.34859402146506535,0.41900426431762366,0.29361073762623163,0.6757298676176514,-0.24029844979930862,0.5870632835283666,-0.6649519911870909,0.7292360767795399,0.7275380840125347,-1.0613466018082316,-0.2787888428166163,-0.7962020417512848,0.7907744135739238,-0.11034105217233242,0.7148694149397761,-0.02231067879805823,-0.6017277393606979,0.15978865682562518,0.6955909239896653,0.07142584582512347,0.8258373949421132,-0.08096087309437026,0.5332754457367346,0.5313450562031519,0.7410767758296586,-0.541752329992544,0.25695716339947827,-0.5712181895909112,0.6615046390795734,-0.7827020615479272,-0.3298639694178703,0.7913316312812079,-0.22051699360525975,0.2313156756032243,-0.8572853290729993,0.6967177822167178,0.8143532661934435,-0.4938212047054387,-0.5532410851103228,-0.8301619725752193,-0.10180067568497976,0.3731049475387278,-0.1706649242561127,0.8223825891625991,-0.3623156983052624,0.49899472725887883,0.2568652698879128,0.4249513190994358,0.35623779403555655,0.478271829692349,0.25081415127363066,0.09760825434579744,0.2508024976667851,0.2632584433620917,-0.36098982271985025,0.5739067497941948,0.8197455458830731,-0.5509638837349161,0.24623416284336452,-0.30927901672679686,0.8632409671022513,-0.5901777590314186,0.7621046143454506,0.33055771772908477,0.3653616164381181,-0.8944756282174989,-0.40056715769224616,-0.6162538362007476,0.8902683759929108,-0.5658221177649928,-0.024740682005742858,-0.6421329597912238,0.4695301432762083,-0.3925986187130107,-0.8747818193540525,0.7233523764052976,-0.32211226173637586,0.30976279325631495,0.894425653566592,0.5504111322434786,0.35291493492133297,-0.6527138041595075,0.36697912095836016,0.2637371009927725,-0.03646648942016273,-0.4447246208704243,-0.3182067590888831,-0.21905810722874783,-0.5976015964469306,0.8029666230360971,-0.20198962331758788,-0.7240028992341347,-0.3555466107550976,-0.6838451870427082,0.85822960986026,0.15238545082150426,-0.6529561981668748,0.11741609520756344,-0.6424925555888581,-0.30113848149734185,0.2521821684055502,-0.40183947786245416,-0.6142147363579061,-0.019126622953725733,0.04785268862056791,-0.36831350939428664,-0.23801572699905835,-0.5631689996636271,0.8306070569274218,-0.6560423217238753],[-0.38667474111277,0.1652128804023585,-0.9797877382743748,0.6298628766232568,-0.13863901684803823,-0.5941835666073219,0.9992182708538192,0.03861122014178475,-0.6220064117753756,-0.29559106880858765,0.043878037564695216,-0.8662587560655333,0.1849108217298545,-0.12956398458615292,-0.30456119116455094,0.6822225725006754,-0.2731844067293827,0.9038355455987463,-0.7591284335259743,-0.5347893796957,0.3867795349201224,0.2972149257711387,0.2754087800807865,-0.4805126654920364,-0.13789648195608994,0.3281905231780011,0.9477440331865096,-0.5239300705067689,0.2728422415199634,-0.7074402960377797,0.23290835333190185,0.5113360420781199,0.5930798766943037,-0.6718966623706117,-0.4448761034294082,0.9725174613439936,-0.4534929428605128,-0.3439708603094722,0.12821768668436362,0.1497222693355816,-0.5689638598210209,0.6850471984679852,0.5326787221014065,-0.5683229976948067,0.16265776937584256,0.7201985019185466,0.04327462700626872,0.6519956031808818,0.6335127658604813,0.3131566407743369,-0.6597957842903914,-0.1845724520425693,0.6018650780669008,0.6210559585299302,-0.31818421129119145,-0.7458134903933296,-0.471158648505418,0.890359846287047,0.47250071117216,0.9738881451214332,-0.545181964820793,0.7871374261828092,0.8079732390909729,-0.3745889190981133,0.04395759934188154,-0.2713362856169301,-0.9765284413401479,0.3740198787387352,-0.6931765958451328,0.26272766731772534,-0.7056695907549732,-0.6398077930669399,-0.7462189138234525,0.2719284517112323,0.26436734736414247,0.694484995629147,0.9540589188801967,0.0419070501332205,-0.12198345076988167,-0.3905758413568884,0.8825079073939277,-0.010035586272457486,-0.8148047375390706,-0.5048128054481427,0.20733208403412795,0.9849315338758956,0.27061367229629063,-0.25084306354126484,-0.14097122207122137,-0.994227586799473,-0.20256930011207516,-0.9493345934815862,-0.18383501239727898,0.37598394233360494,0.6375384267488728,0.22570484579610522,-0.5953468279390233,0.19296226095708757,-0.30006974777547646,0.6036497716995187,0.4426576743256087,0.3943187823155027,0.5152278691748821,0.4458100279373195,-0.3868014487801428,-0.9014585984148509,-0.8449962826837174,-0.6097198691400743,0.420310378568105,0.5522765631565485,0.7260052518231932,0.027574172288575394,0.08124578910292835,0.5834115355890304,0.1707546389334018,0.04444506410435163,-0.6875797954459575,0.6878568357783368,-0.6271184538949358,-0.5771160029177085,-0.4475060978344978,1.0107491753701041,0.7586363440917037,-0.5807914576981938,-0.8116243141397118,0.1320288959881759,0.008486463063575363,-0.22763218876754246,0.37486073234964734,0.6272842426343613,-0.4428155913674414,-0.6235389028924014,0.7800624170037027,0.28519264300829017,0.04163184668789529,0.7026210796195573,0.8335971062016067,-0.43778845213497936,-0.32027953142739657,-0.3122753113941563,0.648528818693167,-0.6993327193138972,0.5798906812808788,0.5184135538364804,0.30671470481014884,-0.24661924344270533,0.0746467877777446,-0.7186279577844671,0.8418579921624931,-0.039883348128761265,0.5865067923768316,-0.3709411005215771,0.6099859315009258,-0.03075259861398401,0.2968379489255218,-0.41122778451329367,0.1614862148915067,-0.6139983890994966,-0.7312012599349322,0.16000086260932142,0.27963500308496875,0.7260972494795713,-0.5745178266587644,-0.8584718010746373,0.945652773140684,-0.3264279857240258,-0.8775921552735545,-0.43248903269136973,0.7395064769356074,0.1896043082801615,0.33589400408068165,-0.7218821358855494,-0.7177723797922299,-0.3316854486090182,-0.8251142100114534,1.063763850164834,0.82031733419683,-0.43686679080016855,0.21340804666731455,1.0635116170805554,-0.10001705348118868,0.4907029300675937,0.9060141376711621,-0.25985355591021464,1.542370959399569,0.7642793372039445,0.301142494881539,0.12322348927269415,0.5897290666542655,0.012260595629664557,0.2752161706709787,-0.5685259212922378,0.1847197525451358,-0.3415153840951393,-0.937534554239689,0.32119265109128176,0.3364162423825998,0.9775011302181522,-0.7861938886561824,-0.13663162817860822,0.8519153059678369,0.7222243380402772,-0.29008411601099654,0.6982837462435427,0.8632658796004105,0.8615226744576897,-0.09775131082910869,-0.671501233541769,0.4734989726025882,0.20826500395500994,1.1628656983774792,-0.20016805582364586,-0.31705646471877397,0.36124849201639453,-0.1520580194538288,-0.43897879498663883,0.4353129000571735,-0.7951407703554733,-0.1912979599959852,0.272411772767385,-0.9963149590058815,0.8576540227244859,-0.3566356884304445,-0.23370758559306307,-0.24841877125749168,0.8550843935360366,0.6306989028871538,0.26370225509057477,-0.04136615328188137,0.012110468100546808,-0.09309085209149293,0.8540581994130466,-0.2706831534233414,0.38644463934955064,0.6891967963891601,-0.42128163905993876,-0.34921712853567205,0.4033817563298226,-0.7760205480653543,0.3303337845071777,-0.21718584942615338,0.6393177669328253,-0.5405960866335707,-1.0802223597900185,-1.0043861707266801,0.2054801513343006,0.205860968441396,-0.6304259531080864,-0.7766477163617693,0.26560253293661085,0.7350084263831794,-0.5250395666499741,-0.7335611950010987,0.09947285448151962,-0.0023662714739395756,-0.672791556120433,-0.6218106297977198,-1.1419999306424293,-0.8625700087752277,-1.201981025521224,-0.6940154642902678,-0.8236075469623045,0.524825982296756,-0.828110596471566,-0.8922965725048566,-0.9152272704299313,-0.17948719481700925,0.0778223712033301,-1.450363767433747,-0.6139425531380969,-0.4471604579334562,0.7774990484493614,-0.9018125274635594,0.5483585614782335,0.06154453493389946,-0.8601435362210775,0.7175716306036356,0.012753670192541911,0.1765088520665397,0.4381513143233822,-0.7466308754213269,-0.30308570885889274,-0.9436412101603254,0.6798726080899355,0.2430431467747709,0.024889608751192786,0.16156073520740227,-0.03631869447240435,-0.6997330653778475,-1.19002079972798,0.0764230551322491,-0.9968692010480459,-0.9881625685467044,0.2266542156635485,-1.840001902977145,-1.7761474370254593,-0.1879156945087728,-0.48333395461414175,0.40103668049779856,0.06497605087033943,0.787482217731642,0.49579127667845047,-0.05446619121169066,-0.7285822225532302,-0.2963889271362007,-0.1932778863990414,-0.8724502878583852,-0.6550950545831216,0.2630028834509937,-0.4745544674575996,0.3010499774537139,-0.1828061500191907,-0.7658217793924617,-0.37985943123331345,0.8720014821293414,-0.7241741046752865,0.0797857418727411,-0.13879119356313632,-0.7135429522814887,1.0149813342277367,-0.7211701484636006,0.43428212960879986,-1.1174648745624323,-0.15821726435064568,0.7398314801439476,-0.6835761910705712,0.8541298698697956,0.21554169853649424,-0.72183067754047,-0.7305949855593712,-0.1265222207393056,-0.34923447254266377,0.2969157252197202,-0.4529970530636838,-0.41166254849534767,-0.10674824777645128,-0.8427272898780893,0.11111125140069925,0.5801415889714243,-0.10773973274043187,-0.01791170377623603,0.7158923528042029,-0.8265162329573617,-0.4432218003599633,0.0549505165994326,0.905883888008697,0.15002822322243728,-0.03900878646535281,0.8080678277617629,-0.5326343518877525,-0.735296021491441,-0.7497303244561491,0.6949171920676458,0.41707330261039166,0.40606163363848463,0.9150860158545424,-0.25768805579196125,1.0831903876062399,0.907434941671781,0.46660911940795313,-0.30404170493356414,0.6233369710880623,-0.4669881675803341,-0.6499615433631928,-0.46152379862148063,0.9932808334603187,-0.8360155310615764,-0.8302728254400453,0.0066749635978229195,-0.8280188681706547,-0.5607678377837898,-0.8534495350530761,0.39374287303875166,-0.5045673179954514,0.8746861559468744,0.11094815496641469,1.0418923053378677,-0.00959895111825562,0.9206052243825485,-0.5999502489049596,0.2052358269746033,-0.5375047048865416,0.7704517764303828,0.9943671338677504,-0.16947401218398941,0.541173791502961,0.09697138156438649,-0.6113688881670267,0.9572347483317771,0.09542828508701977,0.21768549401592027,-0.4132996239470973,-0.5317705707457363,0.6569729338336462,0.3264706880939635,-0.5024905786889305,-0.3414913629627209,-0.8447866524982932,0.7067431368305558,0.496676136559999,0.3634776411247861,0.28729394109294215,-0.26716673833705895,0.255757933027802,-0.25837662423868424,0.6007680549973903,-0.44865571270997334,0.7892981404665862,0.8931529211226384,0.3382416360550179,-0.7245107860893458,-0.8481872307607862,0.7213435089659788,0.5461162346630394,-0.15534251968017515,0.12125942517238335,-1.0076435097771321,-0.47954063076652303,0.7473054020695818,0.8086250717339275,-0.5937212020833276,-0.02038394972024271,0.6827240552494857,-0.3434050155681299,-0.7535401067350078,0.47666055487812103,0.030621631522713858,0.24717897896106475,-0.06695530653153436,0.20272302441403608,1.6331088690410733,-0.04748418626089336,0.34751414000632463,-0.5683923876085498,0.08845507400093466,-0.3416580558607846,-0.019946755130669826,0.9561182588302362,0.5766051583886497,-0.867505525922445,-0.9587268846999332,0.18767510446956517,0.3319819937666959,0.9490183696066861,-0.5143650941530958,-0.049768558955158464,0.37042122897874064,0.232492677264577,-0.2292393186231831,-0.8011838313645536,-0.06719042025953645,-0.7159666731399351,-0.1778506012250859,-0.8119649826690213,0.15820236794242956,-0.38746783849618543,1.0858924619436428,-0.18297656795667314,-0.01825533657730151,0.6271430343315987,0.8276603360494416,-0.147916507165671,-1.399665994814243,0.13940655624139858,0.20487777273512384,0.5112281920081135,0.5534078934163775,0.9614654997691953,0.5291134147798012,0.07081117000853952,-0.6594130935534473,-0.8024674214128448,-0.16986329501500938,-0.17842593086565137,-0.8487364134201096,-0.6125918622076768,0.7905751425378149,-0.02680880863103858,0.2984990375178297,-0.9507150005024252,0.8633054181297852,-0.16682768927152133,0.49194419146778795,0.274489196070426,-0.22564712205938195,0.6176701177013744,1.2555509921875485,0.1963201847593079,0.5326286697902943,0.26395867628848013,-0.7430037215800397,0.301985130573795,0.46536037435367905,-0.2798601949152009,0.23856319036982987,-0.0659416598752631,-0.7359015199951762,0.2911363960710878,0.463003946885384,0.7870007665651185,0.8407786585379002,-0.2016205908750004,-0.6003141508719667,0.2587980861248884,0.3664025986757884,0.005930382544645993,-0.8039138444784601,0.7758846837907805,-0.4802746873410499,0.4434976897239095,-0.9194015340088456,0.5500432023618997,-0.4600301501860577,0.36561494500631603,-0.3332462869733158,0.8245376107081678,0.0045976555158886625,-1.2727578550587824,0.09049847283941218,-0.20603172550394078,0.4128157843704256,0.8646740900976538,0.6250315211096901,1.0188431116620862,0.7189911156166955,-0.5555315887160813,-0.21330359648765246,-0.5515938046873806,-0.8414367736693904,0.4099431103655619,-0.9242212958045791,-0.3063111230538784,-0.3296165984506363,0.3677729435066066,0.5741304669709797,0.2672679996516688,-0.7373718981944349,0.29011501046312144,0.6881967488829992,0.7103278619423211,0.8046628878076068,0.13909665330233245,0.7266975936385061,0.5132958147159657,-0.24656444916471262,0.48336166587442825,-0.5356656978969553,-0.10253077724532496,-0.9340036517112945,0.965229795968737,0.5486833603192849,-0.20191682819275336,0.9757310957816894,0.01901998744622468,-0.04016270050346869,-0.770706490210189,-0.09781345846639923,0.5822196301461292,-0.16134960731362266,-0.265005345811947,-0.846765956272227,0.029663828801303024,-0.05676457046394362,0.8202302399456503,0.8747478721956328,-0.5048318552909186,-0.09986040364015188,-0.5318535847427162,0.8396894639379755,-1.051528489756711,-0.3359155924546866,-0.034775863328243374,-1.1691567879070046,0.4929093307940974,0.3834270451528497,0.8020275249298512,-0.33279666285795456,0.3123133194243787,-0.3076819111943875,0.3161562532422119,0.32881458399413194,-0.19942767364117098,0.565726095461209,-0.11901246320043884,-0.4728858765335809,-0.5668531072563404,-0.35095387992275695,0.8358164461948769,-0.5594853194945437,0.8900651423196553,-0.494566970359906,0.09305852007754772,-0.5808687145189126,0.834527587621823,-0.3847626603710184,0.7843861321822428,0.794122392533065,-0.8443662732935366,0.05409963902469003,0.7105625410007704,0.6367065955742652,0.5708429503481756,-0.6098049428749633,-0.38215442885992873,-0.6256269860000067,0.9897291537066871,0.5047968475559063,0.879195473402564,-0.8339025931086829,-0.6406108466914453,-0.6300505468623584,0.28449537311153716,-0.8280152641822807,-0.5446166292142008,0.8003751232881694,-0.08201674330675734,-0.015567224149068304,0.9160521598617096,0.5517972919562195,-0.8364646905106166,0.8109783455345042,0.21481885126917516,0.672830531449538,-0.853900014964635,0.3862838262342424,-0.9920593386038097,-0.4828551689365345,0.050403249421469655,0.07310858207773735,0.15699643668433919,-0.782043965218761,-0.4402952308687914,-0.3729921035009581,-0.23303605869644384,-0.4242205390790643,0.4747859899800935,0.3865675597198958,0.8808904600401454,0.7719507303969128,-0.47274863367453546,-0.5940645565087023,0.7227277852804717,0.2010162626259131,-0.3282457032123258,0.6564203172505516,0.2800008425933067,0.733764867625172,-0.7654096630466187,-0.690151904119439,-0.6272067715046054,0.4456005375559654,0.032800929340370516,-0.28113485480188405,-1.0845571389132882,0.48137630756157473,-0.42772369196375665,0.8680200050284409,0.9484051204207993,0.35560189798025277,0.6491332189123239,0.5361646507623458,0.5005568868570744,-0.30452905082240317,-0.04701574332607934,0.004371695827294722,0.3634766346014996,-0.2708228477715061,0.2614571989125705,0.5654037770321907,0.6744227826853995,-0.0006436446014012633,0.35179572230994527,-0.5531760879366128,0.30165711556954045,0.9904230555763447,-0.7888244237925871,-0.33614569432760416,0.9338286894003641,-0.25189761889926676,0.45081848813541514,-0.04047052805991014,0.44585245567814785,-0.7355094996700869,-0.0425860184990558,0.07810420442878255,0.46598713846916545,-0.899790620725993,0.8358116030102147,-0.8229883770936174,0.02578530021519488,0.7229933870436032,0.07409866352990682,0.28340230745638517,0.5391954628354831,0.6795330980870105,-0.5224153755473637,-0.9368565019457751,0.2705010827732887,-0.8198803366581895,0.3918413094520199,0.5258299469116157,0.8253864170713741,0.7112824738730437,-0.5681076997705388,-0.6788229056809315,0.42003228727373226,0.6844693772704356,-0.15336050967732118,0.6787027185479426,-0.5222676900263952,0.6683303830829257,-0.5278767455559812,0.01637713449787104,0.977690061466487,0.6762831928617992,0.27074541872121904,0.8601602838577205,0.41358966659749646,-0.07569297223163222,-0.22312980987849607,0.06681257978038302,0.6696580816931452,0.7183102594013132,0.6575479890383521,0.27917459291524915,-0.04184981515354136,0.8085857937242515,-0.3504913620772512,0.2935145563866779,-0.011282296880531284,0.8597883103716446,-0.061501714731769574,-0.7763064409202624,0.9451603140195954,-0.9300159293193307,0.2517061223304628,-0.7313617297307876,-0.5071881262728299,-0.06741553912674392,-0.2767257861771485,-0.5219896930799139,0.332073115087548,0.07411835932046755,0.5584721525065808,-0.22214385845499532,0.6519645396169741,0.9178552462086923,1.014480718911671,-0.8913249549366644,-0.827535898238781,-0.18371248604933732,-0.890223180584627,0.21900416389744137,-0.7404796154177625,-0.3897222146979975,-0.1112450017561013,-0.18692971752309617,-0.04818462067747653,0.19975859925505768,-0.5666021648195523,0.8389935657104424,-0.1586059959584667,0.4817205369631827,-0.3567032699125755,0.48626392864242296,-0.9247730468946368,-0.4381914528911537,-0.3301835695876379,0.8486988201258937,-0.277096139615191,-0.9252258492438333,0.583247247022212,-0.5367679081658743,-0.792396402201218,-0.1457968629547325,0.19469951094501006,-0.13576563302421432,0.9106830357820425,0.9652907157523216,-0.32713929409118725,-0.8344522555069287,0.4343985277166873,0.13474581658352092,0.17863742155833728],[0.19034438134901688,-0.7236797691649324,-0.9649185567617052,-0.6220444710255653,0.6598545095997639,-0.3774086610027048,0.4578213982198705,0.15456134803038668,-0.8524772669422078,-0.8793886789277254,-0.28870538915164334,-0.4518637611864069,0.35801783669949105,0.7294782676366849,-0.6068805019591328,0.3117833872788478,0.20882361366613367,-0.5567033611611725,-0.7550851753160528,0.5158068343137292,-0.8548645380163231,0.5659437161069993,-0.3440197114078969,0.850375782582014,-0.9110439699657856,0.8813326638152854,-0.22482554978936295,-0.8715954060321824,0.1829296548034267,0.4918758660909888,-0.19250061849572653,-0.21996160395331055,-0.8413615369106076,-0.26438804238507085,-0.04173045290369517,-0.9623204300841373,0.8137200327681607,-0.38198813103487383,-0.6372442907775769,0.7627516412896996,-0.17275740623030422,0.3466781585590758,0.14884481186785953,0.641597516367145,-0.034001795749473825,0.843318033878367,0.3267624780300857,0.699080991451369,-0.7708022506395562,-0.8446894985622547,-0.48133047296320525,0.30990425691618895,-0.45806849025182417,-0.9781760616085308,0.5671334193180362,0.8377761162706625,-0.5882607608820731,0.1994360540271678,0.3982786490701424,-0.4815414938644685,-0.11646552313384562,0.28482247687108914,-0.28623000140463045,0.24471590692583609,0.4130093991639691,0.3155658254741833,-0.6667056363122364,-0.695480816451041,-0.32051115623240667,0.9376842875683583,-0.7135861919621718,0.8603905692987063,0.604647730783519,0.21947459657689733,0.5370934676211195,-0.6942650382482685,0.6538019834587022,-0.9048289007253265,-0.4818105128242592,-0.5648275131922114,-0.4799004593906263,0.8736328099476689,-0.08178684628806443,-0.46852046858821295,-0.985275535760813,0.9655328230231456,0.5923081378923809,0.5989521643913358,-0.4019067479162388,0.026249481303758034,-0.7677507849329918,0.16674448251782886,-0.33150886944988256,-0.7501241746084534,0.14294422655342887,-0.13315046827403357,0.6913055569418909,-0.28840840578785454,-0.5829078541255649,-0.457765031544536,0.5769317013290902,0.6424287861273149,-0.9379324085842248,0.5659131692528045,-0.39322494475409225,0.17925982713001012,-0.8712361781476113,-0.11764628914662204,0.49807200734958423,-0.6811967372779076,-0.008826065968226215,0.7094974066797026,-0.2947307727462807,0.04866294073786048,-0.9920003738214549,-0.6967092252962963,0.39116422911802784,0.3477455002437558,-0.2660494182218217,-0.27146776993323435,0.4005597431480135,0.19366370243239212,-0.04350202771673771,0.6983975319244651,0.2928990456569585,1.172120285837453,-0.1787502727808699,-0.07788597148367428,0.9247719753204617,-0.33468320586426675,-0.8031235736551001,-0.6995724614500689,-0.2094890792551845,0.8590883580180981,0.330515595954869,-0.5716264386450703,0.5535974571886763,-0.7043684133809344,0.6214532771061589,0.8759280363011159,-0.7756349992293254,0.8475164629451792,-0.9632903525195506,0.6652408585655754,0.25675325798294335,0.630436358388725,0.3650550083858798,0.8107578461336934,0.7743287758566143,-0.010013937675490378,0.7732592389991748,0.9054472525488102,-0.02601227455430318,0.40806012842962613,0.9507930357686827,0.5222979994380798,-0.21619192190265313,-0.7384820996365569,0.8448489264515096,-0.11053998427309626,-0.5088924704091666,-0.276502377032017,-0.7131187077569714,-0.6276916112083418,-0.22793751878328752,-0.9599473313947796,-0.9540492303233639,-0.6334107355198568,0.5561324831533703,0.4945066372470938,-0.9606712635661477,0.8094793124609178,0.7273674291671298,-0.8252782700676614,-0.563929285506342,0.4596339567729558,0.9213226118598173,0.1918386890176243,0.12381817811694132,0.27730599413390467,-0.5729030228916883,-0.8495841947284772,0.14129917938241413,-0.272992475851787,-0.22675376139660205,0.3941701347552209,-0.15335993957739613,-0.850338431573629,-0.9150698828822545,0.8404941347248436,-0.613220298998176,-0.2035719647689991,0.35599320575962906,0.39614765674233304,0.19765655017329561,-0.6333737034528067,0.5905334448931998,0.01359258842439799,-0.6266746181945375,-0.12564161820309636,0.8815170477487171,0.7640231840200906,0.012073305811918728,-0.738913971568942,0.780040752763335,0.11388289299810078,-0.42167070272384816,0.7984410316300913,-0.9859464896843496,0.39896609858987425,0.08692599559670348,0.08076826927080924,0.39932354867956965,0.5921280559584455,-0.21187239518051196,0.7582204502790436,0.45981581009572187,0.7441542054781374,0.22472564249218657,-0.17927629569342213,-0.17373509427290576,0.803122037979891,0.5669784819575148,-0.12164311209673434,-0.2629595965812075,0.737360944042844,0.22735484571384554,0.6720063360299826,0.5869984043852332,0.19133732567513892,0.8116142096183292,0.9010704525102333,0.3986849019363639,-0.6568445598155859,0.8983878775677351,0.8317679964845167,0.3509996557467807,0.1711481588340191,0.08776937503739653,0.5658070652809266,0.29048097210681295,-0.5151615543961999,0.002767964327876562,0.4554946678287674,-0.1379647551707865,0.4978467098904365,-0.15744438378779235,-0.09029320211642157,-0.033972097907421846,0.48292890731133997,-0.6669803912160743,-0.5444446948420629,0.6267086453700041,-0.47562234200990233,0.80689841863339,0.13177446093711226,-0.612104367929214,0.710479006565898,-0.2066590078688948,0.024555349425446786,-0.2906933109382544,-0.7145447771271554,0.5234405237480085,0.12220127710169759,-1.3289477077473086,0.44743641135296985,0.05459052981055009,0.9155601973014545,-0.06570392333257333,0.8332201983807753,1.0156193640052695,0.4040862104412867,-0.15789931166769994,0.7511049020813221,0.527512908550291,-0.1417194188711729,-0.9163038083814797,0.875301561183159,-0.3707801400041549,-0.5735236074678212,0.3982648470582655,-0.686172278289593,-0.5826391654733923,0.5792241612575441,-0.21077076041987503,0.507199035556682,-0.15837029190475926,0.059889287983777094,0.05457747789866506,0.20650218688702615,0.2689788278916693,-1.120499247569612,-1.3672493290789125,0.6082854079097378,-0.6325345681727622,-0.1473899229126704,-0.6023903278350358,0.8129098314586147,-0.30892794101211396,-0.21716112826698927,0.32157733515088316,0.700494907328782,-0.6388509218057288,-0.21452333836378157,0.45253336201791616,0.7683848264829645,0.5911361607133279,-0.5649129297062794,0.6118152059991914,-0.3321055270717802,-0.6720247028679817,-0.6448183378511727,0.5844403109366759,0.3846597054401107,0.5937776567006865,-1.294186400314528,-0.950011774390009,-0.8698668788022578,-1.7144543162627308,-1.3777197355783384,-1.4522883364671941,0.5074384193642092,-0.12754754084455838,0.3922439051624464,-0.16695942958521418,-0.6994147933079027,0.19567059908183487,0.4462003539799975,0.11798436179769793,-0.21276824697609514,-0.8765830222899427,0.6078925883514871,0.8910632637407779,0.9430809591897136,0.36600869337259617,0.5052658209341203,-0.01022606454833722,0.932377163457847,0.45273972146876784,-0.7527868326477436,0.6445715330902514,0.4147541700840371,-0.2098071697989201,-0.18747291561321122,-1.5284769853945421,-1.3286884779272883,-0.30885495563526616,-1.4751963667065446,0.41014474540932644,-0.4066160027780753,0.515414056656064,0.5987173708633223,0.6880002235683506,-0.482674894498554,0.15392913082135795,-0.4867028500997088,-0.4139507026747665,-1.036399213481006,0.7224589910503977,-0.3035701066158731,0.008684918075816324,-0.32994933107314534,0.01776827418971383,-0.2481005538756754,-0.8686006375400745,-0.012526661466095133,-0.0281453086888174,-0.05667619562098536,-1.0002898467121917,0.2656155441620543,-0.9784620822987635,-0.7314288789960925,-1.2330384696345684,-1.3090276024755294,-0.3871319929671433,0.08732472622183673,-0.09906460502183963,-0.7283420802266224,-0.026618417496495527,0.41884191442259955,0.10271898471559136,-0.0885040255614221,-0.7731638211981016,-0.7840106030328018,-0.49221079720911054,0.01993866217217132,-0.22411181045831471,0.6373021555602748,-0.8720637429659382,0.8620308428504446,0.4566886475894785,-0.3885223555057,-0.8352685022175605,0.2613636151669294,0.0670453940829448,-0.00435811672995569,-0.6307520897733654,-0.10097878790174994,-0.5191785615650236,-1.091284463701559,-0.41830357454609424,-0.5610555392251564,-1.0859425000860157,-0.8888577812733706,0.8251964215655962,0.7306056706135093,-0.740513456051558,0.3812913394087342,-0.9040523717137623,0.545816100496407,0.13101556839761838,-0.1530031049841073,-0.14102070658597585,0.16964542610360459,-0.01900687956752466,-1.0135468784410535,0.8523503714093411,-0.1836463714738154,-0.7722414662183936,0.7467066107792835,-0.03286103885990577,0.362353085812175,-0.37004405086575215,-0.9747426579830445,-0.503122850317823,0.28160750958284136,-0.12881557210644315,-0.2674005218631272,-1.1345442733348632,0.4201849133674901,-0.3364130804411654,-0.6379219349394898,0.7838641087878169,-0.38932224497769946,-0.21781313193599436,-0.31387303913201964,-0.38986106811670745,0.8833060495561964,-0.38639607602818316,0.7499978345922708,0.3308948796536568,-0.2506230107683587,-0.8428791710210536,-1.02589066716659,0.7664253033821875,0.4992493026830351,0.1417978915754177,0.659484255444275,-0.7898910645867014,-0.3486895311240572,0.1270104538042615,-0.4058940024528554,0.272733532105852,0.4398519053416979,-0.0398597025296595,0.46597875254436993,-1.207973107691762,-1.053077603446061,0.4776235484512487,-0.8800852861606718,-0.2286713457925187,0.8154533206088245,0.9308033173074642,0.7971385047285918,-0.793836865963152,0.723040398818472,-0.5327850201888433,0.41622009762154666,-0.4738889662450671,0.7400744464288276,-0.6295388896023462,0.6920379962401837,-0.4492458851613027,0.6382797762296842,0.6014428102836361,0.1241145453046113,-0.4757126964691867,0.7490597354295422,-0.7429852759778508,-0.6543010005005756,0.5956780457814161,-1.0662134185414758,0.3492884446273235,0.23742355379151397,-1.065247819099995,0.18735516696498622,0.6164778808415009,-0.2048316550696282,0.9893404150088655,0.9503705557677735,0.330058980297656,-0.21592952634671142,0.4808267260354387,0.20671403400499808,0.5936817786971945,0.6063446862586794,-0.9959727156057344,0.21286247528897312,0.28086827028886413,-0.33904237640948803,-0.6465229982258037,0.981644901088536,-0.3977659230531921,0.13849373149486177,0.5238542610121055,0.9965272603470553,0.5355279672404255,0.10386642547107963,1.0255474059502132,-0.25581311955270564,0.879640859182588,0.3424110615473449,-0.8829568385639017,-0.6764824174143372,0.5699013605549285,-0.6394576843949143,1.0095603765279253,-0.05868436865915923,0.046056008585240164,-0.5510179884916968,-0.08395253815620304,-0.2710307259301173,-0.31196602444129246,0.18587815003436162,-0.8617411774332253,0.5664174190681117,-0.07311323694586938,-0.9176781914060851,-0.1234622740501666,-0.8891532694348686,-0.5938456327064132,0.5110048730660579,0.5235327521323903,0.7783853772953191,0.14699945901481423,0.06772707571544409,0.5875238874918144,-0.8202656507058904,-0.4147907759533819,-0.08378706798988607,-1.0391463629013027,-0.3734741019724092,-0.49447612147973474,0.8406609795470652,0.757626479926525,0.8832388531541548,-0.9785252355239232,0.11616615961833737,-0.613495878174253,0.7833436743642164,0.10150083639486154,0.8219452200277051,0.2958547301611794,-0.578708454286972,0.1457350889421733,0.0610773486219934,-0.4494236638319064,-0.1497225251906767,-0.3114065612274044,0.4439273566068538,-0.4477318299770132,0.009762237473681212,0.08773705075666507,0.4937888804110128,0.09653975744446748,0.3552218234584966,0.05187056642951685,0.5659908688220279,0.5677587233322462,0.9453962513563972,0.491283686018271,0.30660987318020827,0.2943218065563119,0.42680011622482583,-0.5739685339483591,0.46034511854832966,-0.17805635062304806,0.16712002084616465,-0.029407796207756486,-0.4692145241158719,-0.328248313688089,1.151547117285022,-0.4728188142579824,0.6322096860750134,0.9915928683648537,-0.47107493629530417,-0.5597217636100356,-0.3039043913114179,0.6994883394263574,0.38283983561602786,0.681472137085237,-0.25321355722059635,0.18303177999793094,0.8813950485475527,0.8944299072166254,1.2338251284867425,0.4410069815226438,-0.4720770696001585,-0.5111685432199062,0.3835886286615457,-0.925865451589888,0.28006866822488785,-0.6628375242456241,-0.8513741551534124,0.2313583049217635,-0.5959475826973392,-0.10926380372652889,0.7784527784596132,-0.408438966096529,-0.737169846184383,0.033353637456341276,-0.19521387219662173,-0.14302398605029878,-0.4711299964913968,-0.6856490515209752,0.20769960945074417,-0.8441508567021125,0.7964939410680396,-0.6217897126949599,-0.32316357013466773,-0.012772077900293553,0.15605274048442871,-0.43754513753415974,0.08286342707448749,0.6701231948508485,0.828359807122473,-0.5433932200315703,0.038377660303657406,-0.23827450356271257,-0.10046115764327566,0.5016397605857734,-0.6097196158113419,0.9194014054651067,-0.7806981743316186,0.3540414844408412,-0.8625678742473922,0.45321502489347,0.25242098423110887,-0.507039844146055,0.9998741782889432,1.0108796908675632,0.031893835311083626,-0.06108004743731562,-0.5515632464003029,-0.2292501600283452,-0.8798387623494672,0.14682995687160502,0.2664895266595568,-0.5046535434992283,0.7125935228123078,-0.7557810381423418,1.1367295668151414,-0.23380754270378992,-0.45297302856689553,0.6846890205668413,0.1482743077903511,0.1165126474267464,0.560726620239744,-0.009510417439301899,-0.06516883656273167,-0.8264575967937743,0.29257018403418916,-0.10729978473528679,-0.36295068577345513,-0.3984416250849701,-0.31697789040414026,-0.46798314461652696,0.6148594519939312,0.6503422939178441,0.8423068329468546,0.48511242088437445,0.3260512434328371,-0.06729422101137272,-0.37047189599811015,0.1817148484584071,0.09962307535275888,0.4291138787730327,-0.7270350476639101,-0.3705624767601051,-0.8609229551142109,1.0678295071701571,-0.4203372251886107,0.8842668961294909,0.05726506605231555,0.5441728104209457,0.7400847306211545,0.8013668682237675,0.15883390396344702,-0.9260317125495685,0.16420972291997923,-0.07608427101915702,-0.07313952880299224,0.3241166922379812,-0.08845005280725979,0.07867152990554617,0.5870711073909157,-0.8465951428710685,-0.347007684087893,-0.8134189073778599,-0.8525364897525884,0.675901808383617,-0.9360478496087544,0.19713632991736563,0.4875887969095647,0.4817670173809548,0.4885876680480034,0.4941631985123195,0.9400956768115928,0.6891292858707169,0.10121038266928992,-0.6178097419249321,-0.08958901436389395,-0.210671392221957,-0.4801241501340733,0.5455725896692838,0.5485129898232286,-0.9287662622721827,-0.36810112049435684,-0.019567599406723254,-0.7474751469357818,0.8485477491483533,-0.027800047762114345,-0.6073980655479859,0.6433258538275018,-0.36597731177740916,0.2921396462299155,0.06567475687972335,-0.4732104699332793,-0.8521897992956398,0.4238693492155962,0.0047637417844550445,0.06975790761455114,-0.4789293776199322,-0.47234767256109805,0.7878946181474266,0.9719809605330729,0.748355547281078,0.11030906578209036,0.3771403416709914,0.2948506674815662,0.6825010857322117,-0.8826694553122719,0.6573949853526713,-0.4245216464355913,0.48630652926957035,-0.6472933003444766,-0.781417331011989,-0.9915358323726776,-0.24031262265589026,-0.21193499279394573,0.06494850289843425,-0.6508192991555579,-0.987514891723878,0.8542424968420466,-0.03435285978662028,-0.40558903876040175,0.74453978665397,0.35872464838686935,0.06979311400643118,0.19171791302897412,-0.10952117753317636,0.40764560277698786,-0.6747826779319998,0.36959020318610125,0.6868818531995927,0.7186255163399101,-0.5621818958727944,0.1923748096008676,0.019452521315525082,-0.28019213827478995,0.3872960491821389,-0.32904371863770265,0.8005988683531459,0.8331229838585451,-0.8691376119279116,0.6952668942907319,-0.7852979703910468,-0.8838276826407659,0.10540033853053993,-0.4701541429888436,0.3807131465374902,0.780635236439855,-0.7579977308705221,0.754580810554569],[-0.1644314368304005,-0.9099708763738736,-0.27686872409048013,-0.8710404238871983,0.7720190067840749,-0.1187255654404218,0.8462678183603696,0.01990868938860557,0.179023963504082,-0.0025483161091477413,-0.022797945457806224,0.24654094078344824,-0.6952357815804535,-0.442484874155298,-0.5308619892679081,-0.6373685961681419,0.4456957356748963,-0.1492112948856248,0.9092543289482844,-0.9517405687764822,0.7698475210111724,0.14398110498973415,0.8802888458166123,-0.03955506991410895,0.19222797028484884,-0.66199754729596,-0.8852679634727232,0.5820150471029009,-0.93414714922942,0.042739740252575986,0.0687038555359305,-0.004296956549637132,0.1320453373808692,-0.5436969746087807,-0.4581547677192641,0.7462869340130167,-0.9247492654519844,0.6186870934636157,-0.7294396571306769,0.669991124235634,0.854272313215769,-0.8394583967309737,0.5864908701507059,-0.3317618712904395,-0.5621830588303653,0.94560612595159,-0.02475592655863812,-0.23801212559316332,0.7912695280785875,-0.9125086900088442,0.26578893333219766,0.7915951740043858,0.07114954858567635,0.398686795388306,-0.354767543859964,0.702033893607412,-0.5365624851763515,-0.13250800636336035,0.011374912079662236,-0.615342689346464,-0.94843948279225,0.8310601361593164,-0.43105708317579583,-0.7055080128646671,-0.47233521121427696,0.5042889972659256,0.945184009898651,-0.1218751590918576,0.18465079412753616,-0.2560272699543941,-0.11811034654544612,-0.4354086363416341,-0.22058340418945044,-0.42187159412837727,-0.4295586555278544,0.4536264411302519,-0.6572643379354628,0.8491095929753814,0.8841960838739289,0.21304710778758904,0.5199504842722262,0.9768638697650828,-0.29764467126404504,-0.8414516883792011,-0.18270071350502423,0.3992611733273097,0.34021578357449234,0.7996547271260466,-0.08885236614575298,0.07151553719644728,-0.6861725215078901,-0.21989483313557023,-0.3900864264694562,-0.679105707768195,0.07122153427060564,0.9331667901589342,0.7050265156223399,-0.4513384611843945,0.5892026230674375,0.631731197599869,-0.6610962424482191,-0.02479001734197603,-0.2954198691544601,-0.2921357007263784,-0.013822271813287578,0.9061859015632053,-0.5227278740686828,0.8853456895936128,-0.8448429492312097,-0.4004588972593262,-0.7938574983453226,-0.18005532602762586,-0.772697977556952,-0.6085830926949674,-0.5778832681578533,-0.897951516943917,-0.7397445836565741,-0.09651718326534585,-0.31226032602972215,-0.5565952130164327,0.9427292806809212,0.04224390890301329,-0.18937799983666925,0.0068209578891475124,0.3988449194305397,-0.8815720329454323,-0.6834973694177278,-0.11669025424544142,-0.44720917242427627,0.6376990898147439,0.2526443382498583,-0.024613926141925327,-0.8009203197267143,-0.950991822338575,0.4957155034569755,-0.11831088666885764,-0.2836653052106128,0.20233171520387488,0.5992749356007898,0.2930088744861403,0.30290954206769793,-0.6509899223775404,-0.6688510677751767,0.6277569980009292,0.4599774285656054,-0.3104799538639776,1.0215125697066072,-0.30778743946610854,0.3716234293599793,0.8741137406211459,0.6154330966883109,-0.6383821575173445,-0.32986634692433797,0.3567635041091301,0.6136767777211808,0.09461139230956858,0.5049054337957801,0.4462409370850649,0.633916826024054,0.30350955584252953,-0.4462290176831132,-0.2013654975879819,0.22248364432834425,0.6690510883252219,0.7836492044541182,0.893668499764459,-0.2644894476482301,-0.5869529444152768,0.3763273774038898,-0.2686439977950903,0.3592142169744334,-0.5377595732537729,0.45698427653794116,0.7160240547221919,0.6272367516953457,0.08467245772483759,0.9538911184468003,0.7638520773422034,0.81582333246625,-1.020287379692342,0.5132292772325184,0.6266295598162417,0.8249221914136394,0.6014789767532236,0.10463698832096499,-0.8861882827989734,0.25233932287108196,0.1019628491485784,-0.7009474405605972,-0.4454293066404899,-0.47733986682626434,1.014127551243693,0.31875715961760454,0.9737714570410759,-0.939686173841905,0.08077119906145354,-0.1630781204378524,0.03381472282785159,0.20052832009442415,-0.8478561321314414,0.9148634489473676,0.021249153291515655,-0.14807584280548325,0.04058419101883555,-0.7065181616928395,0.8478977006207625,-0.5117810827047355,0.9264812095345171,-0.6435641588484279,-0.496274863928811,-0.5380185406273099,0.6460358155321938,-0.6684950250464976,0.9448524608350766,-0.12711592646268577,0.4982678858801312,-0.03576550092008053,-0.7074133510431798,0.3418003573217803,0.6741296679363019,0.7778215033078021,0.30794372083460025,0.3148952419662872,0.7167529926755123,0.6805746852836172,-0.6300936525973002,-0.7862590825145164,0.8455218022451021,0.49811921586064223,-0.7145186402414345,-0.2747959318682489,-0.7505133139153928,0.5142193871685905,1.1549712725990477,1.073948520355152,1.3176117474872937,0.9437410722554539,-0.35516462133947474,0.647812145558414,-0.4589081224875312,0.4537583970449641,0.11869420251542331,-0.5004654297140961,0.15809395218315428,0.631421664800699,0.45060607125083896,0.6407808189586525,-0.31854107319556935,1.0061131488426645,-0.24556281176163172,-0.5187144899804771,0.8952142832724388,-0.29561488416835724,-0.022741850770576444,0.7043716168165369,-0.8018001932960584,-0.5308900582170698,-0.3203009213796111,1.0014336886503363,-0.12457255679293901,-0.6754882585288179,1.1362336979774974,-0.2540825867355037,0.26640151590933975,-0.24073848237274956,0.5660925281131072,-0.7206970097180281,-0.7653629646502506,-1.157241119562826,-0.7466074480855995,0.6191188504001934,0.20993427285283278,0.2539367022818979,-0.5402442875512604,-0.4542806458001683,0.2863169661462889,0.8358410680360501,-0.8540401201051822,0.32788828370823686,0.6240456730673063,0.6581027478145476,0.652758567302435,-0.045465064084133984,-0.8788535043569763,0.47447082291968273,-0.31898394282977,1.0284340504617637,0.12277265162729681,0.38991326960956363,0.20706027448286196,1.3327601758941108,1.38021345552131,0.5734890152993333,-0.23916314068746958,0.49472721629068833,-1.0553131666846973,0.21070797617660822,0.7937113454976499,0.8214327762429066,0.7665767323611694,0.5415116090596361,1.1490089778946617,0.7548898990674946,0.5597059254318137,0.15977823990205087,0.5840685109127066,-0.18167626487122898,-0.8450373167100749,-0.9927752147302288,-0.26352511231532305,-0.9475584348058412,0.20927504383362389,-0.2638958047294891,-0.5092543920223552,0.019025574357655436,-0.07896460313197105,-0.13364902615287205,0.981272426919829,-0.06714844113205257,0.4408102356462377,0.9398605575938963,0.08027437497922908,-1.2047859561751824,0.3591183725083126,-0.828490663897035,-0.21217163654401033,0.5611737267901755,-0.5753189521557479,-0.0003777885420190811,0.7714274923764367,-0.619871371230015,0.9151818150153289,0.1636515684757168,-0.5854432234168797,-0.8593034134082762,-0.1935716646569883,0.9706289424208376,0.7794957982349093,0.32203288105024297,0.013664131103270414,0.2040373148147747,-0.028768813679330058,0.43481965372055076,0.7569950038840806,0.25761634305354225,-0.4066285795959929,0.7675830156068036,1.2234435815774558,0.6505756985045144,-0.30435156908166144,-1.0925959608988376,-0.8731475714815397,0.12289817783405793,-0.6867856326843319,1.0236822617460222,0.15947114173737842,0.3163361509987875,-0.3103817577035119,0.6410246448454665,0.6907791258994993,0.7086855955388791,-0.22560880515548878,-0.9344146994255057,0.7707852785960689,0.9825036238650012,-0.8995110990960435,-0.9021736776436622,0.6121687681291685,0.30598654379151724,-0.94216057440952,-0.0809103366364074,0.8768813941582354,1.1415323979281002,1.1807861632755832,0.3935510123955937,0.9541296796469366,-0.2488697346594729,-0.10663714108819607,-0.1612380614097471,0.044145764612974016,-0.3151617167501389,-0.4641289112032227,1.0119940135471128,0.05040815585083582,0.7851673302234875,0.8039553821293244,0.20283847000896166,-0.7414207395184369,0.538841608442334,-0.6056308611072414,0.5317054764553611,0.6755573513266682,-0.5913500973807329,-0.6474435053969441,0.9165965216781838,0.4560946339280426,-0.7908710762906525,-0.9615556975392835,1.00283433467269,-0.46522663849807067,-0.8389264336809961,0.5118910646234331,0.036864704579533024,-0.37063615507664005,-0.336209256875482,-1.0580232262628035,-0.19652919089223667,-0.14683873664122604,0.6024156448587968,1.061834062922814,-0.52433492539242,-0.43689667781061703,0.3170691451764876,-0.14150484628827284,-0.759024372534935,-0.6706309873246908,-0.2680344727748487,-0.9138019205361653,0.28542322539286347,-0.7602484334753563,-0.6510958822798922,-0.44826808876671786,0.5012454852878591,0.09070561998485935,0.14374634840502815,0.29035467954781996,0.25278387903799854,1.034635598947121,0.35246423936993254,0.08088426855422737,0.45771617113407687,-0.17819222277277308,0.5369355978092736,-0.45699587019067345,-0.5534152158271723,0.8824547444550148,0.6961762530016602,0.5552855748819419,0.2865634334788422,0.58044058868469,1.059037048600988,0.4330292871666329,-0.1465554468681186,-0.06328895897026972,-0.9072375759749943,-0.14358718200591197,0.6130599737969137,-0.2493246859141142,0.03401604585214968,-0.6411435913519199,-0.9735565178825782,0.3235503948580535,-0.7146479026622944,0.8438700172954988,0.587041476974628,0.9291102381390296,-0.24408951860619124,-0.41060639103564966,0.44310227569331617,0.3335589182178994,-0.1921229589508119,-0.7575687679938421,-1.1627945016339238,-0.2512617088054667,0.635347784693137,0.7389032761673785,0.8261944345369754,0.4173181523957823,0.9261386491207824,0.7964640116788024,0.172997646156521,0.9967743961087441,-0.959627876275748,-0.5613018427110998,0.48371200168351586,-0.17970033741832378,0.899187314390878,0.5803315550815812,0.7259779907378874,0.6736572190916849,-0.5097159434119852,-0.3070065912806779,-0.15295792953872592,-0.02124515739334016,0.013160387999433844,0.3733399881731724,0.5549118138466763,-0.6357502114898939,0.5138856623080904,0.12989660147291546,0.4734193299747641,-0.11608008360469275,0.23504680202702993,0.7760087066176641,0.07043665341045163,-0.7364020582482852,-0.7644469741884762,0.5401951626484662,0.34148977425582033,-0.6563809880865643,0.9033146068945745,-0.8729089681736523,-0.20609224499734502,0.14927879812538813,0.4078053534388959,0.955621948649856,-0.47813450254092765,0.7377584355661116,-0.5039748340478173,0.5511781594364861,0.5009015275343534,-0.8056003412700234,0.07255815984391971,-0.031698538003505375,0.3434055762256199,-0.6731012644879598,-0.5448990067080277,0.023786149162245068,0.5112527740293457,0.6785981043025388,1.1742735240955353,0.8383333618146491,0.8829920763804803,-0.30240341030417917,0.731995621401175,-0.4988235641246508,0.25082755948813845,0.9209801525246292,-0.6416612533880189,0.16173239774710946,0.02754067076222658,0.9769281608650561,-0.5860146752295923,-0.14910533969961315,0.6769102535169303,0.6019543887225633,-0.9088240380522863,-0.2594862818587103,0.06848296634087916,0.20758898361006087,0.08159123760207553,0.3166023014815603,-0.2783783973504397,-0.22973352849954773,-0.7781539364019568,-0.7570656126222275,-1.0859189233962538,-0.06521990923386889,0.5335928729691825,0.30008982199113027,0.7857654848990646,0.6521378556201198,0.7825320656321508,-0.6286689034299543,0.6327412311751672,-0.5700791703694006,-0.6090035301070518,0.15608616555785698,-0.35037529549127616,-0.14238164125078118,-0.10188615193450444,-0.3782387804414875,-0.8727467321817123,-0.889309801127911,-0.7570220879384365,0.005456759722649829,0.7586011415138366,0.7492421575540243,-0.33373640679295,0.37769183654160177,-0.4516357707074897,-0.71487995090742,-1.1389833483959935,-0.5651508381268805,-0.4907801183059777,-0.5004075675324245,-0.029609710048998424,0.8859418318570158,0.10703798500171124,-0.01327391041027736,-0.23233688312677578,-0.7021948991044129,0.0009519837242960775,0.4430090234124979,-0.3249322899306659,-0.16022756149394254,-0.3384744629280771,0.027846644733638515,0.2227424354584726,-0.556639882816176,0.4132712988878938,-0.39693227232911527,1.0139551234561528,0.34354504517924656,0.40246523525924216,-0.747791476531304,-0.5271384177158146,0.5768078899236782,-0.5383214969971979,0.2775671268426769,0.1217692711378655,-0.36295509886732413,0.6007100679517187,-0.6646522867197883,-0.3562104645380839,-0.28243955421084904,-0.04770130525353511,0.44211524715581774,0.5222303784365933,0.11323330922676585,-0.8248250331261424,0.059843052099057784,-0.5243347538168146,-0.88278876167282,0.019155118032293937,-0.8692772800520412,-0.9660753802160652,-0.5281917305516912,0.4763564239423546,0.17298577710737514,0.013489806596155039,0.34544954178078985,1.0387612944177085,-0.07108583361757495,0.3252263757789248,-0.4759467881104587,-0.21323030470999393,1.1160747484958293,0.9649549167980087,0.019270880857422443,-0.11517507825664076,-0.542266687285391,-0.04266093854551793,-0.5482010847752176,0.7912585951365264,-0.5773880000810802,-0.09620310073375579,-0.93803185446413,0.5983459718035079,-0.7806922070365249,0.6122692003415408,-0.38499773086125555,-0.4647450034382446,-0.4842689868466499,-0.6258824799950939,0.32049658371745515,0.7754823262534132,0.10844851840515346,0.13352256721920366,-0.6934193647493057,-0.6652784784439653,0.49310338918772256,-0.07239832734899969,-0.33007098109705524,0.4746371412087023,0.24079009570133628,0.5510221592197437,0.22788185013926132,-0.5842484947024481,-0.24769307956741266,-0.33325249595788864,0.39696297940765535,-0.264792175520059,-0.19053974012985042,1.0948069227023913,-0.5724925743465105,-0.7869003544723858,-0.22974383681210958,-0.24851981364263911,-0.5051905854227264,-0.9829237431749254,-0.675697184417374,-0.27384352908443765,0.3371029599235096,-0.7573219063191565,0.8888590042077222,-0.8269702272765301,0.4962089192235358,1.0423423757742438,-0.1875265028743977,0.8843853589299026,-0.5065118578010843,0.8788062372831233,-0.09022898184210659,-0.5449305785129603,0.745297810163044,0.738096826274077,-0.49639405095627087,-0.4993911131888814,-0.7251954556625285,-0.9040876474170999,0.46061081552241867,-0.28318525089875307,-0.6332693901041387,0.24739106706650427,0.4615336337374664,0.0182761006511738,0.2956177328277576,-0.4986023732230016,-0.042696684921847305,-0.8731186094663381,0.321096004659162,0.2182023534305149,-0.08735909847824702,-0.09886804775763258,-0.8935324705626417,-0.1931938567339286,-0.6852082942518236,0.24124512035325496,-0.45299010192397743,1.0233610923224512,0.2994852365466434,1.0011055135943752,1.0264527226932656,0.5456565844114811,-0.5865036350807281,-0.3959378037627323,-0.7220190049392171,-0.45647553132067126,-0.2076585685942514,-0.49075594823192814,0.4111141161604407,-0.6362503894168121,0.5839237608421972,0.8932579187884679,-0.091839861308177,-0.0031156342689022676,0.6312495641604634,-0.2638944863814714,0.9569234647474468,-0.31950781541031703,-0.4264646220269228,0.8001563894556294,-0.40227348222646925,0.3133151812918272,0.8660609189798719,0.3603559996404345,0.24621077551467027,-0.3850102568228004,0.8517808213800802,0.802391100171717,-0.6951942284661593,0.6834052937543258,-0.9156211652327666,-0.01989921854493089,-0.23611126568502944,-0.3727506590978148,0.7992332549586972,-0.42544083838150043,-0.72328602966565,-0.46226377021339804,0.543426283057342,-0.0768926221650843,-0.12824116663924978,-0.2511883820169598,-0.376251363022772,-0.1016415280396763,0.7026365743338336,0.24230584655001983,-0.8791837674338288,-0.21112003818601344,-0.08918382729861629,0.2040161566408796,-0.5422981266265812,-0.6909993257993021,-0.04347973867082189,0.9780936386240676,0.07112737739930242,-0.8505431419482659,0.761909120244069,0.32544391020709557,0.7972410435554294,-0.6299650192548331,0.5900277496732732,-0.4748049561982204,0.5325900473588163,0.5773569786096031,-0.41727791285056304,-0.9511367043104102,0.12213614021699826,-0.14641016012874575,-0.345299549809728,0.06494844154920454,-0.9430933571913838],[-0.5013842231937404,-0.4242376712252845,0.6879011624773455,-0.946558933000038,-0.7498176801415004,0.2327802188818413,0.8577124256808766,-0.6132873334117284,0.23915205130986816,-0.09702910054614187,0.9239540603120672,0.5518586615946455,-0.8536460747496049,-0.15904275120340916,-0.6276962242953523,-0.4190320969579688,-0.17592109032472547,0.4003309189829949,-0.8272471774772043,0.6372895765099187,-0.7751500327254695,0.18777118175002405,-0.957924355517458,-0.4670678928191436,0.3359810176996758,0.7461880962960765,-0.565941866188207,-0.5954531357049295,0.6917809558024606,-0.34950589628641393,0.2850442413144145,-0.74700007261678,-0.5700023674343973,0.8563693090074986,0.6485027548648812,0.8951668350166468,-0.9708893065056012,0.51254829085481,0.5390236404117695,0.8638278987131696,0.7882833990198184,-0.9236665610907282,0.8180243647209962,-0.6399527480049474,-0.6281863354077869,-0.6739134097949464,-0.17220830547906485,0.18533200788612203,0.20810765740713877,-0.26078380540197243,-0.28570834128897427,0.16033296835149202,-0.39484639312045267,0.398690475646337,-0.7772646231585392,0.03987702666265469,-0.7649550226400492,-0.016361009371230972,0.944793053616767,0.9428006991595456,-0.9683939772024772,-0.01111740300980446,0.9936366075422158,0.05304675237185544,0.8074135548274776,0.7140859864230799,0.9121913882179052,-0.29502068352466554,-0.8152470493281307,0.6810975575652286,0.18338495559723544,0.07917075655030169,-0.11951967280196762,-0.10211715593051013,-0.5757984591786602,-0.27160095856763605,0.3711068467311766,-0.044895458210629055,-0.2875480028383064,0.18215408402560307,0.5526949343214089,-0.7568188191448739,-0.6381174852684128,-0.7766811432331318,-0.44451045197207106,-0.8634059229265558,0.4905740163166643,0.538526164857994,0.5368639582444621,-0.11089029909241122,0.5561693125583138,-0.5996694917422277,0.5863095180148031,0.18764805958776098,0.7881209876417716,-0.1998726989998349,-0.5910052140116658,-0.798033205396756,0.8374278696881523,0.3797406941560644,-0.4950047738809777,-0.07324508717393359,0.3606965840069225,-0.5888668230400164,-0.5843090609812297,0.20808161363850441,-0.20309933198276353,-0.1594271045173301,0.19640467235202672,0.4654959783370063,-0.46227098177579373,0.457494351958464,0.12526223381191248,-0.4203037408946022,0.9755476375882108,0.7569272148813795,0.3948808858921696,0.3279664278876294,-0.7131581057229249,-0.8759373269461533,-0.856278565384725,-0.402263666121435,-0.524283908552613,-0.39964963055699537,-0.09906490200417256,0.42036286465843953,0.6508154592701292,-0.3282610930585932,-0.4196192473122776,0.9083319906195467,0.2627350263933607,0.8354649784727897,-0.13395248409437294,-0.3655232251138557,0.23560625887246767,0.6893881258349037,0.2815798111026233,0.7767758549678403,0.16687372223335384,0.581777124994522,0.10842595083745564,-0.749117930014886,-0.5804509593360596,-0.36606780595922017,0.996934133119273,0.970452305742132,-0.15014130579000487,0.8731657555297251,0.26375825325284635,-0.8135413242210925,-0.9816570537315971,0.6200522904440195,0.8650995837369139,-0.8008416076029248,-0.031251285790487464,-0.6629847129525037,-0.0527153806086481,0.9809249459288067,-0.756300821114892,0.628858930333472,0.4336637373049993,0.961175653807134,0.37696266448652566,0.6772298032881985,-0.0006927921237300775,0.44219092089692774,0.9960279616343528,0.6526087130267668,-0.8202563833438352,-0.2698847831873976,0.29773543211434106,0.06219456984726968,-0.8637520283780681,-0.561667077268842,0.9704721243921542,0.04392726248899688,1.0315438491035978,-0.18110253862657227,0.7945136060493496,1.1221794592014938,0.23790625089199846,1.1167111791085897,0.9287614471841431,-0.043309500441220325,0.7951427891688637,-0.4921565290263176,-0.3244015371372312,-0.87696781548587,0.5688243576412143,-0.14400266189793856,0.6104302710119034,0.09714604867604132,-0.233041868775988,-0.7693650901501604,0.8982802596656383,0.553029551285809,-0.3936471196726954,0.8070211485176626,-0.6117705178500947,0.08758329787535171,0.37429632470600566,0.1537432071263012,-0.04043012738228972,0.07493465459526541,1.075667704499063,-0.41413974317509133,0.7481043309551486,-0.28349717794341484,0.31340104345173775,-0.5524576804775487,-0.14659167435638157,-0.6836641881464092,-0.17130022433597686,0.8342512908478549,0.0007338744155129067,0.9870709066852874,-0.1590350847941223,0.17687206273821443,0.14856127250840903,0.7804789544166051,0.05454053039197182,-0.7574505308919547,-0.4107471103473787,0.21703290224267802,0.12674425782765453,-0.9662824056000698,0.7424210585125621,0.242564424829397,-0.39402494178704106,0.906146055452088,-0.1734064264710196,-0.6092675847015734,-0.7250130576013195,0.6719267732182402,-0.2573377925726617,0.25265333957694897,-0.06290637825188686,-0.6924600669302213,0.3210862300007919,-0.6003685607268164,-0.2788395805964284,0.7813261382533071,0.33068820190483245,-0.6157270191245408,0.22373257702089333,-0.7428119333717266,-0.5115168215262671,0.5259490264260908,-0.13102484137715636,-0.9141614701078438,0.8407838871522327,-0.975374907251509,-0.19881179033362303,0.26865165976063143,-0.1702252595391722,0.22891893063733545,0.8996546099810626,-0.8010932377145512,0.26648982998628123,0.6203577666725713,-0.3419834656301996,-0.46053893237449944,1.0417810685173072,0.5842141089143086,-0.120013884347012,0.8437818019142016,0.7954270826530161,0.2229856826302194,0.48024834417354934,0.28444018332961024,0.41226889492313057,-0.03881259725737886,-0.7259310124570487,0.10191234168188319,-0.6869666504805404,-0.41722810687178935,0.47946863276639146,-0.6994584236625552,0.738955134308081,0.32369012485922166,-0.7494390675059597,-0.5708808340651959,0.04624089873983299,0.8264177874278784,-0.2068634173786397,0.06086718403708023,0.4030731271446424,-0.7114817310594391,1.0990586811523353,-0.7771360784545374,-0.5112554813299139,-0.2003086411908309,0.3309850865992124,0.31521149214518246,-0.22987488877606932,-0.33733871635665436,0.3370246163267612,0.46884145850988,0.9195125850315186,0.9316304765246987,0.1395238568007291,0.21427134064665004,-0.6264200878279034,-0.11526305593309308,-0.5014809051479957,-0.7883209922964696,0.6984824712010866,0.9974890903662031,-0.020670065064370968,-0.6181245057276727,-0.7324170560313784,-0.9311284447907172,-0.8539647085788032,-0.4309185859779208,-0.5966464121334893,0.12692040305244445,0.43434170395787186,-0.756627198710099,-0.3186752021778661,-0.17156845891248715,-0.6514149064618878,1.0021186800746715,-0.14621152925433167,-0.3973879150720592,0.9091984792876832,0.4907640872932012,0.8855341552580637,-0.3255167454169296,0.3967324265971184,1.0050319599940991,-0.3617079754256984,0.16814023695217423,0.4504374055648392,0.018616360220276577,-0.11729645719124916,0.46983599253076136,-0.5850336400057543,-0.30449244281357,0.6396008274199094,-0.5485428439171184,-0.04424132227521071,-0.4367007906827587,0.4255919474004242,-0.04407225788682827,0.9496043669730148,-0.7665733128095454,0.7936138702230041,-0.48554580886522025,1.1221094071884883,0.3744477340181023,0.9244302839116216,0.9158871421909655,-0.5460266666104187,0.10758251994993757,0.2685070347314493,-0.5957022816286381,-0.33986420705412834,0.503753580934928,0.9127685993583105,-0.684953059812834,0.9385380065749012,-0.08206587570784252,-0.1247597370164546,-0.06265906707454127,-0.33445731564709247,-0.04145225601801794,-0.06374183025628,0.5762814195491821,0.42369684213409126,0.9091009305740807,0.08702789325382522,0.04307511602202598,0.7711248302314689,0.5386017684250082,-0.7386352244584153,0.5131513614419863,0.08857526290215216,0.32911031591893347,-0.6548058158662834,-0.15674323688057792,0.22879528439543376,-0.09830850394457583,0.8395955782385071,0.7488902939519642,-0.8287882183195688,-0.11359089344781131,0.5213059540353268,0.17336660686602293,0.6187582776585944,0.8402987248107692,-0.37254715553384465,0.5277519436783409,0.1157951825926684,-0.8071170357375022,0.44268254459906325,-0.960960331315364,0.5470287288420934,-0.730485274647588,-0.2880960197086078,0.6498867924173287,-0.23080429871019856,-0.14348275063842242,0.2503249455153033,-0.055894689675547005,0.41862397731524326,-0.6118474275492538,0.5804589974666108,-0.9521553798241148,0.6297325357495143,0.05508266705954861,0.5237632478000239,-0.32818167196374054,-0.5027960850478123,0.6577937507274261,0.7839812144151027,0.33154434962611945,0.8324106530731105,0.0977029976463284,0.7758763714177968,-0.2445002354870176,0.2764441640199007,0.9825515585085692,-0.01400536133864924,-0.05067183554029368,-0.21997859080156476,0.12973127443051777,0.8818365460094124,-0.7861968627106306,0.46284943639055687,-0.8651694674572096,0.8487838268345175,0.8212397608788835,0.1647105516993877,-0.264859236896242,-0.176110499419967,0.2879231893087639,-0.09800909740511854,-0.6674102327414377,0.24940888762210284,-0.6498505446608209,-0.1395119659407925,0.07657572369356697,0.8834119168110713,-0.2982302131383151,-0.6282651849851918,0.42708961928358247,-0.19507946919875585,-0.10960031677904691,0.5960818473666512,-0.7773764263529732,-0.1840523593185605,-0.8068046758199915,0.41177929157527954,-0.7859983235461108,0.8191682521883893,0.9548886796463885,1.1266582679895216,-0.8976662279289147,-0.18061742876921064,0.8539735111159714,-0.6605699437620747,-0.17472940755126226,0.19030878132575607,0.7623216000203061,-0.04937381095934572,0.9898681699157917,0.2883878750615092,0.9961542498550557,0.86053920335233,-0.687475780542629,-0.6767374716888627,-0.10833690009537772,0.6500345518330818,-0.5769833859556488,-0.5841480200602898,-0.6821271948561602,-0.9198678939752768,-0.5390317698080165,0.4902855248166063,0.04041621271579203,-0.4201849538890936,-0.2676804036362358,0.2782163291216449,0.8859525101560094,0.6316430515319725,0.6676307686996213,-0.9488263612282262,-0.3812000417204378,0.4045539474250534,-0.4083727256435309,0.4360823352020629,-0.268394857961248,-0.7839035306068015,0.005529178356446805,0.5928547496799889,0.8646208433796496,0.46648304695335424,-0.43535212140253204,0.8756077306276052,0.22759045811676337,-0.929456560372505,0.5327981605761479,0.9232269246109454,0.44689911321631304,0.6011242566976451,0.03931741349972584,-0.8973160118224099,-0.8079847386234471,0.7174040129513102,0.5859728079626527,0.9969244322170678,0.8867669158554013,0.4224335540450991,0.28019030909005416,0.9753439680332039,0.20796653175219545,0.10980272157724735,0.6288418958288224,0.3280476912007246,-0.4190121366634883,0.604941054603759,-0.002586639660329964,-0.39241387833316843,-0.5879035042154983,0.2245698840590264,-0.5245259079210658,0.24166461821754434,-0.4168959695193998,-0.21786329775541405,-0.8496276983039672,-0.21427296755433298,0.7782234856887946,0.8065927236391539,-0.8354974412130396,-0.9826122383014948,-0.1990735063689777,0.19004569045740452,-0.6782718239901638,0.7109261929268613,0.034045367701637956,-0.5623119651460494,0.0594723036931015,-0.11160315611456895,-0.027319762009997566,0.8192479498642412,-0.24535508761350344,0.4424312836143947,-0.3852513507643124,0.6158974811963276,-0.6576089883315458,0.07775078030158725,-0.5840880576758628,-0.5879922967389921,-0.2550690515403056,0.8695958612855281,1.0190107302152618,-0.9211613880445798,0.2087495055068116,-0.557111830833203,0.8278815846487421,-0.9342268066747276,-0.8123466238370325,-0.3497080119379391,-0.4617905426212066,0.18215038795185864,0.003939358144279435,0.6383570135154845,-0.005881195158706687,0.7477835097488598,0.6491318644488224,-0.0029830141428323505,0.000944445589201851,-0.19290782081945376,1.123794451694185,0.8427252048071896,-0.33618254999410196,0.44620326693274825,0.5235081567592578,-0.6590835589395955,0.3974951710031243,0.9495023009930385,-0.4547564119384602,-0.6641511160265706,-0.6698934640182661,0.1846923517826518,-0.9572011491080885,0.37175258614668294,0.2355709793414957,-0.4739711079903497,0.93876619750989,-0.1686588247105631,-0.958661110589246,0.5517884537029828,-0.09947350354290424,-0.17614513716087482,0.4022093704848569,0.33476296361080876,0.873698393061336,-0.13203729640738818,0.5035460953191028,-0.7635842247083919,-0.6466065142333577,-0.007999765724840319,0.9880102173510319,0.4659931651528969,-0.19898021640094676,0.6064414433459844,0.07039011382261215,-0.1387424258360699,-0.25616481234589467,-0.4979400045766967,-0.9312398630865211,0.07314289953955942,-0.5985244001815531,-0.8370511499053133,0.13171942336593356,0.14985825224201132,-0.4582984731053221,-0.5289548998897065,0.8378586681084492,0.3969765151270404,0.8253133250297515,-0.10493207402110062,0.941128834752103,-0.2853649606094054,0.4103976488049829,0.016625786090221813,0.98527713026113,-0.010152392473988294,0.017712214683710908,0.2709665196873617,0.2317764078797426,0.48389569351399364,1.1436697805391582,-0.7529502839251973,0.09171899860875213,0.4205827168203575,0.560349920881349,-0.812821812892663,-0.6584919485752299,0.6481381654763836,0.02103025419032206,0.7796615830962608,-0.7645026970180497,-0.01960019024065973,-0.5365500707043689,-0.7488367124286248,0.9774261550397688,-0.7972502220434283,0.5463039940687365,-0.4923909105236187,0.5729305467265032,-0.21754757215168732,-0.0313639363617668,-0.16958936454965337,0.850520079600861,-0.00622335909407109,-0.5397045045845278,0.30013067771347074,-0.061018830410570025,-0.7037867941411381,0.45217385483576655,-0.5374580727611629,-0.5070567966273756,-0.18143430777367006,-0.5526047990460394,-0.4992772349782424,0.48485550271575334,0.37208652059355696,-0.5161594910915283,0.4530182274145349,0.6804996416505784,-0.24050020041244036,-0.8554979005862289,0.3310658980375374,-0.1354457552930366,-0.8489207927807082,-0.4614723114516464,-0.7939887643760902,-0.6486127537600084,-0.4681141551465429,0.6119918229910408,-0.2512120256260427,0.4271883459320638,0.949230881858106,-0.4946905950677013,0.26627583240660624,-0.06797090173105526,-0.08387338737077746,0.411735363860896,0.09659751635942812,-0.3420843383927743,-0.16048749234485601,0.7779170626081079,0.18585753420603424,-0.9722996140014548,-0.15183786732304608,-0.9520393756586571,-0.3224491845287225,0.47192992595569705,0.14714848251569437,-0.08826473002339741,0.7318752426428112,-0.8041935380541516,0.8810687077726225,-0.13356591116628772,0.9471262037299342,0.7881339411100956,0.22976894805556458,-0.8245081152542231,0.22502503923460238,-0.5070793282066622,-1.0317954935873535,-0.7621696164981343,0.8937019895240244,-0.8570281021554308,-0.055937276096447074,-0.8018758393701911,-0.9585982538468549,0.9210711317506391,0.6392988168221109,-0.26735217670358125,-0.7274854052777594,0.5770996670727371,-0.07801177520571792,0.6960125688027401,-0.11649245491449278,0.621533505611207,-0.2493377037878348,-0.7527179513276685,-0.23422309616022077,-0.2558171892564298,0.08499377647386858,0.5514664591677118,-0.9647711186753606,0.9445405747475034,0.6737581138564191,-0.19606363702287646,-0.26258134614312567,-0.7776460773218676,0.08170029610355098,-0.6572582373321982,0.892927707903594,-0.7751928648226835,-0.24097712367819157,0.6507784911884602,0.8116470121994004,-0.5151227051577747,-0.4860281936050735,0.9166183748208301,-0.3422246675887666,0.04708462051052442,-0.7891235764280875,-0.31126738705340773,-0.35663839901871164,-0.5959806107429786,0.86978093518566,-0.4954560814557165,-0.225506973625057,-0.5532192664885192,-0.4854800851555767,0.628245137523378,0.8581263901545768,-0.26913635023701166,0.38846770498920824,-0.11677863672788916,0.6814769406485625,0.4968244084114437,0.5952069098961321,-0.39091868028784593,0.12203270864899585,0.9932708388783243,0.42671162402709006,0.6600828310663116,0.7470641199126118,-0.5231891242805875,-0.44140407771238266,0.595331716808206,0.7180031879452493,0.9953438136343736,-0.3399087254912829,0.5713138529524591,-0.7024322488866575,0.0004527848925257594],[0.3101834843585656,-0.15114547510394716,0.5860526463438138,0.969537200485364,0.2039962401588011,-0.2769193236928187,0.7990596922599924,0.522163349916666,0.2514941179507393,-0.3905887212199981,-0.5510074353407313,-0.7250689013043854,-0.7277598512387455,0.6913570025641818,-0.5851217284917696,-0.8754766641450891,-0.2916121828895779,-0.987143852255106,0.15983856094056237,-0.7627935130772927,-0.948233867091672,0.10663038226111032,0.09147320631694188,-0.2896100411968341,-0.4152368922838636,-0.7460209024260951,0.630677543002583,-0.05235734805727499,-0.8949035633470739,-0.21085320914520955,0.22551937406201827,-0.06635950563269222,-0.7782868240405498,-0.6990254073661004,0.17899272448471404,-0.5017758314276497,0.8440115850409315,0.3341673273762236,0.18085658010820044,0.7543485272059706,0.29812933136935577,-0.07118178706825412,-0.01725236127554941,0.7289469204611875,-0.29319033823122825,0.6526568003599176,0.390715012452328,0.22797107554367063,0.5299605826871165,0.06003049404604188,-0.9681287603306672,0.5637530811608147,0.42096378092273223,-0.14614721145974752,-0.9625136779069868,-0.3515919739644755,0.5267461568391263,-0.5097962104024238,-0.18053444734216484,-0.27820443988906385,0.4312490814650322,0.7215834808882886,0.4329524083817471,0.9846607711850359,-0.11333537803231886,0.8814165978621075,0.9202844735955281,-0.5457917474614115,-0.6109644753401804,0.00533034447936145,-0.9142215139799214,-0.03172087677306564,0.3148436251743056,-0.33080112127174477,-1.0101703515588332,-0.5764148739168348,-0.1729550439036778,0.10620250617523265,-0.7136488477503292,0.38449566936793,-0.8608020970842127,-0.5727021824904506,-0.980705056570604,-0.7247109740198665,0.408818774099601,0.7034832030673575,0.5065569154769565,-0.2681175948845419,0.15423773648448022,0.5346913427684448,0.994173680407949,-0.4053313897837407,0.4825682641403384,-0.2411703357089869,-0.1688270333722309,-0.8848318388704165,-1.0341400092214499,0.37995893409483344,-0.18563512442311003,-0.022224778924775812,-0.8317517345570172,0.6742522429584987,0.391400595760011,0.4567990365331171,-1.0050616711723086,-0.6210053144584633,-0.6429205598933765,0.737456575400429,-0.3337306523696512,0.9922263999558296,0.32750772200717027,-0.607138835222591,0.2093043442808764,0.45870494888203006,0.27590122100889336,0.30024827360189277,-0.8748021290222542,-0.47089572934873963,-0.9043211049648882,-0.0819403527787469,-0.3428825835634643,-0.22255146350807034,0.33021331042153873,0.4590824320199277,0.04353657450959719,0.7874424226745743,0.5395947732071137,-0.3846098953292519,0.20050897868442624,-0.35569368883501157,-0.42909164572296554,-0.32776726185846883,0.3278495115658768,-0.5195594004572511,-0.5770784761329799,-0.02040034982076949,0.21781791182387156,-0.9139585597503761,-0.870232232575995,0.41760062659151354,-0.5930943636363781,0.41356254380658,0.2427550503879861,0.7611702478417183,0.3445871114289568,-0.23501112742706987,-0.590895982196121,-0.897801713548948,-0.44473262693263527,-0.5924341611673202,-0.3665031403895716,0.49514238202447647,0.7190858982465569,0.2791831880923863,-0.03745916775833456,1.1215884983402433,-0.3063958821854801,-0.17204436093030215,0.5073329461323172,0.16417344464088943,-0.7048948932632392,0.7838980063090113,-0.5851038908107619,-0.06748642245860256,0.75162526081331,-0.18788538017087467,-0.4659173820637543,0.5142486259801136,0.3581746956353278,-0.3164362169555308,0.2356335978354116,0.23278260258144598,-0.7087216522255525,-0.618128523539361,-0.5260359128466942,0.012793387828014785,0.4586148311064292,0.5155957169901184,0.8920028922087552,0.584409439187282,0.1892509224065883,0.8031063067138801,1.12343925426631,1.244411896506026,-0.5181634854965467,0.27727032196276097,0.29093594675395595,-0.9662655710508429,-0.5853824958913292,-0.7147731375405116,0.6913129749199498,0.6465111112319558,-0.9567455241153145,-1.0218473232256202,-0.2775717676470831,-0.07651073272873576,-0.6255342391179601,-0.48123273577876696,0.3901071357557874,0.12856828114282287,0.0830740675318817,-0.22437345788592705,-0.03270737515812691,0.019879047511775074,-0.4180065901543216,0.7175931629888589,-0.21335686978806384,0.5498630814189619,-0.032271412931241784,0.2996206419947048,-0.6079482164524005,0.840091193325412,1.351064065920664,-0.26425044958917837,-1.074021501073635,0.4761225822865919,0.6159988639939221,0.2237643894068246,0.0318936698007562,-0.10251247857919402,0.6078959626045009,-0.5883042651923189,0.9656424572553282,0.4930628599317941,-0.08014458368612365,-0.9601290479895023,0.044941551458095655,-0.330981489563379,0.1966885041380413,-0.4401428569234643,-0.4803553297589079,-0.18354954375555987,-0.8138448766453766,-0.530174116782459,-0.12128356538052792,0.32940564770980246,0.32015775073384845,0.06721536214723497,0.3817638752384201,0.3295701912166913,0.7753461524606297,0.9737125001361712,-0.5167385039365063,0.3743648077889092,-1.0135947739011544,-0.6202031651478895,-0.2508732007304683,0.5678918233004686,-0.00018222031297652385,-1.043857534548401,-0.858723681998467,0.8282608505569078,0.9948414528099438,-0.9890133949424786,0.07393647835255733,0.2683235552601173,0.6996541415395121,-0.8569102010894862,0.24302524340931914,0.7141507838537674,0.18780498354299532,-1.2107181877133983,-0.09344983795175847,-1.2527118649459683,0.45498031934440003,0.3171894582136574,-0.8485414850879129,0.8554802101384112,1.1035991065939001,0.4780180293475564,0.836886165908652,-0.5802547543980449,0.4652781432870306,-0.0930684482129708,-0.01855394223264967,-0.049182022634838625,0.21520024479030475,-0.7526440133997813,0.82730879613835,-0.17898998157788815,-0.08254826313823305,-0.49802614783455834,-0.6331388490712125,0.7649440204606304,0.12172428577697314,0.4879033731519034,-1.0012277218929229,-1.4227166514014813,-0.6291032961091088,-0.1919770540122354,0.002027960777665799,-1.285956485676346,-0.019059952354311065,-1.3316823746062503,-0.7088752967831283,1.0913820702027677,0.5276216884472179,0.4619105874986962,0.020164262456317472,0.8195699952641844,-0.694573059060903,-0.29720819393999853,-0.2517200096211576,0.19238736663545888,-0.5665302362032472,-0.8657920782308439,0.9231390130542779,0.9272223801779408,-0.04423405584978757,-0.27926306446825344,-0.22287191932135655,-0.8529557757926383,-0.8938337003477397,-0.45080597134668887,0.5548172137965619,-0.06350855556941122,-1.455633510523399,-1.0796936871329272,-1.4184737965579286,-1.9059019262025012,-1.4847495985710362,-0.5780223680194158,-0.10190313753267626,0.10666537019457363,0.8862168995336235,0.7229657972774248,-0.07017326101533482,0.18857355328860315,1.0637860122317837,0.5458413207127663,-0.8012807519743563,0.2088088330376429,0.7288093748926779,-0.8332657526884342,-0.6079855667631172,-0.7262198377080766,0.4789503157987311,-0.41006938927363484,-0.42069371509326287,0.4740198981924968,0.3197935406841561,0.8449814905697722,0.20352401534617534,-0.05049319501329356,0.25925931659044704,-0.9967721535558948,-0.20331056211935913,-0.5083234879091426,-1.3332342815442713,-0.12395776762015707,-0.23968424522869808,0.19952036757364985,0.7048076010521274,-0.10445693124584741,0.743947778845778,-0.38695295394204793,0.7264151290441364,-0.4348487037679644,0.17272580730397824,-0.8834927779080942,-0.019519658428293896,0.5229585647547783,0.1491067196863875,0.23507132985874168,-0.4689563220565057,-0.8440508492444503,-0.734636479876714,0.018654507965658547,0.37104335362649626,-0.3970539225443227,-0.987699824279262,0.20357549807541142,0.47266631960354555,-1.3030257456844265,0.10587205415313539,-0.8958718719693797,-1.053922091854282,-0.5820109959341605,0.3765935452173274,0.2513202919283241,0.28325030811789104,0.8400977013643836,-0.716670835989999,0.3306739928263263,-0.04404606986473015,-0.9596686489352497,-0.28422389764622585,-0.034589687823593326,0.7770563669672004,0.8943481779994024,-0.5883877477671137,-0.7132010671783879,0.09119480874496766,-0.0115871378369643,-0.13646028136097865,0.8786630155360365,0.6379290601763963,0.7091190476908771,-1.0676189381461925,-1.4733448186813722,-0.05015866809815384,-0.5437130819460231,0.29129305502117614,-0.7754551491484977,0.5397816296488825,-0.7083344304724326,1.0789513439173355,-0.45411741892383,-0.8027783076366167,-0.678705260973442,-0.11807636628346847,0.5640281881524635,0.13029780177869982,0.3146277434253978,0.374047015684104,0.10890564998472123,-0.5763264984093882,-0.5613335769904925,0.9915995906400351,-0.3493025619491512,0.786210775618569,0.8880017603869694,-0.6869618080783406,0.17042139737773176,0.02847339676888373,0.8120133251279603,0.5815255354492904,-0.8583383923820789,-0.03288648624873312,-1.0340919485454725,-0.28297715564380677,-0.26470755292026527,0.5073041462096188,-0.2797566129234574,-0.7701003921966187,0.5491071699472735,0.7863640411340623,0.6809481546008408,1.0963769014128195,-0.7803853980846615,-1.050473317840111,-0.2844694574678076,-0.28360860888583206,0.4427242372612275,-1.0989189965179014,0.7166624562709228,-0.0723614381356586,0.9903862161632956,0.3170011729319311,-0.6570488609305718,-0.4870968018928743,0.5712493854930416,1.0696509597599424,0.24385349706079232,0.18916062052227275,0.7193923278205623,-0.36874153052854997,0.3986042388034455,0.4709948079201696,0.6598428032820877,-0.8179635318925672,0.8836171833708582,0.42559939450943823,-0.6086031555508113,0.591008428998247,0.7202838796617392,-0.33391675325677833,-0.1050693195751553,0.5255409333731504,0.17802038228266526,-0.4180052778532342,-0.4130389167012565,0.016532506219222854,0.2990378968454538,-0.73796462663667,0.965132934425647,0.17834566249822514,-0.2603452083403363,-0.7246719750303728,0.28407393486236343,-0.0055729117688631214,-0.4861482100167879,0.14700265306745738,-0.04405322761124054,-0.6399509823733237,-0.3688693936210971,-1.3174745484802186,0.15496962869209208,-0.6192662257170064,-0.2244249402037578,-0.5676436564284272,-0.8095837454179782,0.9909965485739404,-0.18687157120270417,-0.4274585251339922,0.7101880820825351,0.6872651188052129,-0.49106173074561027,-0.41188383677338253,0.11365473906550087,0.8762425049138972,0.81928336302742,-0.6825076525433281,0.9502560345343308,-0.9747613942912376,-0.3829393078064207,0.25287447402023155,-0.062350349374399656,0.30688248546795033,0.6788962539038906,-0.4626668355999933,-0.3751576329252591,-0.8656368582076217,-1.1133602618992304,0.32235557057230063,0.30980123796963815,0.2528744311116284,0.7247180581282121,-0.3508024566946061,-0.04988642843508656,0.91619670123601,-0.6250490886139675,-0.13186160684708811,0.3308620807517449,-0.3241814858510675,-0.20568581655761503,0.8437310608302099,-0.5038867489375431,0.0009808859925793819,-0.6096700873568421,0.033521026383938474,-0.9756914772979015,-0.5575755159669229,-0.505318940696853,0.22873191352135766,0.0523545740994439,0.8612652894453331,0.4412679270424465,-0.12086344736795049,0.7655845093129346,0.572958826978435,0.22636600750401692,-0.9446232184910253,0.5519540689335848,-0.7349394817185408,-0.4119554278514293,-0.2408219251121015,-0.7217121599909129,0.30315541823053077,-0.14467778252223815,0.855876833623003,-0.3458841457584774,0.06351117341376748,0.6071808653332701,-0.6102019319405951,-0.04137463461751992,-0.15030877093026448,0.5147110213303443,-0.5128084101708206,0.5337394534032841,-0.6907598111138429,-0.9697601656007674,0.3175003695049659,-0.2870962958413853,1.0077382686655683,0.9835433754928883,0.6292530850234844,0.772732672967446,1.1252189433773665,0.752025796228155,0.8199064198912871,-0.15579324320296248,0.6884482954333278,-0.8108252183848603,-0.2115447759271985,0.5123056266442765,0.04562411193158274,0.11025808052286928,0.2092662439527423,-0.13897333128170866,0.946290003261851,0.7140847932703833,0.8614917548205518,0.27169873870162053,-0.21639453549768906,0.02103148368346056,-0.8807691509542366,-0.43072055375944696,-0.046746080427164216,-0.46146322428145353,-0.3029251261690829,0.4892201400010935,1.0307084266641582,0.34654923985454206,-0.32330964835000475,0.4527980321561565,-0.1321957254173044,-0.4482710104614126,0.027814294287867747,0.5457662904818065,-0.7541177697386732,0.14491391041483848,0.3607170596059558,-0.9405644812993997,-0.516577805742807,0.04916125852917558,0.7273001850905721,0.30252122641848656,-0.7893026826410933,0.5005262848840778,-0.15903359356784968,0.47311818019144525,-0.5546265625271257,0.02245586034817596,-0.6447659634684334,-0.7109128450999653,0.1024556124955336,0.371273764701306,0.12753599227378412,-0.3257170062236388,0.7497408000962492,-0.2709500653998074,0.7733407337496084,-0.24609224157354173,1.1919224382373712,-0.7372797196761363,-0.9706096719613448,0.2368484743542888,-1.0748825119879757,-0.31413399552526255,-0.1485555773031601,-1.0360776205227333,-0.32582746013729014,-0.6715866288662877,-0.7503385703567137,-0.7156477147017044,-0.852308768393495,0.8733421162879133,-0.36308323630880024,0.9765829015810056,0.4254383102930006,-0.7372546063789317,0.9185258289249736,-0.44959376542636154,-0.33107117105398665,0.9599516908678132,0.7864185499547418,-0.09023151079830813,0.2946715614841349,-0.061038575359326955,0.532295407586012,0.7395292413257868,0.5287933995388572,0.9426992228912963,-0.39093914608259894,-0.2644594541582939,-0.07466652817335849,-0.563581147917678,0.3173034814360424,0.12236736648040018,-0.02910110389911084,-0.5886530009282874,-0.14956970106613948,-1.0352959778045303,0.34119819890471254,0.04976731690459838,0.2960290957831403,0.5396326030450773,0.47655907516923524,-0.16316918878674266,-0.6537204984351316,0.15640308873690434,-0.5881569067674772,0.35134765864280615,0.3477820536236081,0.6063633696725244,0.7919164978126604,0.041743304107094245,0.32284875426947107,0.9122766709052561,0.015932897665169067,-0.21248143086230437,1.2191395747851101,-0.8227966372014885,-0.9575002365323507,-0.6491088196324278,0.2857762902128589,-1.0051183912212107,-0.5780643835596411,0.502648153309033,0.1745507658174065,-0.904311055939827,0.4687179741173399,0.8884789722504028,0.7734928787820338,-0.7050778696151355,0.12759950548731025,-0.8180379664319244,-0.8730145294950389,-0.9542606429552484,-0.17499693911774883,0.4491746060334989,-0.44133288639654666,0.1311756705965311,-0.1974006231045051,-0.4465779435985944,0.6820985367157234,0.35285556222482134,0.8260712341450186,0.833895335058524,-0.7344724226048036,-0.346441589507739,-0.4066000409446419,0.48942172392649286,-0.7055195130419796,-0.20270296140001928,-0.7307875955909369,0.49446816644312164,0.20599781302568185,-0.8480437924365805,-0.8373765766623045,-0.40077976513646657,-0.08915532601713053,0.8287707138421488,-0.1584891930690025,0.8676862274264614,-0.40417636658592504,0.9282457089244268,0.7609030267569268,-0.6242043018562968,-0.3243857065943512,0.47834005090639087,0.0055163403949790675,0.006326935189083374,0.4166494403297689,-0.6564657226818791,0.7222452565457886,-0.9269514968169607,0.6983772432567219,0.03445887038702125,-0.6043180599395577,-0.4762587144917712,-0.7595776770657692,-0.9463529617016678,0.7067993203775268,0.3140580198312639,0.5137365508547794,0.26596239699098023,-0.006758515388221668,-0.716250949749601,0.4450828982823553,-0.1487348655233031,-0.5192288276834873,0.19218067530158137,-0.08109578161627362,-0.5010655283778869,0.16869120642145696,-0.7513274272320922,-0.6928705973756639,0.22109466838949257,0.9357153595362582,0.8331129214594362,0.6010115269232477,0.4832730176751073,0.9055999072949403,0.32539537652547934,-0.4110486213132515,-0.5326781599091654,-0.22026828568027448,-0.8740058340713779,0.5087228877312922,-0.07270532499536575,0.19447430533045232,-0.7445230563291522,0.00684694083047309,-0.9925148239648338,0.21450824415202155,-0.9564689523267749,-0.3769448083494578,0.5414169893168761,0.40882332933131194,-0.1357193291209724,0.1902516122242841,-0.13665781757560147],[0.3096019453537655,0.6130948919811516,-0.5795182432330008,0.8903615539901604,-0.05633982212333488,0.4373210693571532,0.8557028437329126,0.3685620982961997,-0.51115960884155,0.5764138945972157,0.24376988894092655,-0.8952551946439806,-0.387666275167343,0.32303340099836864,0.3578269238724956,0.6317113249446755,-0.7629682093990489,0.6665523681421635,-0.5228050673137303,0.4627598971168474,-0.40420163123789066,0.15020326260840866,0.05730425068025502,0.651327570853866,-0.1474932767942676,-0.8766319887962053,-0.18891869125778515,-0.08886449707219835,0.6513212620331086,-0.22048934682498889,-0.695881334182052,-0.19769357323848435,-0.036585411765653664,0.650747235176709,0.7627244224108845,0.2642606785987405,0.8314006104586469,0.7376631181891347,0.8892786262656656,0.11078291779717332,-0.6409536303942596,0.4257453177016661,-0.4195996212075277,0.4402914568181895,-0.2469124808807273,-0.6238192410305208,-0.4857163624671148,-0.20220241686780271,0.4270676796233068,-0.7343064298895237,0.43807855931265927,-0.9303224199230906,0.7792675678803518,-0.38115253986026354,-0.02259439654704032,0.7778672575415029,0.17721049100130437,0.10259928664097127,-0.04452875895300834,-0.010947491763644512,-0.2175117852299344,-0.10245947411244428,-0.8527101778566004,-0.22818244285983247,-0.40197849166884914,-0.4439747140496513,0.970931611021348,-0.8375563547279417,-0.05293307173431771,-0.5069792602979086,-0.6052351680256682,0.42853465611834934,0.9417433059709052,-0.2753880561067498,-0.10570360704903012,-0.5293090882631333,-0.5477755709216046,0.7303832117179654,-0.7372431410843208,-0.7990372460590371,0.2071122133105192,0.7085708180207662,-0.21853957113347167,-0.7184658835444235,-0.5315791149407141,-0.3258504972417757,-0.5340981968718985,-0.057201086608626994,0.9565647042292424,-0.4686308264377521,0.7922948061870538,-0.2073518103573604,0.3702070731727882,-0.9247195707778708,0.7975760707834647,-0.5880011152389766,0.04444695455295222,0.0882951467095086,-0.12929036922729342,-0.4702317326980591,-0.5587769528227868,0.8552399618258354,-0.8416108548925759,0.09545982785806297,0.816492318199074,0.46895062580994273,0.07832205312073492,-0.5167116654507151,-0.8187903306465516,0.7593728135432811,-0.13492476962962896,0.035899081225114315,0.9665231448273132,0.3019728368062915,-0.6503596673285166,0.34782217592450615,-0.4960770867520632,0.8060607204199008,-0.6624279380717452,0.30267834237356817,-0.6315915030272666,-0.4124216155356017,0.8973187206604116,0.10123946670991735,-0.5572113284462965,-0.2783709795628894,0.5343513069708117,-0.5791738010097485,0.15306470532274252,-0.6157655701853149,0.7487593767137587,-0.7074450704244365,0.31151479456061537,0.905431377102839,0.3679651436143218,0.22365469826182005,0.9792631689183449,-0.2187711237213037,0.14531112843209737,-0.6429129620597516,0.026592907958510548,0.4837977697101301,0.8843036940720921,-0.015486556809117149,0.8122380793435775,0.7314235705046153,-0.4877999750204078,0.31468574378453074,0.44791435331007157,0.1709252709100956,-0.10334809486261966,-0.7283223103551407,0.8030189411305577,-0.5156816442072629,0.10050481722886381,-0.18697202035810606,-0.10299216339367982,-0.827868055126455,0.349099568667271,-0.17175718460569409,-0.9924273243732749,-0.5162562978303551,-0.5594900615161458,-0.7089394049686512,0.6675720708774872,-0.8681722128227858,0.9775315112764577,-0.3890228459369607,0.011803640307372463,-0.8487352427488541,-0.7940055311166134,-0.1164040568766751,0.45978657251142213,-0.7362887038548622,-0.005579292488058652,-0.7204621913354174,0.105182776430924,0.21242557706341544,-0.8102012703419964,0.9190744339663469,0.8376194093240248,-0.3556861163515625,-0.11565883221336166,0.45295796690955004,0.5274631494533181,-0.20068935626498782,0.8398309478181575,-0.7925292486791848,-0.36449195786246585,0.3768642161051986,0.13718808266207996,-0.07775441483571473,0.8192492254988982,-0.7285699566270472,-0.3853735413034578,-0.04307595861251268,0.2478386013007141,-0.5435161283343535,-0.3554798384463165,-0.8028304618203999,-0.714690422210288,0.3854136396079849,-0.2815311102337357,0.2547533556984209,0.09980244503621219,0.1758572029143633,0.06377837765846335,0.1456560455693794,0.37555203866923975,-0.21124234528528385,-0.9727211349797169,-0.4460735959159001,-0.6150028796432921,-0.25398823847941865,-0.3273529961621283,0.5633172075372609,-0.7171755992413049,-0.4500993075264818,-0.27619643074272926,-0.5951591798583258,-0.4591512244115556,0.08710364359847445,0.5911573442522282,-0.986725083156333,-0.08243261691536974,0.047869421513441646,-0.6049189758133353,-0.3944730409218606,0.2563017073476764,-0.4963761769964361,-0.8370947231119408,-0.35103696625554126,0.4304216145821056,-0.5878571302181026,-0.9090817049592667,-0.18203679146413007,0.7320975508102999,0.16879267494922165,0.43652271170665974,-0.34143864437242466,-0.782881440264794,0.9798630940168306,-0.791649013485697,0.19459463612708483,-0.1345664619916219,-0.3224972704030061,-0.7997182848180387,0.2169139683111284,-0.9349591905395608,-0.1738869161071811,0.9564781998378766,-0.8231703898961482,-0.27198638491821403,0.16774918207270173,0.5334540033688342,-0.08754757371743796,0.1881476459062967,0.2815753106822502,0.5059124627855025,-0.34359478585381004,-0.25218922910839164,0.8403602604126257,0.04887180026548059,-0.6690852670812852,-0.4861815740159499,0.3939182433135516,-0.5177316085999669,-0.7771094323648264,-0.8442683334254747,0.14210175264649563,-0.7031237944272025,-0.3297346879778587,-0.17717013028431158,-0.28394609057997366,-0.3935904814418674,0.9720012435947849,-0.8014223463079132,-0.6870755436085358,-0.7620716885811127,-0.004782646872038887,-0.42177660210782486,0.2034781511648085,0.5998886042227751,-0.46081046992815433,0.36996354910157137,-0.7423748227844608,0.8670091948376568,-0.5653555503218296,-0.9596278441616967,-0.5041367746451362,-0.36178547310008075,0.10159990650781613,-0.1417514305388884,0.5579616215507663,0.5626557077515257,-0.30650191728061593,-0.9149900256992168,-0.41062684143592154,0.17141066720392303,0.052080633448366186,-0.3358598855621082,-0.251151434515215,0.14077861479874731,0.3785083299528914,-0.6539994380824494,0.5709537821064812,0.3484098585908222,